booster[0]:
0:[tkiso<0.460456878] yes=1,no=2,missing=2
	1:[spreadpt<0.643717289] yes=3,no=4,missing=3
		3:[mind0<-0.129812106] yes=7,no=8,missing=8
			7:[ecf3<610.600403] yes=15,no=16,missing=15
				15:[mind0<-0.245754331] yes=31,no=32,missing=31
					31:[tkiso<0.373470306] yes=63,no=64,missing=63
						63:leaf=0.327519774
						64:leaf=0.145862192
					32:leaf=0.0386048742
				16:[pfiso<0.227200553] yes=33,no=34,missing=33
					33:leaf=0.124263503
					34:leaf=-0.159018874
			8:[pfiso<0.128888339] yes=17,no=18,missing=17
				17:[pfiso<0.101869732] yes=35,no=36,missing=35
					35:leaf=0.268951386
					36:leaf=0.0380390771
				18:[mind0<0.0894167721] yes=37,no=38,missing=37
					37:[pt<55.9514503] yes=65,no=66,missing=65
						65:[spreadpt<0.612635136] yes=97,no=98,missing=97
							97:leaf=-0.166256592
							98:leaf=-3.61272396e-05
						66:[pfiso<0.17726168] yes=99,no=100,missing=99
							99:[spreadpt<0.604633689] yes=127,no=128,missing=127
								127:leaf=-0.158517718
								128:leaf=-0.0353084281
							100:leaf=-0.353574008
					38:leaf=0.257904589
		4:[pfiso<0.31798631] yes=9,no=10,missing=9
			9:[mind0<-0.030114403] yes=19,no=20,missing=19
				19:[ecf3<12620.6729] yes=39,no=40,missing=39
					39:leaf=0.38770327
					40:leaf=0.134748951
				20:[tkiso<0.218209967] yes=41,no=42,missing=41
					41:[spreaddr<0.00899574813] yes=67,no=68,missing=67
						67:[tkiso<0.122182101] yes=101,no=102,missing=101
							101:leaf=0.37792331
							102:[mind0<0.0101351831] yes=129,no=130,missing=129
								129:[mind0<-0.00305094337] yes=149,no=150,missing=149
									149:leaf=0.322684586
									150:leaf=0.152224943
								130:leaf=0.384259969
						68:[mind0<0.00264535355] yes=103,no=104,missing=103
							103:leaf=-0.222948208
							104:leaf=0.331626326
					42:[mind0<0.0189775266] yes=69,no=70,missing=69
						69:[ecf3<37.3938828] yes=105,no=106,missing=105
							105:[mind0<-0.00305094337] yes=131,no=132,missing=131
								131:[spreaddr<0.000540711801] yes=151,no=152,missing=151
									151:leaf=0.298083305
									152:leaf=0.104702003
								132:[mind0<0.00120987417] yes=153,no=154,missing=153
									153:leaf=0.0417050608
									154:leaf=0.19472982
							106:[pfiso<0.158035725] yes=133,no=134,missing=133
								133:leaf=0.177420661
								134:[ecf2<276.206848] yes=155,no=156,missing=155
									155:leaf=-0.0260089654
									156:leaf=-0.259195507
						70:leaf=0.376555204
			10:[mind0<-0.0872448161] yes=21,no=22,missing=22
				21:[ecf1<208.648407] yes=43,no=44,missing=43
					43:[mind0<-0.14834331] yes=71,no=72,missing=71
						71:leaf=0.377359807
						72:leaf=0.238105223
					44:leaf=-0.00797776878
				22:[mind0<0.0505623743] yes=45,no=46,missing=46
					45:[ecf2<72.2091904] yes=73,no=74,missing=73
						73:[mind0<-0.0168086309] yes=107,no=108,missing=107
							107:[spreaddr<0.000684704108] yes=135,no=136,missing=135
								135:leaf=0.268863976
								136:leaf=0.0693337172
							108:[ecf2<48.7882767] yes=137,no=138,missing=137
								137:[tkiso<0.347030103] yes=157,no=158,missing=157
									157:leaf=0.149977535
									158:leaf=0.0500928573
								138:[pfiso<0.386888772] yes=159,no=160,missing=159
									159:leaf=-0
									160:leaf=-0.086792469
						74:[pt<88.2594833] yes=109,no=110,missing=109
							109:[spreadpt<0.720517695] yes=139,no=140,missing=139
								139:[pfiso<0.360659689] yes=161,no=162,missing=161
									161:leaf=-0.023132639
									162:leaf=-0.206641823
								140:[spreaddr<0.00107923604] yes=163,no=164,missing=163
									163:leaf=-0.0693448484
									164:leaf=0.131942362
							110:leaf=-0.30987218
					46:[mind0<0.0689774603] yes=75,no=76,missing=75
						75:leaf=0.151321188
						76:leaf=0.362777472
	2:[pfiso<0.323580027] yes=5,no=6,missing=5
		5:[mind0<-832.036255] yes=11,no=12,missing=11
			11:[ecf3<232.055298] yes=23,no=24,missing=23
				23:[spreadpt<0.869835675] yes=47,no=48,missing=48
					47:[spreadpt<0.660882771] yes=77,no=78,missing=77
						77:leaf=-0.175915048
						78:[pfiso<0.260931253] yes=111,no=112,missing=111
							111:leaf=0.344980538
							112:[spreaddr<0.000381844729] yes=141,no=142,missing=141
								141:leaf=-0.106183179
								142:[tkiso<0.968364179] yes=165,no=166,missing=165
									165:leaf=0.26438117
									166:leaf=0.0427651778
					48:[tkiso<0.968364179] yes=79,no=80,missing=79
						79:[pt<653.497742] yes=113,no=114,missing=114
							113:leaf=0.317385435
							114:leaf=-0.00238446845
						80:leaf=-0.330361456
				24:[pfiso<0.124386676] yes=49,no=50,missing=49
					49:leaf=0.116714224
					50:[pfiso<0.171730042] yes=81,no=82,missing=81
						81:leaf=-0.148103923
						82:leaf=-0.373283833
			12:[spreadpt<0.632709384] yes=25,no=26,missing=25
				25:[ecf2<332.183289] yes=51,no=52,missing=51
					51:leaf=-0.00886108447
					52:leaf=-0.273774356
				26:[tkiso<0.968364179] yes=53,no=54,missing=53
					53:[ecf3<391.017761] yes=83,no=84,missing=83
						83:[spreadpt<0.660882771] yes=115,no=116,missing=115
							115:leaf=0.153536588
							116:leaf=0.36408487
						84:leaf=0.0160629004
					54:[spreadpt<0.901394248] yes=85,no=86,missing=85
						85:leaf=0.129360408
						86:leaf=-0.255995214
		6:[mind0<-0.129812106] yes=13,no=14,missing=14
			13:[ecf2<235.527115] yes=27,no=28,missing=27
				27:[pfiso<0.581561327] yes=55,no=56,missing=55
					55:[spreadpt<0.600713074] yes=87,no=88,missing=87
						87:leaf=-0.0628701448
						88:[pfiso<0.539019287] yes=117,no=118,missing=117
							117:leaf=0.324847579
							118:leaf=0.124241956
					56:[spreadpt<0.640077472] yes=89,no=90,missing=89
						89:leaf=-0.217398807
						90:[pt<39.9061203] yes=119,no=120,missing=119
							119:leaf=0.0885611251
							120:leaf=-0.0685283318
				28:[ecf1<78.170929] yes=57,no=58,missing=57
					57:leaf=-0.0384706184
					58:[spreadpt<0.692775965] yes=91,no=92,missing=91
						91:leaf=-0.349088937
						92:leaf=-0.156608894
			14:[mind0<0.0894167721] yes=29,no=30,missing=29
				29:[tkiso<0.582267523] yes=59,no=60,missing=59
					59:[ecf2<96.1794739] yes=93,no=94,missing=93
						93:[pfiso<0.401670247] yes=121,no=122,missing=121
							121:leaf=0.194801286
							122:[mind0<-0.0667914078] yes=143,no=144,missing=143
								143:leaf=0.0776318163
								144:[ecf2<28.737093] yes=167,no=168,missing=167
									167:leaf=-0.030488478
									168:leaf=-0.247765407
						94:[ecf1<80.5128632] yes=123,no=124,missing=123
							123:[mind0<-0.0872448161] yes=145,no=146,missing=145
								145:leaf=0.083192803
								146:[spreadpt<0.72377795] yes=169,no=170,missing=169
									169:leaf=-0.322125167
									170:leaf=-0.100598775
							124:leaf=-0.374445051
					60:[pfiso<0.408135056] yes=95,no=96,missing=95
						95:[ecf1<76.6818085] yes=125,no=126,missing=125
							125:[tkiso<0.968364179] yes=147,no=148,missing=147
								147:[mind0<-0.0482015349] yes=171,no=172,missing=171
									171:leaf=0.180808023
									172:leaf=-0.0220541917
								148:leaf=-0.297948748
							126:leaf=-0.383488864
						96:leaf=-0.390646398
				30:[pt<93.8583145] yes=61,no=62,missing=61
					61:leaf=0.237720534
					62:leaf=-0.17376259
booster[1]:
0:[tkiso<0.479344308] yes=1,no=2,missing=1
	1:[spreadpt<0.654477179] yes=3,no=4,missing=3
		3:[maxd0<0.107964903] yes=7,no=8,missing=8
			7:[maxd0<-0.072003454] yes=15,no=16,missing=15
				15:leaf=0.278661788
				16:[pfiso<0.105769977] yes=31,no=32,missing=32
					31:leaf=0.134253129
					32:[ecf1<61.1046715] yes=55,no=56,missing=55
						55:[mind0<-0.0527503006] yes=85,no=86,missing=86
							85:leaf=0.0387594812
							86:leaf=-0.204662085
						56:leaf=-0.308202833
			8:[mind0<-0.0992338359] yes=17,no=18,missing=18
				17:leaf=0.293949425
				18:[ecf3<216.398239] yes=33,no=34,missing=33
					33:[spreadpt<0.596631408] yes=57,no=58,missing=57
						57:[pfiso<0.223810181] yes=87,no=88,missing=87
							87:[spreadpt<0.56518203] yes=115,no=116,missing=115
								115:leaf=0.00411208207
								116:leaf=0.15112789
							88:leaf=-0.153512672
						58:[mind0<0.0505623743] yes=89,no=90,missing=90
							89:leaf=-0
							90:leaf=0.246675849
					34:[tkiso<0.175036862] yes=59,no=60,missing=59
						59:leaf=0.0864973366
						60:[maxd0<1.30679357] yes=91,no=92,missing=91
							91:leaf=-0.266839534
							92:leaf=-0.0895163566
		4:[pfiso<0.347951889] yes=9,no=10,missing=10
			9:[maxd0<0.0300021097] yes=19,no=20,missing=20
				19:[mind0<-0.00305094337] yes=35,no=36,missing=36
					35:[tkiso<0.221277937] yes=61,no=62,missing=62
						61:[ecf3<5830.57666] yes=93,no=94,missing=93
							93:[tkiso<0.164476261] yes=117,no=118,missing=117
								117:leaf=0.322482467
								118:[mind0<-0.0440968424] yes=141,no=142,missing=141
									141:leaf=0.304258287
									142:leaf=0.18725343
							94:leaf=0.078494899
						62:[mind0<-0.0910281539] yes=95,no=96,missing=96
							95:[maxd0<-0.0143122887] yes=119,no=120,missing=119
								119:leaf=0.317041457
								120:[spreadpt<0.703160524] yes=143,no=144,missing=143
									143:leaf=-0.00973055512
									144:leaf=0.213007361
							96:[ecf2<133.43367] yes=121,no=122,missing=121
								121:[spreadpt<0.872250676] yes=145,no=146,missing=146
									145:leaf=0.239433691
									146:leaf=-0.0609093681
								122:[pfiso<0.194785237] yes=147,no=148,missing=147
									147:leaf=0.144486725
									148:leaf=-0.217530414
					36:[pfiso<0.113658845] yes=63,no=64,missing=64
						63:[maxd0<0.00193751021] yes=97,no=98,missing=97
							97:[ecf2<964.655701] yes=123,no=124,missing=123
								123:[pt<197.066208] yes=149,no=150,missing=150
									149:leaf=-0.0191989522
									150:leaf=0.24529013
								124:leaf=-0.169662967
							98:leaf=0.3034302
						64:[ecf2<133.43367] yes=99,no=100,missing=99
							99:[spreadpt<0.924109876] yes=125,no=126,missing=125
								125:[maxd0<0.00262987055] yes=151,no=152,missing=151
									151:leaf=0.0122726187
									152:leaf=0.219872445
								126:leaf=-0.170462549
							100:[pfiso<0.15282847] yes=127,no=128,missing=127
								127:[maxd0<0.00227155862] yes=153,no=154,missing=154
									153:leaf=-0.166645929
									154:leaf=0.125251681
								128:leaf=-0.254373908
				20:[ecf3<2574.44043] yes=37,no=38,missing=37
					37:leaf=0.325611591
					38:[pfiso<0.101869732] yes=65,no=66,missing=65
						65:leaf=0.286759079
						66:leaf=-0.0985183939
			10:[maxd0<0.0948894694] yes=21,no=22,missing=21
				21:[mind0<-0.123351656] yes=39,no=40,missing=39
					39:[pt<151.932327] yes=67,no=68,missing=68
						67:leaf=0.278697133
						68:leaf=-0.115233436
					40:[ecf2<70.8338013] yes=69,no=70,missing=69
						69:[mind0<-0.00591346063] yes=101,no=102,missing=102
							101:[maxd0<0.00193751021] yes=129,no=130,missing=129
								129:leaf=-0.0734112114
								130:[maxd0<0.0156627521] yes=155,no=156,missing=155
									155:leaf=0.0362550579
									156:leaf=0.175400138
							102:[spreadpt<0.770295978] yes=131,no=132,missing=132
								131:leaf=-0.0584820136
								132:leaf=-0.179909602
						70:leaf=-0.275464505
				22:[pt<234.441589] yes=41,no=42,missing=42
					41:[maxd0<0.168116882] yes=71,no=72,missing=71
						71:leaf=0.180608049
						72:leaf=0.318589449
					42:leaf=-0.0325538665
	2:[pfiso<0.297626823] yes=5,no=6,missing=5
		5:[spreadpt<0.924109876] yes=11,no=12,missing=11
			11:[ecf3<374.059448] yes=23,no=24,missing=23
				23:[spreadpt<0.647292793] yes=43,no=44,missing=44
					43:[spreadpt<0.588934839] yes=73,no=74,missing=74
						73:leaf=-0.155211329
						74:leaf=0.038152054
					44:[pfiso<0.223810181] yes=75,no=76,missing=75
						75:leaf=0.307580918
						76:[pt<129.359924] yes=103,no=104,missing=103
							103:[tkiso<0.968364179] yes=133,no=134,missing=133
								133:leaf=0.293000907
								134:[spreadpt<0.749040246] yes=157,no=158,missing=157
									157:leaf=0.161759824
									158:leaf=-0.206494763
							104:leaf=-0.141116872
				24:[pfiso<0.155279607] yes=45,no=46,missing=45
					45:leaf=0.167550564
					46:leaf=-0.287515134
			12:[tkiso<0.968364179] yes=25,no=26,missing=25
				25:leaf=0.252720386
				26:leaf=-0.2904073
		6:[maxd0<0.147421584] yes=13,no=14,missing=13
			13:[maxd0<-0.0929026231] yes=27,no=28,missing=28
				27:[pt<105.583939] yes=47,no=48,missing=47
					47:leaf=0.208018184
					48:leaf=-0.126367748
				28:[mind0<-0.141875133] yes=49,no=50,missing=50
					49:[ecf3<25.6483803] yes=77,no=78,missing=77
						77:[pfiso<0.547800839] yes=105,no=106,missing=105
							105:[pfiso<0.434554785] yes=135,no=136,missing=135
								135:leaf=0.208287433
								136:leaf=0.0532450974
							106:[pt<35.5304909] yes=137,no=138,missing=137
								137:leaf=-0.0242743995
								138:leaf=-0.157515675
						78:[spreadpt<0.711066067] yes=107,no=108,missing=107
							107:leaf=-0.298564583
							108:leaf=-0.0924413502
					50:[pfiso<0.366887569] yes=79,no=80,missing=79
						79:[pt<96.7512207] yes=109,no=110,missing=110
							109:[tkiso<0.968364179] yes=139,no=140,missing=139
								139:[spreadpt<0.643717289] yes=159,no=160,missing=159
									159:leaf=-0.163185775
									160:leaf=0.176721677
								140:leaf=-0.205589116
							110:leaf=-0.320544422
						80:leaf=-0.326736838
			14:[ecf2<256.796234] yes=29,no=30,missing=29
				29:[pfiso<0.577032983] yes=51,no=52,missing=51
					51:[spreadpt<0.604633689] yes=81,no=82,missing=81
						81:leaf=-0.0425344892
						82:[ecf2<22.9719219] yes=111,no=112,missing=112
							111:leaf=0.111993112
							112:leaf=0.299675643
					52:[mind0<-0.191885442] yes=83,no=84,missing=83
						83:leaf=0.0990812555
						84:[ecf1<36.3959274] yes=113,no=114,missing=113
							113:leaf=-0.0331901275
							114:leaf=-0.203495845
				30:[ecf1<82.9966736] yes=53,no=54,missing=53
					53:leaf=-0.0163587686
					54:leaf=-0.274143338
booster[2]:
0:[neufrac<0.120322146] yes=1,no=2,missing=1
	1:[pfiso<0.447088271] yes=3,no=4,missing=4
		3:[neufrac<0.0685357451] yes=7,no=8,missing=7
			7:[mind0<-0.00819714554] yes=15,no=16,missing=15
				15:[ecf3<15659.084] yes=29,no=30,missing=29
					29:leaf=0.289031804
					30:leaf=0.10775315
				16:[mind0<0.00264535355] yes=31,no=32,missing=31
					31:[spreaddr<0.00028134216] yes=53,no=54,missing=53
						53:[pfiso<0.194785237] yes=75,no=76,missing=75
							75:[neufrac<0.0403837748] yes=95,no=96,missing=95
								95:[spreaddr<2.45780575e-05] yes=115,no=116,missing=115
									115:leaf=0.272846937
									116:leaf=0.217928216
								96:leaf=0.0485046171
							76:[spreadpt<0.908846974] yes=97,no=98,missing=97
								97:[ecf2<127.219963] yes=117,no=118,missing=117
									117:leaf=0.187808707
									118:leaf=-0.0715371743
								98:[pfiso<0.273677766] yes=119,no=120,missing=120
									119:leaf=-0.0173366219
									120:leaf=-0.123143807
						54:[mind0<-0.00229220768] yes=77,no=78,missing=77
							77:[spreadpt<0.700556755] yes=99,no=100,missing=99
								99:leaf=-0.00138257386
								100:[pfiso<0.282811254] yes=121,no=122,missing=121
									121:leaf=0.144272432
									122:leaf=0.0442707054
							78:[spreadpt<0.834415913] yes=101,no=102,missing=101
								101:[spreaddr<0.000928406254] yes=123,no=124,missing=124
									123:leaf=-0.0818857551
									124:leaf=-0.255048066
								102:[ecf3<4.63986158] yes=125,no=126,missing=125
									125:leaf=0.000681030564
									126:leaf=0.111119807
					32:leaf=0.288250625
			8:[mind0<-0.0950155556] yes=17,no=18,missing=17
				17:[mind0<-0.191885442] yes=33,no=34,missing=33
					33:leaf=0.279476166
					34:[pt<88.2594833] yes=55,no=56,missing=56
						55:leaf=0.198134035
						56:leaf=0.0381349586
				18:[mind0<0.0368945375] yes=35,no=36,missing=35
					35:[pt<88.2594833] yes=57,no=58,missing=57
						57:[mind0<-0.0140952356] yes=79,no=80,missing=79
							79:[spreaddr<0.00119961763] yes=103,no=104,missing=103
								103:[pt<65.8158875] yes=127,no=128,missing=127
									127:leaf=0.178768262
									128:leaf=0.0353086703
								104:leaf=-0
							80:[ecf1<54.0053062] yes=105,no=106,missing=105
								105:[spreaddr<0.00113975245] yes=129,no=130,missing=129
									129:leaf=0.0266006086
									130:leaf=-0.031478785
								106:[neufrac<0.0865914673] yes=131,no=132,missing=131
									131:leaf=-0.0217809156
									132:leaf=-0.139178857
						58:[pfiso<0.143015027] yes=81,no=82,missing=81
							81:leaf=0.0268399157
							82:[spreaddr<0.000739811454] yes=107,no=108,missing=107
								107:[pt<106.825485] yes=133,no=134,missing=134
									133:leaf=-0.11458765
									134:leaf=-0.294858575
								108:[pfiso<0.297626823] yes=135,no=136,missing=135
									135:leaf=-0
									136:leaf=-0.124107599
					36:leaf=0.272341847
		4:[mind0<-0.20016861] yes=9,no=10,missing=10
			9:[pfiso<0.646762669] yes=19,no=20,missing=19
				19:[spreaddr<0.000266266055] yes=37,no=38,missing=38
					37:leaf=0.058592461
					38:leaf=0.240409836
				20:leaf=-0.0188664049
			10:[mind0<0.0267546624] yes=21,no=22,missing=22
				21:[pt<47.1436386] yes=39,no=40,missing=39
					39:[pfiso<0.577032983] yes=59,no=60,missing=60
						59:[mind0<-0.0440968424] yes=83,no=84,missing=84
							83:leaf=0.132704541
							84:[neufrac<0.0348154716] yes=109,no=110,missing=109
								109:leaf=0.0812098011
								110:[ecf3<5.62112331] yes=137,no=138,missing=137
									137:leaf=-0.0800649524
									138:leaf=-0
						60:leaf=-0.141696721
					40:[mind0<-0.0636779368] yes=61,no=62,missing=61
						61:leaf=-0.0646698102
						62:leaf=-0.252656847
				22:[pfiso<0.714793324] yes=41,no=42,missing=42
					41:leaf=0.21910961
					42:leaf=-4.15503055e-05
	2:[pfiso<0.13589628] yes=5,no=6,missing=6
		5:[neufrac<0.833545506] yes=11,no=12,missing=11
			11:[pfiso<0.105769977] yes=23,no=24,missing=23
				23:leaf=0.247597188
				24:[mind0<-0.0910281539] yes=43,no=44,missing=43
					43:[mind0<-10.5407085] yes=63,no=64,missing=63
						63:leaf=0.0418350138
						64:leaf=0.166904181
					44:leaf=-0.0714244768
			12:leaf=-0.242066905
		6:[mind0<-0.255872995] yes=13,no=14,missing=14
			13:[neufrac<0.237067729] yes=25,no=26,missing=26
				25:[ecf1<103.231804] yes=45,no=46,missing=45
					45:[pfiso<0.560820758] yes=65,no=66,missing=65
						65:[spreaddr<0.000928406254] yes=85,no=86,missing=85
							85:leaf=0.0510153957
							86:leaf=0.241271898
						66:leaf=-0.0626773834
					46:[pfiso<0.256997913] yes=67,no=68,missing=67
						67:leaf=0.054400228
						68:[spreaddr<0.00157700491] yes=87,no=88,missing=87
							87:leaf=-0.216422603
							88:leaf=-0.0563072562
				26:[pfiso<0.287372202] yes=47,no=48,missing=47
					47:leaf=0.0347159952
					48:[spreaddr<0.00648413179] yes=69,no=70,missing=70
						69:leaf=-0.267494023
						70:[spreadpt<0.52365762] yes=89,no=90,missing=89
							89:leaf=-0.205421969
							90:leaf=2.15455038e-05
			14:[mind0<0.113106966] yes=27,no=28,missing=27
				27:[neufrac<0.151481912] yes=49,no=50,missing=49
					49:[mind0<-0.10360276] yes=71,no=72,missing=71
						71:leaf=0.0427622721
						72:[pt<71.4812469] yes=91,no=92,missing=91
							91:[pfiso<0.453298867] yes=111,no=112,missing=111
								111:[epsilon<0.00942513347] yes=139,no=140,missing=140
									139:leaf=-0.115219511
									140:leaf=0.0260129534
								112:leaf=-0.186419636
							92:[spreaddr<0.00214235787] yes=113,no=114,missing=113
								113:leaf=-0.287095159
								114:leaf=-0.0990362316
					50:[pfiso<0.168985486] yes=73,no=74,missing=73
						73:[spreadpt<0.643717289] yes=93,no=94,missing=93
							93:leaf=-0.0760046542
							94:leaf=-0.228815764
						74:leaf=-0.290242493
				28:[neufrac<0.355744481] yes=51,no=52,missing=52
					51:leaf=0.155847982
					52:leaf=-0.200311571
booster[3]:
0:[neufrac<0.129319772] yes=1,no=2,missing=1
	1:[pfiso<0.434554785] yes=3,no=4,missing=4
		3:[neufrac<0.0824363306] yes=7,no=8,missing=8
			7:[maxd0<0.0122601399] yes=15,no=16,missing=16
				15:[mind0<-0.00196856307] yes=31,no=32,missing=31
					31:[maxd0<-0.0103542591] yes=55,no=56,missing=55
						55:leaf=0.265095353
						56:[pfiso<0.269306928] yes=87,no=88,missing=87
							87:[spreaddr<0.00282957824] yes=111,no=112,missing=111
								111:[neufrac<0.0328255296] yes=131,no=132,missing=131
									131:leaf=0.249751866
									132:leaf=0.100059241
								112:[spreaddr<0.00769759389] yes=133,no=134,missing=134
									133:leaf=-0
									134:leaf=-0.121304765
							88:[ecf2<104.922707] yes=113,no=114,missing=113
								113:[maxd0<0.00114801386] yes=135,no=136,missing=135
									135:leaf=0.00588574121
									136:leaf=0.139110595
								114:[mind0<-0.0910281539] yes=137,no=138,missing=137
									137:leaf=0.00448927796
									138:leaf=-0.177091926
					32:[spreaddr<7.80705741e-05] yes=57,no=58,missing=57
						57:[spreaddr<1.68304323e-05] yes=89,no=90,missing=89
							89:leaf=0.214643434
							90:[maxd0<0.00139129465] yes=115,no=116,missing=115
								115:[lambda<-5.47110558] yes=139,no=140,missing=139
									139:leaf=-0.0824845657
									140:leaf=0.0319919661
								116:[maxd0<0.00262987055] yes=141,no=142,missing=141
									141:leaf=0.0336383395
									142:leaf=0.158575878
						58:[maxd0<0.00386387692] yes=91,no=92,missing=91
							91:[spreaddr<0.000381844729] yes=117,no=118,missing=118
								117:[maxd0<0.00165663986] yes=143,no=144,missing=143
									143:leaf=-0.148358151
									144:leaf=-0.0021781337
								118:leaf=-0.290195614
							92:[pfiso<0.278366417] yes=119,no=120,missing=120
								119:leaf=0.128152877
								120:leaf=-0.0864489302
				16:[ecf3<15659.084] yes=33,no=34,missing=33
					33:[neufrac<0.0521044284] yes=59,no=60,missing=59
						59:leaf=0.266020477
						60:[maxd0<0.0583285764] yes=93,no=94,missing=94
							93:[mind0<-0.0132793691] yes=121,no=122,missing=121
								121:[pfiso<0.302492946] yes=145,no=146,missing=146
									145:leaf=0.169453174
									146:leaf=0.000393553637
								122:leaf=-0.0523084477
							94:[spreaddr<7.2734525e-05] yes=123,no=124,missing=123
								123:leaf=0.105280973
								124:leaf=0.258646041
					34:leaf=0.100662448
			8:[maxd0<0.0870138332] yes=17,no=18,missing=18
				17:[mind0<-0.20016861] yes=35,no=36,missing=35
					35:[maxd0<-0.072003454] yes=61,no=62,missing=62
						61:leaf=0.230117738
						62:[maxd0<0.00139129465] yes=95,no=96,missing=95
							95:leaf=0.0174240768
							96:leaf=0.0827715993
					36:[ecf1<66.6618958] yes=63,no=64,missing=64
						63:[spreaddr<0.00142870657] yes=97,no=98,missing=98
							97:[maxd0<0.00870700739] yes=125,no=126,missing=125
								125:leaf=-0.0371365994
								126:leaf=0.0937225223
							98:leaf=-0.151242033
						64:[mind0<-0.0440968424] yes=99,no=100,missing=99
							99:leaf=-0.0737429336
							100:leaf=-0.221919194
				18:[ecf2<1495.89111] yes=37,no=38,missing=38
					37:[maxd0<0.147421584] yes=65,no=66,missing=66
						65:leaf=0.101130001
						66:leaf=0.257451564
					38:leaf=0.0267554186
		4:[maxd0<0.168116882] yes=9,no=10,missing=9
			9:[mind0<-0.0950155556] yes=19,no=20,missing=19
				19:[ecf1<56.1020851] yes=39,no=40,missing=40
					39:[maxd0<-0.0381653793] yes=67,no=68,missing=67
						67:leaf=0.227482349
						68:[spreadpt<0.713661015] yes=101,no=102,missing=101
							101:leaf=-0
							102:leaf=0.133067191
					40:[maxd0<-0.0521036014] yes=69,no=70,missing=69
						69:[ecf2<515.876709] yes=103,no=104,missing=104
							103:leaf=0.157606155
							104:leaf=0.00124642823
						70:leaf=-0.145267159
				20:[ecf2<17.7167072] yes=41,no=42,missing=41
					41:leaf=-0.0279705729
					42:[ecf2<53.2597847] yes=71,no=72,missing=71
						71:[spreadpt<0.709599972] yes=105,no=106,missing=106
							105:leaf=-0.0463000201
							106:leaf=-0.163910389
						72:leaf=-0.241803303
			10:[ecf1<63.1889915] yes=21,no=22,missing=21
				21:leaf=0.247047126
				22:[tkiso<0.460456878] yes=43,no=44,missing=44
					43:leaf=0.209457904
					44:[neufrac<0.0535995923] yes=73,no=74,missing=73
						73:leaf=0.0182574447
						74:leaf=-0.134260491
	2:[tkiso<0.215400532] yes=5,no=6,missing=5
		5:[maxd0<0.135267988] yes=11,no=12,missing=12
			11:[pfiso<0.105769977] yes=23,no=24,missing=23
				23:leaf=0.163391232
				24:[mind0<-0.290600121] yes=45,no=46,missing=46
					45:leaf=0.0914689302
					46:leaf=-0.234310269
			12:[ecf2<1663.96179] yes=25,no=26,missing=25
				25:leaf=0.237782553
				26:leaf=0.0435014367
		6:[maxd0<0.19119963] yes=13,no=14,missing=13
			13:[maxd0<-0.117477462] yes=27,no=28,missing=28
				27:[tkiso<0.711692691] yes=47,no=48,missing=47
					47:leaf=0.1436674
					48:leaf=-0.145769402
				28:[pfiso<0.119786628] yes=49,no=50,missing=49
					49:[neufrac<0.905781627] yes=75,no=76,missing=75
						75:leaf=0.0634974167
						76:leaf=-0.198097676
					50:[mind0<-0.266606987] yes=77,no=78,missing=78
						77:[ecf1<58.9027138] yes=107,no=108,missing=107
							107:[pfiso<0.547800839] yes=127,no=128,missing=128
								127:leaf=0.0898549557
								128:leaf=-0.127265766
							108:leaf=-0.238813639
						78:[ecf2<9.40361977] yes=109,no=110,missing=109
							109:[pfiso<0.57317549] yes=129,no=130,missing=130
								129:[lambda<-4.72985411] yes=147,no=148,missing=148
									147:leaf=-0.0807828382
									148:leaf=-0.162644044
								130:leaf=-0.243983164
							110:leaf=-0.266317934
			14:[neufrac<0.220617831] yes=29,no=30,missing=30
				29:[ecf1<92.0844345] yes=51,no=52,missing=51
					51:[spreaddr<0.00129187526] yes=79,no=80,missing=79
						79:leaf=0.0102429586
						80:leaf=0.211516976
					52:[pfiso<0.329453528] yes=81,no=82,missing=81
						81:leaf=0.0344082415
						82:leaf=-0.15799512
				30:[tkiso<0.460456878] yes=53,no=54,missing=54
					53:[ecf1<213.582047] yes=83,no=84,missing=83
						83:leaf=0.0964708999
						84:leaf=-0.152408421
					54:[mind0<-0.154754981] yes=85,no=86,missing=86
						85:leaf=-0.0654126406
						86:leaf=-0.227923617
booster[4]:
0:[neufrac<0.112335175] yes=1,no=2,missing=1
	1:[pfiso<0.465292871] yes=3,no=4,missing=4
		3:[maxd0<0.0363883264] yes=7,no=8,missing=8
			7:[mind0<-0.00305094337] yes=15,no=16,missing=15
				15:[neufrac<0.0455633663] yes=31,no=32,missing=31
					31:[pfiso<0.292800695] yes=57,no=58,missing=58
						57:[ecf3<5830.57666] yes=81,no=82,missing=81
							81:leaf=0.241555482
							82:leaf=0.0660845488
						58:[mind0<-0.0440968424] yes=83,no=84,missing=83
							83:[maxd0<-0.00125399535] yes=109,no=110,missing=110
								109:leaf=0.227290601
								110:leaf=0.109803356
							84:[ecf2<69.466217] yes=111,no=112,missing=112
								111:[spreadpt<0.775742173] yes=141,no=142,missing=141
									141:leaf=0.168808818
									142:leaf=-0.0654224828
								112:leaf=-0.10559921
					32:[mind0<-0.14834331] yes=59,no=60,missing=59
						59:[maxd0<-0.00185220898] yes=85,no=86,missing=85
							85:leaf=0.232137248
							86:[spreadpt<0.699751198] yes=113,no=114,missing=114
								113:leaf=-0.0551761128
								114:leaf=0.11521069
						60:[ecf2<98.0620575] yes=87,no=88,missing=88
							87:[pfiso<0.393691331] yes=115,no=116,missing=115
								115:[maxd0<0.00193751021] yes=143,no=144,missing=143
									143:leaf=-0
									144:leaf=0.16652517
								116:leaf=-0.0514028445
							88:[pfiso<0.2418167] yes=117,no=118,missing=117
								117:[maxd0<0.00525800465] yes=145,no=146,missing=145
									145:leaf=-0.0717933476
									146:leaf=0.0590246767
								118:[ecf1<84.687912] yes=147,no=148,missing=148
									147:leaf=-0.0591277108
									148:leaf=-0.218735904
				16:[pfiso<0.113658845] yes=33,no=34,missing=33
					33:[maxd0<0.00193751021] yes=61,no=62,missing=61
						61:[ecf1<199.528946] yes=89,no=90,missing=89
							89:[ecf2<76.3641434] yes=119,no=120,missing=120
								119:leaf=0.0784897357
								120:leaf=-0.131299913
							90:[ecf2<752.148254] yes=121,no=122,missing=121
								121:[ecf2<359.545746] yes=149,no=150,missing=149
									149:leaf=0.180192962
									150:leaf=0.073184669
								122:leaf=-0.0777416304
						62:leaf=0.226919517
					34:[maxd0<0.00262987055] yes=63,no=64,missing=63
						63:[ecf2<53.2597847] yes=91,no=92,missing=92
							91:[spreadpt<0.766887188] yes=123,no=124,missing=123
								123:[pfiso<0.19184117] yes=151,no=152,missing=151
									151:leaf=0.115829811
									152:leaf=-0
								124:leaf=-0.0847749487
							92:[ecf2<127.219963] yes=125,no=126,missing=125
								125:[mind0<-0.00141345907] yes=153,no=154,missing=154
									153:leaf=-0.0223533437
									154:leaf=-0.122645229
								126:[ecf1<206.423599] yes=155,no=156,missing=155
									155:leaf=-0.219111905
									156:leaf=-0.0538736358
						64:[pfiso<0.253123552] yes=93,no=94,missing=93
							93:[ecf2<272.255646] yes=127,no=128,missing=127
								127:[eta<1.4230752] yes=157,no=158,missing=157
									157:leaf=0.181849539
									158:leaf=0.0507581644
								128:leaf=-0
							94:[ecf2<48.7882767] yes=129,no=130,missing=130
								129:leaf=-0
								130:[neufrac<0.0444949977] yes=159,no=160,missing=159
									159:leaf=-0.0533057749
									160:leaf=-0.168075547
			8:[ecf3<20386.3008] yes=17,no=18,missing=17
				17:[neufrac<0.0714691132] yes=35,no=36,missing=35
					35:leaf=0.24838753
					36:[maxd0<0.103556216] yes=65,no=66,missing=66
						65:[mind0<-0.0231698379] yes=95,no=96,missing=95
							95:leaf=0.124412596
							96:leaf=-0.0768190622
						66:[ecf2<1200.42908] yes=97,no=98,missing=98
							97:leaf=0.239435479
							98:leaf=0.0344849005
				18:leaf=0.0592555031
		4:[maxd0<0.107964903] yes=9,no=10,missing=10
			9:[mind0<-0.326945275] yes=19,no=20,missing=20
				19:[ecf1<56.1020851] yes=37,no=38,missing=37
					37:leaf=0.141883761
					38:[ecf3<37.3938828] yes=67,no=68,missing=67
						67:leaf=-0
						68:leaf=-0.102338083
				20:[ecf2<19.6090088] yes=39,no=40,missing=39
					39:leaf=-0.0322998092
					40:leaf=-0.210706785
			10:[pfiso<0.646762669] yes=21,no=22,missing=22
				21:[mind0<-0.0579555593] yes=41,no=42,missing=41
					41:leaf=0.226404831
					42:[ecf1<53.3346291] yes=69,no=70,missing=69
						69:leaf=0.163732961
						70:leaf=-0.000709149754
				22:[tkiso<0.625095427] yes=43,no=44,missing=43
					43:leaf=0.00288825692
					44:leaf=-0.0730622411
	2:[maxd0<0.19119963] yes=5,no=6,missing=5
		5:[tkiso<0.144689277] yes=11,no=12,missing=11
			11:[pfiso<0.0927666649] yes=23,no=24,missing=23
				23:leaf=0.197663367
				24:[mind0<-0.0832598731] yes=45,no=46,missing=45
					45:leaf=0.0926422328
					46:leaf=-0.160070017
			12:[maxd0<-0.117477462] yes=25,no=26,missing=26
				25:[neufrac<0.267358214] yes=47,no=48,missing=47
					47:leaf=0.173238918
					48:leaf=-0.100845426
				26:[pfiso<0.19184117] yes=49,no=50,missing=49
					49:[ecf1<409.61377] yes=71,no=72,missing=72
						71:[neufrac<0.953667521] yes=99,no=100,missing=100
							99:[mind0<-0.10360276] yes=131,no=132,missing=131
								131:[ecf2<752.148254] yes=161,no=162,missing=161
									161:leaf=0.138285711
									162:leaf=0.0125234723
								132:leaf=-0.151986226
							100:leaf=-0.18469435
						72:leaf=-0.24816677
					50:[neufrac<0.191019773] yes=73,no=74,missing=74
						73:[mind0<-0.236014277] yes=101,no=102,missing=101
							101:[maxd0<0.0583285764] yes=133,no=134,missing=134
								133:[ecf1<57.5081902] yes=163,no=164,missing=163
									163:leaf=0.0720213875
									164:leaf=-0.169017732
								134:leaf=0.145903707
							102:[maxd0<0.0696374923] yes=135,no=136,missing=135
								135:leaf=-0.226005256
								136:[ecf1<71.6285095] yes=165,no=166,missing=165
									165:leaf=-0
									166:leaf=-0.138869509
						74:[ecf2<12.9231472] yes=103,no=104,missing=103
							103:[pfiso<0.597402513] yes=137,no=138,missing=138
								137:leaf=-0.136863127
								138:leaf=-0.234037355
							104:[mind0<-1.49164045] yes=139,no=140,missing=140
								139:[ecf1<97.8630676] yes=167,no=168,missing=167
									167:leaf=-0.0460643321
									168:leaf=-0.198184416
								140:leaf=-0.249738589
		6:[tkiso<0.460456878] yes=13,no=14,missing=14
			13:[ecf2<2942.51758] yes=27,no=28,missing=27
				27:[spreadpt<0.561201751] yes=51,no=52,missing=52
					51:leaf=-0.0221634284
					52:[tkiso<0.317382425] yes=75,no=76,missing=75
						75:leaf=0.234374434
						76:[ecf1<94.9694672] yes=105,no=106,missing=105
							105:leaf=0.187401146
							106:leaf=-0.0285007954
				28:leaf=-0.0925735906
			14:[ecf1<68.0924683] yes=29,no=30,missing=29
				29:[neufrac<0.285937399] yes=53,no=54,missing=54
					53:[mind0<-0.0527503006] yes=77,no=78,missing=77
						77:leaf=0.176978275
						78:[mind0<0.0101351831] yes=107,no=108,missing=108
							107:leaf=-0.00277050119
							108:leaf=0.0756719783
					54:leaf=-0.138928309
				30:[mind0<-0.154754981] yes=55,no=56,missing=56
					55:leaf=-0.0853522867
					56:[mind0<0.113106966] yes=79,no=80,missing=80
						79:leaf=-0.219502985
						80:leaf=-0.0742720589
booster[5]:
0:[neufrac<0.129319772] yes=1,no=2,missing=1
	1:[pfiso<0.414728791] yes=3,no=4,missing=4
		3:[neufrac<0.0634066537] yes=7,no=8,missing=7
			7:[maxd0<0.00870700739] yes=15,no=16,missing=16
				15:[maxd0<-0.00185220898] yes=31,no=32,missing=31
					31:leaf=0.232195154
					32:[pfiso<0.109660201] yes=55,no=56,missing=55
						55:[pt<160.733688] yes=77,no=78,missing=77
							77:[ecf2<77.7819138] yes=101,no=102,missing=101
								101:leaf=0.138216913
								102:[ecf2<215.655762] yes=127,no=128,missing=127
									127:leaf=-0
									128:leaf=-0.128394812
							78:[ecf2<1312.60828] yes=103,no=104,missing=103
								103:leaf=0.213990062
								104:[maxd0<0.00165663986] yes=129,no=130,missing=129
									129:leaf=-0.0486081466
									130:leaf=0.0640990213
						56:[maxd0<0.00193751021] yes=79,no=80,missing=80
							79:[ecf2<354.015594] yes=105,no=106,missing=105
								105:[spreadpt<0.929080248] yes=131,no=132,missing=132
									131:leaf=0.00798607338
									132:leaf=-0.161547616
								106:[ecf1<179.228775] yes=133,no=134,missing=133
									133:leaf=-0.210078925
									134:leaf=-0.0793157294
							80:[pfiso<0.256997913] yes=107,no=108,missing=107
								107:[spreadpt<0.926576078] yes=135,no=136,missing=135
									135:leaf=0.168657616
									136:leaf=0.021741759
								108:[ecf2<54.3805008] yes=137,no=138,missing=137
									137:leaf=0.0764967203
									138:leaf=-0.0713387132
				16:[spreadpt<0.657685578] yes=33,no=34,missing=33
					33:leaf=0.0967237279
					34:leaf=0.234172896
			8:[maxd0<0.07612928] yes=17,no=18,missing=18
				17:[maxd0<-0.0521036014] yes=35,no=36,missing=36
					35:leaf=0.21368359
					36:[pt<87.3312836] yes=57,no=58,missing=58
						57:[eta<1.01634645] yes=81,no=82,missing=81
							81:[eta<-1.34227324] yes=109,no=110,missing=109
								109:leaf=-0.0872966275
								110:[maxd0<0.00139129465] yes=139,no=140,missing=139
									139:leaf=-0.0144869871
									140:leaf=0.0943749249
							82:leaf=-0.0871903077
						58:[tkiso<0.128912374] yes=83,no=84,missing=84
							83:leaf=0.031483151
							84:[pt<100.845612] yes=111,no=112,missing=112
								111:leaf=-0.0748274103
								112:leaf=-0.202238292
				18:[ecf3<1143.93079] yes=37,no=38,missing=37
					37:[maxd0<0.183048695] yes=59,no=60,missing=60
						59:[pt<82.0138092] yes=85,no=86,missing=85
							85:leaf=0.180142596
							86:leaf=-0.00753179472
						60:leaf=0.226174235
					38:leaf=-0
		4:[maxd0<0.135267988] yes=9,no=10,missing=9
			9:[maxd0<-0.0381653793] yes=19,no=20,missing=19
				19:[pfiso<0.714793324] yes=39,no=40,missing=40
					39:leaf=0.202368155
					40:leaf=0.00249011419
				20:[ecf1<49.3222427] yes=41,no=42,missing=41
					41:[pfiso<0.577032983] yes=61,no=62,missing=61
						61:[maxd0<0.0196798127] yes=87,no=88,missing=88
							87:[maxd0<-0.00125399535] yes=113,no=114,missing=113
								113:leaf=0.0342529416
								114:[ecf2<28.737093] yes=141,no=142,missing=141
									141:leaf=-0.0179052018
									142:leaf=-0.0919621885
							88:leaf=0.0829940215
						62:leaf=-0.136438161
					42:[neufrac<0.0263488032] yes=63,no=64,missing=64
						63:[pfiso<0.493643045] yes=89,no=90,missing=89
							89:leaf=-0.0118221091
							90:leaf=-0.0820277184
						64:leaf=-0.205232546
			10:[ecf3<109.41758] yes=21,no=22,missing=21
				21:[pfiso<0.673329651] yes=43,no=44,missing=43
					43:[eta<1.75738621] yes=65,no=66,missing=65
						65:[ecf1<68.0924683] yes=91,no=92,missing=91
							91:leaf=0.216548562
							92:[tkiso<0.401688695] yes=115,no=116,missing=116
								115:leaf=0.166061401
								116:leaf=0.00249967445
						66:leaf=0.0429703332
					44:leaf=0.00144856155
				22:leaf=-0.0443159677
	2:[tkiso<0.215400532] yes=5,no=6,missing=5
		5:[maxd0<0.135267988] yes=11,no=12,missing=12
			11:[pfiso<0.105769977] yes=23,no=24,missing=23
				23:leaf=0.128337115
				24:[maxd0<-0.00532060023] yes=45,no=46,missing=45
					45:leaf=0.067116484
					46:[pt<106.825485] yes=67,no=68,missing=67
						67:leaf=-0.0346356519
						68:leaf=-0.196992606
			12:[pfiso<0.22004132] yes=25,no=26,missing=25
				25:leaf=0.197812781
				26:leaf=0.00295626163
		6:[maxd0<0.19119963] yes=13,no=14,missing=13
			13:[maxd0<-0.117477462] yes=27,no=28,missing=28
				27:[tkiso<0.540988445] yes=47,no=48,missing=47
					47:leaf=0.160316929
					48:leaf=-0.0975803956
				28:[pfiso<0.210175648] yes=49,no=50,missing=49
					49:[pt<295.621857] yes=69,no=70,missing=69
						69:[neufrac<0.953667521] yes=93,no=94,missing=93
							93:[maxd0<0.0908971056] yes=117,no=118,missing=118
								117:leaf=-0.104233608
								118:leaf=0.130848452
							94:leaf=-0.161960497
						70:leaf=-0.219239116
					50:[neufrac<0.191019773] yes=71,no=72,missing=71
						71:[maxd0<0.0728278458] yes=95,no=96,missing=96
							95:[pt<53.8590164] yes=119,no=120,missing=119
								119:leaf=-0.096635364
								120:leaf=-0.216435
							96:[pt<71.4812469] yes=121,no=122,missing=121
								121:leaf=0.0517413244
								122:leaf=-0.0538375527
						72:[ecf2<12.9231472] yes=97,no=98,missing=97
							97:[pfiso<0.57317549] yes=123,no=124,missing=124
								123:[epsilon<0.00848332234] yes=143,no=144,missing=144
									143:leaf=-0.0491609126
									144:leaf=-0.131580278
								124:leaf=-0.217328727
							98:leaf=-0.236705169
			14:[pfiso<0.514816642] yes=29,no=30,missing=30
				29:[pt<156.292816] yes=51,no=52,missing=51
					51:[neufrac<0.393876225] yes=73,no=74,missing=74
						73:[pt<81.1917877] yes=99,no=100,missing=99
							99:leaf=0.184621751
							100:[pfiso<0.341691136] yes=125,no=126,missing=126
								125:leaf=0.095731236
								126:leaf=-0.0104833832
						74:leaf=-0.0706950724
					52:[pt<265.535431] yes=75,no=76,missing=75
						75:leaf=-0.0236303378
						76:leaf=-0.189024612
				30:[pt<49.1747208] yes=53,no=54,missing=54
					53:leaf=-0.0325181708
					54:leaf=-0.210613281
booster[6]:
0:[neufrac<0.140207499] yes=1,no=2,missing=1
	1:[pfiso<0.386888772] yes=3,no=4,missing=4
		3:[neufrac<0.0685357451] yes=7,no=8,missing=8
			7:[mind0<-0.0208160132] yes=15,no=16,missing=15
				15:[ecf3<5830.57666] yes=29,no=30,missing=29
					29:leaf=0.225155845
					30:[maxd0<0.175302163] yes=55,no=56,missing=56
						55:leaf=0.0226529613
						56:leaf=0.105307631
				16:[maxd0<0.00227155862] yes=31,no=32,missing=31
					31:[spreaddr<9.96431772e-05] yes=57,no=58,missing=58
						57:[mind0<-0.00141345907] yes=97,no=98,missing=97
							97:[pfiso<0.13589628] yes=133,no=134,missing=133
								133:leaf=0.194884568
								134:[spreadpt<0.805607557] yes=159,no=160,missing=160
									159:leaf=0.139993563
									160:leaf=-0.104283661
							98:[spreaddr<2.97683473e-05] yes=135,no=136,missing=135
								135:[spreadpt<0.803446591] yes=161,no=162,missing=161
									161:leaf=0.116481863
									162:leaf=-0.0169710852
								136:leaf=-0.0586666167
						58:[spreaddr<0.000273758691] yes=99,no=100,missing=100
							99:[mind0<-0.00167861953] yes=137,no=138,missing=137
								137:[spreadpt<0.750513792] yes=163,no=164,missing=163
									163:leaf=0.101716876
									164:leaf=-0.0500691347
								138:leaf=-0.100570992
							100:[mind0<-0.00541136879] yes=139,no=140,missing=140
								139:leaf=-0.0198068488
								140:leaf=-0.236065269
					32:[pfiso<0.269306928] yes=59,no=60,missing=59
						59:[neufrac<0.0378028601] yes=101,no=102,missing=101
							101:[spreaddr<0.0133131389] yes=141,no=142,missing=142
								141:leaf=0.21808356
								142:leaf=0.0602333918
							102:[mind0<0.0267546624] yes=143,no=144,missing=143
								143:[pt<104.362305] yes=165,no=166,missing=165
									165:leaf=0.0990570933
									166:leaf=-0.0255581737
								144:leaf=0.204403028
						60:[maxd0<0.129429251] yes=103,no=104,missing=104
							103:[ecf2<67.9756775] yes=145,no=146,missing=146
								145:[mind0<-0.00141345907] yes=167,no=168,missing=167
									167:leaf=0.143243656
									168:leaf=-0.0469484627
								146:[pfiso<0.312590927] yes=169,no=170,missing=170
									169:leaf=-0.0282936525
									170:leaf=-0.154967353
							104:[mind0<0.00384041714] yes=147,no=148,missing=148
								147:[mind0<-0.00196856307] yes=171,no=172,missing=171
									171:leaf=0.0977968797
									172:leaf=-0
								148:leaf=0.213692352
			8:[mind0<-0.0698986724] yes=17,no=18,missing=17
				17:[epsilon<0.00117603713] yes=33,no=34,missing=34
					33:leaf=0.0428970382
					34:[pt<109.612564] yes=61,no=62,missing=61
						61:leaf=0.219576687
						62:[pfiso<0.227200553] yes=105,no=106,missing=106
							105:leaf=0.173031673
							106:leaf=-0
				18:[maxd0<0.183048695] yes=35,no=36,missing=36
					35:[ecf2<88.1892853] yes=63,no=64,missing=64
						63:[mind0<-0.0132793691] yes=107,no=108,missing=108
							107:leaf=0.0969551504
							108:leaf=-0.0652906671
						64:[epsilon<0.00909827556] yes=109,no=110,missing=109
							109:[epsilon<0.00102804368] yes=149,no=150,missing=150
								149:leaf=-0.043195378
								150:[neufrac<0.0865914673] yes=173,no=174,missing=174
									173:leaf=-0.0943455771
									174:leaf=-0.178570166
							110:[maxd0<0.00796973519] yes=151,no=152,missing=151
								151:leaf=-0.0716677234
								152:leaf=0.0252652336
					36:[mind0<0.0137635656] yes=65,no=66,missing=66
						65:[spreadpt<0.761840999] yes=111,no=112,missing=111
							111:leaf=-0.0483419225
							112:leaf=0.0914707929
						66:leaf=0.197475508
		4:[maxd0<0.113068864] yes=9,no=10,missing=9
			9:[mind0<-0.0579555593] yes=19,no=20,missing=19
				19:[pt<63.7353935] yes=37,no=38,missing=38
					37:[pfiso<0.604733407] yes=67,no=68,missing=68
						67:[maxd0<-0.0929026231] yes=113,no=114,missing=113
							113:leaf=0.219330937
							114:[pfiso<0.477024406] yes=153,no=154,missing=154
								153:leaf=0.126946464
								154:[mind0<-0.79076308] yes=175,no=176,missing=176
									175:leaf=0.0677744821
									176:leaf=-0.00170849101
						68:leaf=-0.0322566181
					38:[maxd0<-0.0521036014] yes=69,no=70,missing=69
						69:[pt<331.420654] yes=115,no=116,missing=116
							115:leaf=0.117577188
							116:leaf=-0
						70:[spreadpt<0.766887188] yes=117,no=118,missing=117
							117:leaf=-0.179796919
							118:leaf=-0.0124908909
				20:[ecf2<37.9620247] yes=39,no=40,missing=39
					39:[spreadpt<0.765123844] yes=71,no=72,missing=71
						71:leaf=0.0395910516
						72:leaf=-0.154072553
					40:[maxd0<0.0610844381] yes=73,no=74,missing=73
						73:leaf=-0.199979484
						74:leaf=-0.074889116
			10:[pt<84.5527649] yes=21,no=22,missing=22
				21:[pfiso<0.62618947] yes=41,no=42,missing=41
					41:[pfiso<0.520198464] yes=75,no=76,missing=75
						75:leaf=0.207940161
						76:[mind0<-0.0579555593] yes=119,no=120,missing=119
							119:leaf=0.142905056
							120:leaf=0.0419895127
					42:leaf=0.0058012167
				22:[neufrac<0.0354937166] yes=43,no=44,missing=43
					43:leaf=0.11746072
					44:[pfiso<0.529734135] yes=77,no=78,missing=77
						77:leaf=-0.0225900449
						78:leaf=-0.116286032
	2:[pfiso<0.168985486] yes=5,no=6,missing=6
		5:[neufrac<0.833545506] yes=11,no=12,missing=11
			11:[pt<549.108154] yes=23,no=24,missing=23
				23:[spreadpt<0.577085972] yes=45,no=46,missing=46
					45:leaf=-0.0683441088
					46:[maxd0<0.055736959] yes=79,no=80,missing=80
						79:[mind0<-0.0177574847] yes=121,no=122,missing=121
							121:leaf=0.118645221
							122:leaf=-0.0596768111
						80:leaf=0.194380835
				24:leaf=-0.123129211
			12:leaf=-0.169501752
		6:[mind0<-0.183958039] yes=13,no=14,missing=14
			13:[pfiso<0.477024406] yes=25,no=26,missing=25
				25:[pt<227.436386] yes=47,no=48,missing=47
					47:[spreadpt<0.519162297] yes=81,no=82,missing=81
						81:leaf=-0.0707029477
						82:[spreaddr<0.000798266672] yes=123,no=124,missing=124
							123:leaf=-0.025720505
							124:[spreaddr<0.00198568031] yes=155,no=156,missing=155
								155:leaf=0.0747813359
								156:leaf=0.206462502
					48:[pt<344.068451] yes=83,no=84,missing=84
						83:leaf=-0.0593503378
						84:leaf=-0.183724895
				26:[pt<53.186348] yes=49,no=50,missing=49
					49:[neufrac<0.237067729] yes=85,no=86,missing=85
						85:leaf=0.0851730108
						86:leaf=-0.0990480408
					50:[spreaddr<0.0121015459] yes=87,no=88,missing=88
						87:leaf=-0.208540946
						88:leaf=-0.0645650029
			14:[maxd0<0.38086766] yes=27,no=28,missing=27
				27:[pfiso<0.278366417] yes=51,no=52,missing=52
					51:[pt<105.583939] yes=89,no=90,missing=90
						89:[mind0<-0.0365905873] yes=125,no=126,missing=125
							125:[neufrac<0.70477891] yes=157,no=158,missing=158
								157:leaf=0.149260521
								158:[lambda<-5.24574804] yes=177,no=178,missing=177
									177:leaf=-0.0299781431
									178:leaf=-0.138114512
							126:leaf=-0.159183785
						90:[spreaddr<0.00179458212] yes=127,no=128,missing=127
							127:leaf=-0.220459402
							128:leaf=-0.0785948038
					52:[ecf2<9.40361977] yes=91,no=92,missing=92
						91:[pfiso<0.589034021] yes=129,no=130,missing=129
							129:leaf=-0.0602729991
							130:leaf=-0.184570968
						92:leaf=-0.227069914
				28:[pt<105.583939] yes=53,no=54,missing=53
					53:[pfiso<0.57317549] yes=93,no=94,missing=93
						93:[spreaddr<0.00170712091] yes=131,no=132,missing=131
							131:leaf=-0.0815850496
							132:leaf=0.124452591
						94:leaf=-0.150921598
					54:[spreaddr<0.010577227] yes=95,no=96,missing=95
						95:leaf=-0.193381354
						96:leaf=-0.0617167614
booster[7]:
0:[neufrac<0.112335175] yes=1,no=2,missing=1
	1:[pfiso<0.408135056] yes=3,no=4,missing=4
		3:[mind0<-0.0420319885] yes=7,no=8,missing=7
			7:[ecf3<5830.57666] yes=15,no=16,missing=15
				15:[maxd0<0.0610844381] yes=31,no=32,missing=32
					31:[neufrac<0.0328255296] yes=59,no=60,missing=59
						59:[spreaddr<0.0101333922] yes=87,no=88,missing=87
							87:[pfiso<0.360659689] yes=119,no=120,missing=119
								119:leaf=0.21461533
								120:leaf=0.0827670246
							88:leaf=0.0828248411
						60:[maxd0<-0.0276936907] yes=89,no=90,missing=89
							89:leaf=0.210519329
							90:[maxd0<0.00341786863] yes=121,no=122,missing=122
								121:[spreadpt<0.730883896] yes=151,no=152,missing=151
									151:leaf=-0.124974839
									152:leaf=0.0528506599
								122:[pt<113.972107] yes=153,no=154,missing=153
									153:leaf=0.152814463
									154:leaf=-0
					32:leaf=0.221655115
				16:[pfiso<0.0283624083] yes=33,no=34,missing=33
					33:leaf=0.166409045
					34:leaf=-0.100812912
			8:[maxd0<0.00262987055] yes=17,no=18,missing=17
				17:[spreaddr<2.58065083e-05] yes=35,no=36,missing=35
					35:[neufrac<0.0189485457] yes=61,no=62,missing=61
						61:[mind0<-0.00141345907] yes=91,no=92,missing=91
							91:[pfiso<0.117702827] yes=123,no=124,missing=124
								123:leaf=0.201111913
								124:leaf=0.105509833
							92:[spreadpt<0.803446591] yes=125,no=126,missing=126
								125:leaf=0.128297508
								126:leaf=-0
						62:leaf=-0.0360080712
					36:[spreaddr<0.000333605974] yes=63,no=64,missing=63
						63:[spreadpt<0.908846974] yes=93,no=94,missing=94
							93:[mind0<-0.00229220768] yes=127,no=128,missing=127
								127:[neufrac<0.0507635288] yes=155,no=156,missing=156
									155:leaf=0.141642228
									156:leaf=-0.0350084901
								128:[pt<101.939102] yes=157,no=158,missing=157
									157:leaf=-0
									158:leaf=-0.0874294564
							94:leaf=-0.211752877
						64:[mind0<-0.00541136879] yes=95,no=96,missing=95
							95:[pt<75.0928268] yes=129,no=130,missing=129
								129:leaf=-0.126823872
								130:leaf=-0
							96:leaf=-0.207986489
				18:[neufrac<0.0444949977] yes=37,no=38,missing=37
					37:[pfiso<0.269306928] yes=65,no=66,missing=65
						65:[spreaddr<0.0126804942] yes=97,no=98,missing=98
							97:[pfiso<0.185915589] yes=131,no=132,missing=131
								131:leaf=0.213344887
								132:[spreadpt<0.938863099] yes=159,no=160,missing=159
									159:leaf=0.187354997
									160:leaf=-0
							98:leaf=0.0704113021
						66:[maxd0<0.0530103333] yes=99,no=100,missing=100
							99:[spreaddr<0.000273758691] yes=133,no=134,missing=133
								133:[mind0<-0.00141345907] yes=161,no=162,missing=161
									161:leaf=0.135140985
									162:leaf=-0
								134:leaf=-0.123566233
							100:[mind0<0.00264535355] yes=135,no=136,missing=136
								135:[mind0<-0.00351256249] yes=163,no=164,missing=163
									163:leaf=0.120808668
									164:leaf=-0
								136:leaf=0.196334362
					38:[mind0<0.0368945375] yes=67,no=68,missing=67
						67:[pt<87.3312836] yes=101,no=102,missing=101
							101:[spreaddr<0.00105175714] yes=137,no=138,missing=137
								137:[mind0<-0.00141345907] yes=165,no=166,missing=165
									165:leaf=0.145793647
									166:leaf=-0.0110085048
								138:[maxd0<0.0948894694] yes=167,no=168,missing=167
									167:leaf=-0.139492303
									168:leaf=0.0657501966
							102:[pfiso<0.185915589] yes=139,no=140,missing=139
								139:[mind0<-0.00490215002] yes=169,no=170,missing=169
									169:leaf=0.0748571232
									170:leaf=-0.0125314398
								140:[pt<108.187843] yes=171,no=172,missing=171
									171:leaf=-0.0628510788
									172:leaf=-0.171329871
						68:leaf=0.205342188
		4:[mind0<-0.183958039] yes=9,no=10,missing=10
			9:[ecf2<524.70813] yes=19,no=20,missing=19
				19:[maxd0<0.0461147092] yes=39,no=40,missing=39
					39:[maxd0<-0.0381653793] yes=69,no=70,missing=69
						69:leaf=0.161352336
						70:[spreadpt<0.729679286] yes=103,no=104,missing=103
							103:leaf=-0.0992692038
							104:leaf=0.102908157
					40:leaf=0.206650123
				20:leaf=-0.0588699691
			10:[maxd0<0.0483976938] yes=21,no=22,missing=22
				21:[ecf2<37.9620247] yes=41,no=42,missing=41
					41:[spreadpt<0.765123844] yes=71,no=72,missing=72
						71:leaf=0.0424704179
						72:leaf=-0.150061116
					42:leaf=-0.178125843
				22:[pt<56.6264915] yes=43,no=44,missing=44
					43:[eta<1.6122216] yes=73,no=74,missing=73
						73:leaf=0.153404102
						74:leaf=-0
					44:[mind0<0.0894167721] yes=75,no=76,missing=76
						75:[pfiso<0.471224487] yes=105,no=106,missing=106
							105:leaf=-0.0304423422
							106:leaf=-0.117285222
						76:[pt<314.629852] yes=107,no=108,missing=108
							107:leaf=0.120867394
							108:leaf=-0.00214905548
	2:[maxd0<0.147421584] yes=5,no=6,missing=5
		5:[pfiso<0.128888339] yes=11,no=12,missing=11
			11:[neufrac<0.833545506] yes=23,no=24,missing=23
				23:[mind0<-0.0132793691] yes=45,no=46,missing=45
					45:leaf=0.143953905
					46:leaf=-0.038107723
				24:leaf=-0.144625336
			12:[maxd0<-0.117477462] yes=25,no=26,missing=26
				25:[neufrac<0.285937399] yes=47,no=48,missing=47
					47:leaf=0.14003168
					48:leaf=-0.0672723949
				26:[mind0<-0.0482015349] yes=49,no=50,missing=50
					49:[ecf1<70.9322205] yes=77,no=78,missing=77
						77:[pfiso<0.421478242] yes=109,no=110,missing=109
							109:leaf=0.0886201635
							110:[spreaddr<0.00305224163] yes=141,no=142,missing=141
								141:leaf=-0.148312107
								142:[spreadpt<0.561201751] yes=173,no=174,missing=174
									173:leaf=-0.108974628
									174:leaf=0.0262838863
						78:[spreadpt<0.750513792] yes=111,no=112,missing=111
							111:[pfiso<0.210175648] yes=143,no=144,missing=144
								143:leaf=-0.0449667946
								144:[spreaddr<0.00670896936] yes=175,no=176,missing=175
									175:leaf=-0.204454765
									176:leaf=-0.108680524
							112:leaf=-0.025541991
					50:[pfiso<0.323580027] yes=79,no=80,missing=80
						79:[ecf1<115.720177] yes=113,no=114,missing=113
							113:[mind0<-0.0420319885] yes=145,no=146,missing=145
								145:[neufrac<0.70477891] yes=177,no=178,missing=178
									177:leaf=0.186798573
									178:leaf=-0.106635213
								146:leaf=-0.163707882
							114:[spreaddr<0.00086064334] yes=147,no=148,missing=147
								147:leaf=-0.218113571
								148:leaf=-0.128813893
						80:[ecf2<9.40361977] yes=115,no=116,missing=116
							115:[pfiso<0.585174322] yes=149,no=150,missing=149
								149:leaf=-0.0335433073
								150:leaf=-0.173477381
							116:leaf=-0.219947159
		6:[pfiso<0.447088271] yes=13,no=14,missing=13
			13:[ecf2<2026.22168] yes=27,no=28,missing=28
				27:[mind0<-0.0698986724] yes=51,no=52,missing=52
					51:leaf=0.200377077
					52:[mind0<0.0689774603] yes=81,no=82,missing=81
						81:[spreaddr<0.00179458212] yes=117,no=118,missing=117
							117:leaf=-0.0866743475
							118:leaf=0.0625434965
						82:leaf=0.154072732
				28:[ecf1<348.764984] yes=53,no=54,missing=53
					53:leaf=0.043175295
					54:leaf=-0.131204158
			14:[ecf1<56.1020851] yes=29,no=30,missing=29
				29:[neufrac<0.267358214] yes=55,no=56,missing=55
					55:[mind0<-0.0149572082] yes=83,no=84,missing=83
						83:leaf=0.128885642
						84:leaf=0.0177455693
					56:leaf=-0.115224525
				30:[spreaddr<0.004880853] yes=57,no=58,missing=58
					57:leaf=-0.19972612
					58:[pfiso<0.534455836] yes=85,no=86,missing=85
						85:leaf=0.0102706803
						86:leaf=-0.133870199
booster[8]:
0:[neufrac<0.140207499] yes=1,no=2,missing=1
	1:[pfiso<0.380254209] yes=3,no=4,missing=4
		3:[maxd0<0.0314856768] yes=7,no=8,missing=8
			7:[mind0<-0.00265219109] yes=15,no=16,missing=15
				15:[neufrac<0.039531339] yes=31,no=32,missing=31
					31:[tkiso<0.162502423] yes=61,no=62,missing=61
						61:leaf=0.205803633
						62:[maxd0<-0.0143122887] yes=99,no=100,missing=100
							99:leaf=0.204807043
							100:[maxd0<0.00262987055] yes=139,no=140,missing=139
								139:[maxd0<-0.00185220898] yes=161,no=162,missing=162
									161:leaf=0.0699974
									162:leaf=-0.0352531001
								140:[pfiso<0.312590927] yes=163,no=164,missing=163
									163:leaf=0.157712907
									164:leaf=0.0432668738
					32:[maxd0<-0.0521036014] yes=63,no=64,missing=63
						63:leaf=0.199247897
						64:[ecf1<111.244186] yes=101,no=102,missing=101
							101:[neufrac<0.0865914673] yes=141,no=142,missing=141
								141:[pfiso<0.312590927] yes=165,no=166,missing=165
									165:leaf=0.112310044
									166:leaf=-0.00220598467
								142:[lambda<-4.91337776] yes=167,no=168,missing=167
									167:leaf=-0.0701418146
									168:leaf=0.0238937605
							102:[tkiso<0.111306868] yes=143,no=144,missing=144
								143:leaf=0.0478296615
								144:[lambda<-5.32742596] yes=169,no=170,missing=169
									169:leaf=-0.193985388
									170:leaf=-0.0350661501
				16:[pfiso<0.1116108] yes=33,no=34,missing=34
					33:[maxd0<0.00193751021] yes=65,no=66,missing=65
						65:[ecf1<206.423599] yes=103,no=104,missing=104
							103:[ecf3<18.2779732] yes=145,no=146,missing=146
								145:leaf=0.021094637
								146:leaf=-0.107708186
							104:[ecf3<81.8660278] yes=147,no=148,missing=147
								147:[spreadpt<0.825267196] yes=171,no=172,missing=171
									171:leaf=0.133715212
									172:leaf=-0
								148:leaf=-0.0292484816
						66:[neufrac<0.0164246112] yes=105,no=106,missing=105
							105:leaf=0.18247278
							106:leaf=-0
					34:[ecf3<9.27937317] yes=67,no=68,missing=67
						67:[spreadpt<0.882202804] yes=107,no=108,missing=108
							107:[maxd0<0.00262987055] yes=149,no=150,missing=149
								149:[ecf3<2.05415463] yes=173,no=174,missing=174
									173:leaf=0.0544714816
									174:leaf=-0.035518676
								150:leaf=0.0934928805
							108:leaf=-0.186866015
						68:[tkiso<0.269910127] yes=109,no=110,missing=109
							109:[maxd0<0.00193751021] yes=151,no=152,missing=152
								151:leaf=-0.103225715
								152:[ecf3<66.9493256] yes=175,no=176,missing=175
									175:leaf=0.0287700873
									176:leaf=-0.0432408154
							110:leaf=-0.150122374
			8:[neufrac<0.0507635288] yes=17,no=18,missing=17
				17:[ecf3<12620.6729] yes=35,no=36,missing=35
					35:[eta<2.2705164] yes=69,no=70,missing=69
						69:leaf=0.212229952
						70:leaf=0.0634783581
					36:leaf=0.0596453026
				18:[maxd0<0.168116882] yes=37,no=38,missing=38
					37:[mind0<-0.030114403] yes=71,no=72,missing=71
						71:[pt<82.0138092] yes=111,no=112,missing=111
							111:leaf=0.166720569
							112:[pfiso<0.197849989] yes=153,no=154,missing=154
								153:leaf=0.0857296512
								154:leaf=-0.0326802917
						72:[pfiso<0.234418139] yes=113,no=114,missing=113
							113:leaf=0.0104906689
							114:leaf=-0.106176786
					38:[pt<414.662567] yes=73,no=74,missing=73
						73:[ecf3<715.214355] yes=115,no=116,missing=115
							115:leaf=0.20114395
							116:leaf=0.0541559868
						74:leaf=-0.033605136
		4:[maxd0<0.216680542] yes=9,no=10,missing=9
			9:[mind0<-0.0402182192] yes=19,no=20,missing=19
				19:[pt<65.8158875] yes=39,no=40,missing=40
					39:[pfiso<0.539019287] yes=75,no=76,missing=75
						75:[mind0<-0.20016861] yes=117,no=118,missing=117
							117:leaf=0.171862513
							118:leaf=0.0690993518
						76:[mind0<-0.610920727] yes=119,no=120,missing=119
							119:leaf=0.0399053991
							120:leaf=-0.0749506652
					40:[maxd0<-0.0521036014] yes=77,no=78,missing=77
						77:[pt<331.420654] yes=121,no=122,missing=122
							121:leaf=0.0977256224
							122:leaf=-0.00161393767
						78:[spreadpt<0.766887188] yes=123,no=124,missing=124
							123:leaf=-0.13845253
							124:leaf=-0.0178590026
				20:[ecf1<56.1020851] yes=41,no=42,missing=41
					41:[pfiso<0.488359213] yes=79,no=80,missing=80
						79:[maxd0<0.0047871517] yes=125,no=126,missing=125
							125:leaf=-0.0962283015
							126:[mind0<-0.00351256249] yes=155,no=156,missing=155
								155:leaf=0.0685320571
								156:leaf=-0.0223598983
						80:leaf=-0.134372786
					42:leaf=-0.180771068
			10:[ecf3<109.41758] yes=21,no=22,missing=21
				21:[pfiso<0.619071007] yes=43,no=44,missing=43
					43:[pfiso<0.520198464] yes=81,no=82,missing=81
						81:leaf=0.188537776
						82:[pt<51.823452] yes=127,no=128,missing=128
							127:leaf=0.124516807
							128:leaf=0.00421239575
					44:[tkiso<0.657881141] yes=83,no=84,missing=83
						83:leaf=0.0845618099
						84:leaf=-0.0466377921
				22:[eta<-0.00312158372] yes=45,no=46,missing=46
					45:leaf=-0.000964057283
					46:leaf=-0.0512410291
	2:[tkiso<0.306847066] yes=5,no=6,missing=5
		5:[maxd0<0.135267988] yes=11,no=12,missing=12
			11:[mind0<-0.161804304] yes=23,no=24,missing=23
				23:[ecf3<152.02562] yes=47,no=48,missing=47
					47:leaf=0.12600942
					48:leaf=-0.000646364468
				24:[pfiso<0.0963134244] yes=49,no=50,missing=50
					49:leaf=0.075254932
					50:[mind0<-0.0440968424] yes=85,no=86,missing=85
						85:leaf=-0.0543509908
						86:leaf=-0.171677127
			12:[pt<487.769043] yes=25,no=26,missing=25
				25:[neufrac<0.448694408] yes=51,no=52,missing=51
					51:leaf=0.169265896
					52:[pfiso<0.124386676] yes=87,no=88,missing=88
						87:leaf=0.122868478
						88:leaf=-0.0163130667
				26:leaf=-0.0670087934
		6:[mind0<-0.123351656] yes=13,no=14,missing=14
			13:[pt<106.825485] yes=27,no=28,missing=27
				27:[tkiso<0.657881141] yes=53,no=54,missing=53
					53:[maxd0<0.103556216] yes=89,no=90,missing=90
						89:[mind0<-0.84363091] yes=129,no=130,missing=129
							129:leaf=0.0859325454
							130:leaf=-0.0422409959
						90:leaf=0.168840393
					54:[tkiso<0.772995532] yes=91,no=92,missing=91
						91:leaf=-0.0412360467
						92:leaf=-0.144397989
				28:[maxd0<0.278344512] yes=55,no=56,missing=55
					55:leaf=-0.175762624
					56:leaf=-0.041483216
			14:[maxd0<0.38086766] yes=29,no=30,missing=29
				29:[ecf3<0.700262904] yes=57,no=58,missing=57
					57:[pfiso<0.57317549] yes=93,no=94,missing=94
						93:[pfiso<0.366887569] yes=131,no=132,missing=132
							131:[ecf1<39.2805672] yes=157,no=158,missing=157
								157:leaf=-0.0835418403
								158:[pfiso<0.216659755] yes=177,no=178,missing=177
									177:leaf=-0.0350752249
									178:leaf=0.0519246534
							132:[pt<31.3947868] yes=159,no=160,missing=160
								159:leaf=-0.0346932188
								160:leaf=-0.127746537
						94:leaf=-0.19744803
					58:[neufrac<0.191019773] yes=95,no=96,missing=95
						95:[maxd0<0.0728278458] yes=133,no=134,missing=134
							133:leaf=-0.172322616
							134:leaf=-0
						96:[pfiso<0.0945449919] yes=135,no=136,missing=135
							135:leaf=-0.0520867966
							136:leaf=-0.214063615
				30:[pt<82.0138092] yes=59,no=60,missing=59
					59:[tkiso<0.614677966] yes=97,no=98,missing=97
						97:leaf=0.0745925754
						98:[pfiso<0.615457833] yes=137,no=138,missing=138
							137:leaf=-0.0251818076
							138:leaf=-0.132255301
					60:leaf=-0.157611549
booster[9]:
0:[neufrac<0.151481912] yes=1,no=2,missing=1
	1:[neufrac<0.0634066537] yes=3,no=4,missing=4
		3:[maxd0<0.0244161133] yes=7,no=8,missing=8
			7:[mind0<-0.00196856307] yes=15,no=16,missing=15
				15:[pfiso<0.287372202] yes=31,no=32,missing=32
					31:[maxd0<-0.0143122887] yes=59,no=60,missing=59
						59:leaf=0.207385495
						60:[spreaddr<0.00072153128] yes=97,no=98,missing=97
							97:[pfiso<0.15040122] yes=137,no=138,missing=138
								137:[neufrac<0.0277920701] yes=175,no=176,missing=176
									175:leaf=0.197207361
									176:leaf=0.0535267964
								138:[spreadpt<0.918702185] yes=177,no=178,missing=177
									177:leaf=0.13129738
									178:leaf=-0.0295913704
							98:[maxd0<0.00525800465] yes=139,no=140,missing=139
								139:[maxd0<-0.000808891316] yes=179,no=180,missing=179
									179:leaf=0.0306749232
									180:leaf=-0.18703562
								140:leaf=0.101928502
					32:[maxd0<-0.0381653793] yes=61,no=62,missing=62
						61:leaf=0.176077783
						62:[ecf2<70.8338013] yes=99,no=100,missing=99
							99:[maxd0<0.000727834646] yes=141,no=142,missing=142
								141:[mind0<-0.474928409] yes=181,no=182,missing=181
									181:leaf=0.0571063608
									182:leaf=-0.0922125205
								142:[spreaddr<0.000583578076] yes=183,no=184,missing=184
									183:leaf=0.146180972
									184:leaf=-0.0198902767
							100:[tkiso<0.292116672] yes=143,no=144,missing=143
								143:leaf=0.025318278
								144:leaf=-0.143328309
				16:[spreaddr<0.000106369953] yes=33,no=34,missing=33
					33:[spreaddr<1.7856275e-05] yes=63,no=64,missing=64
						63:[ecf2<507.082275] yes=101,no=102,missing=101
							101:[maxd0<0.00193751021] yes=145,no=146,missing=145
								145:[spreadpt<0.825267196] yes=185,no=186,missing=186
									185:leaf=0.115070641
									186:leaf=-0
								146:leaf=0.16864264
							102:leaf=-0.00847451482
						64:[spreadpt<0.775742173] yes=103,no=104,missing=104
							103:[maxd0<0.00262987055] yes=147,no=148,missing=148
								147:[neufrac<0.0229858309] yes=187,no=188,missing=187
									187:leaf=-0.00761623494
									188:leaf=0.0570745319
								148:leaf=0.121762939
							104:[ecf1<192.78656] yes=149,no=150,missing=149
								149:leaf=-0.104901657
								150:leaf=-0
					34:[spreaddr<0.000462867931] yes=65,no=66,missing=65
						65:[pfiso<0.297626823] yes=105,no=106,missing=105
							105:[maxd0<0.0047871517] yes=151,no=152,missing=152
								151:[lambda<-5.66206646] yes=189,no=190,missing=189
									189:leaf=-0.0666777343
									190:leaf=-0.0102692032
								152:leaf=0.0691366717
							106:leaf=-0.116237141
						66:leaf=-0.190475404
			8:[pfiso<0.360659689] yes=17,no=18,missing=17
				17:[spreadpt<0.657685578] yes=35,no=36,missing=36
					35:leaf=0.0358671434
					36:[mind0<-0.0402182192] yes=67,no=68,missing=67
						67:leaf=0.210886016
						68:[mind0<0.0189775266] yes=107,no=108,missing=107
							107:[pfiso<0.185915589] yes=153,no=154,missing=153
								153:[spreaddr<0.00170712091] yes=191,no=192,missing=192
									191:leaf=0.194677189
									192:leaf=0.00842682272
								154:[ecf2<206.51088] yes=193,no=194,missing=193
									193:leaf=0.101913296
									194:leaf=-0.0766733661
							108:leaf=0.207405835
				18:[mind0<-0.0872448161] yes=37,no=38,missing=37
					37:leaf=0.189935744
					38:[mind0<0.0894167721] yes=69,no=70,missing=70
						69:[ecf2<44.330616] yes=109,no=110,missing=109
							109:leaf=0.108944736
							110:[maxd0<0.199615955] yes=155,no=156,missing=156
								155:leaf=-0.133017197
								156:leaf=-0.00378047698
						70:leaf=0.159919143
		4:[mind0<-0.20016861] yes=9,no=10,missing=10
			9:[pfiso<0.493643045] yes=19,no=20,missing=19
				19:[maxd0<0.0728278458] yes=39,no=40,missing=39
					39:[ecf2<583.316467] yes=71,no=72,missing=71
						71:[maxd0<-0.0197048169] yes=111,no=112,missing=111
							111:leaf=0.185180023
							112:[spreadpt<0.694755197] yes=157,no=158,missing=157
								157:leaf=-0.0128048873
								158:leaf=0.12429855
						72:leaf=-0.0133113759
					40:leaf=0.197701529
				20:[ecf1<46.5189133] yes=41,no=42,missing=41
					41:leaf=0.096492216
					42:leaf=-0.0997868404
			10:[maxd0<0.055736959] yes=21,no=22,missing=22
				21:[pfiso<0.292800695] yes=43,no=44,missing=43
					43:[ecf1<94.9694672] yes=73,no=74,missing=73
						73:[spreaddr<0.00113975245] yes=113,no=114,missing=113
							113:leaf=0.0587924682
							114:leaf=-0.0578611232
						74:[spreadpt<0.669273794] yes=115,no=116,missing=115
							115:leaf=-0.019137999
							116:leaf=-0.124726646
					44:[ecf1<53.3346291] yes=75,no=76,missing=75
						75:[spreadpt<0.750513792] yes=117,no=118,missing=118
							117:[spreaddr<0.0013254548] yes=159,no=160,missing=159
								159:leaf=0.0969182178
								160:leaf=-0.131765291
							118:leaf=-0.156013504
						76:[epsilon<0.00848332234] yes=119,no=120,missing=119
							119:leaf=-0.187268704
							120:leaf=-0.0956361294
				22:[pfiso<0.459528655] yes=45,no=46,missing=46
					45:[ecf1<103.231804] yes=77,no=78,missing=77
						77:[mind0<0.0894167721] yes=121,no=122,missing=122
							121:[mind0<-0.0149572082] yes=161,no=162,missing=162
								161:leaf=0.149649993
								162:[maxd0<1.38756573] yes=195,no=196,missing=195
									195:leaf=-0.0225131344
									196:leaf=0.0547736213
							122:leaf=0.196532264
						78:[pfiso<0.21386008] yes=123,no=124,missing=123
							123:[mind0<-0.000349737733] yes=163,no=164,missing=164
								163:leaf=0.0208233334
								164:leaf=0.112010941
							124:[spreaddr<0.000487852783] yes=165,no=166,missing=166
								165:leaf=-0.168567941
								166:leaf=-0
					46:[ecf1<49.3222427] yes=79,no=80,missing=79
						79:[maxd0<0.425959736] yes=125,no=126,missing=125
							125:leaf=-0.00241505331
							126:leaf=0.0893680453
						80:leaf=-0.134348199
	2:[tkiso<0.35961622] yes=5,no=6,missing=5
		5:[pfiso<0.113658845] yes=11,no=12,missing=12
			11:[pfiso<0.0927666649] yes=23,no=24,missing=24
				23:leaf=0.165044516
				24:leaf=0.0302103609
			12:[spreaddr<0.00188781437] yes=25,no=26,missing=25
				25:[mind0<-0.353265375] yes=47,no=48,missing=48
					47:leaf=0.0641875714
					48:[ecf2<181.631912] yes=81,no=82,missing=82
						81:leaf=-0
						82:[mind0<0.0368945375] yes=127,no=128,missing=128
							127:leaf=-0.199458435
							128:[ecf1<244.19252] yes=167,no=168,missing=168
								167:leaf=0.0380963944
								168:leaf=-0.137323514
				26:[spreadpt<0.56518203] yes=49,no=50,missing=49
					49:leaf=-0.0774093568
					50:[maxd0<0.0258451067] yes=83,no=84,missing=84
						83:leaf=0.0154450247
						84:leaf=0.179980457
		6:[mind0<-0.123351656] yes=13,no=14,missing=14
			13:[maxd0<0.0870138332] yes=27,no=28,missing=28
				27:[spreaddr<0.0062695099] yes=51,no=52,missing=51
					51:[epsilon<0.0113361087] yes=85,no=86,missing=85
						85:leaf=-0.176812142
						86:leaf=-0.0481563546
					52:[spreadpt<0.56518203] yes=87,no=88,missing=87
						87:leaf=-0.104381226
						88:leaf=0.0857093632
				28:[spreadpt<0.52365762] yes=53,no=54,missing=54
					53:leaf=-0.103631139
					54:leaf=0.0788889751
			14:[pfiso<0.414728791] yes=29,no=30,missing=30
				29:[ecf1<99.9471054] yes=55,no=56,missing=55
					55:[spreaddr<2.33376832e-05] yes=89,no=90,missing=89
						89:leaf=0.0237824284
						90:[neufrac<0.833545506] yes=129,no=130,missing=129
							129:[maxd0<0.0728278458] yes=169,no=170,missing=170
								169:leaf=-0.13151291
								170:leaf=0.0889309198
							130:[spreadpt<0.898985028] yes=171,no=172,missing=172
								171:leaf=-0.184088305
								172:[pfiso<0.292800695] yes=197,no=198,missing=197
									197:leaf=-0.112354465
									198:leaf=-0.0284898076
					56:[pfiso<0.119786628] yes=91,no=92,missing=91
						91:leaf=-0.0635802075
						92:[maxd0<0.207906574] yes=131,no=132,missing=131
							131:leaf=-0.202615619
							132:leaf=-0.0669059977
				30:[maxd0<0.38086766] yes=57,no=58,missing=57
					57:[ecf2<12.9231472] yes=93,no=94,missing=93
						93:[pfiso<0.597402513] yes=133,no=134,missing=134
							133:[eta<1.03258681] yes=173,no=174,missing=173
								173:leaf=-0.0273971912
								174:leaf=-0.0753871724
							134:leaf=-0.182537913
						94:leaf=-0.210575864
					58:[ecf1<54.7015152] yes=95,no=96,missing=95
						95:leaf=-0.0159241688
						96:[spreaddr<0.00865232106] yes=135,no=136,missing=135
							135:leaf=-0.169360057
							136:leaf=-0.049399294
booster[10]:
0:[neufrac<0.129319772] yes=1,no=2,missing=1
	1:[neufrac<0.0570938252] yes=3,no=4,missing=4
		3:[maxd0<0.0114990296] yes=7,no=8,missing=8
			7:[maxd0<-0.0103542591] yes=15,no=16,missing=15
				15:[mind0<-0.0554830357] yes=31,no=32,missing=32
					31:leaf=0.199598402
					32:leaf=0.0499486439
				16:[spreaddr<0.000171058651] yes=33,no=34,missing=33
					33:[tkiso<0.104293868] yes=61,no=62,missing=61
						61:[mind0<-0.00141345907] yes=91,no=92,missing=91
							91:[neufrac<0.0192604717] yes=121,no=122,missing=121
								121:leaf=0.189491943
								122:leaf=0.0521516427
							92:[maxd0<0.00193751021] yes=123,no=124,missing=123
								123:[spreaddr<7.06805986e-06] yes=153,no=154,missing=153
									153:leaf=0.0799975917
									154:leaf=-0.0355735384
								124:leaf=0.13774845
						62:[maxd0<0.00227155862] yes=93,no=94,missing=93
							93:[ecf3<49.3183327] yes=125,no=126,missing=125
								125:[eta<1.64300036] yes=155,no=156,missing=155
									155:leaf=0.0442153104
									156:leaf=-0.056841936
								126:leaf=-0.0752642378
							94:[mind0<-0.000977208023] yes=127,no=128,missing=128
								127:[lambda<-6.1622963] yes=157,no=158,missing=157
									157:leaf=0.059854921
									158:leaf=0.16613248
								128:[neufrac<0.0189485457] yes=159,no=160,missing=160
									159:leaf=0.0465305112
									160:leaf=-0
					34:[spreaddr<0.00460789958] yes=63,no=64,missing=64
						63:[mind0<-0.0730549768] yes=95,no=96,missing=95
							95:[maxd0<0.00262987055] yes=129,no=130,missing=130
								129:[maxd0<-0.00125399535] yes=161,no=162,missing=161
									161:leaf=0.0998370945
									162:leaf=-0.0509658493
								130:leaf=0.108068556
							96:[tkiso<0.236697093] yes=131,no=132,missing=132
								131:[maxd0<0.00432663644] yes=163,no=164,missing=163
									163:leaf=-0.0614945628
									164:leaf=0.0935148448
								132:leaf=-0.133418098
						64:leaf=-0.195818052
			8:[tkiso<0.269910127] yes=17,no=18,missing=17
				17:[ecf3<5088.24072] yes=35,no=36,missing=35
					35:leaf=0.202234328
					36:leaf=0.0534795746
				18:[mind0<-0.0872448161] yes=37,no=38,missing=37
					37:[maxd0<0.0696374923] yes=65,no=66,missing=66
						65:leaf=0.105968744
						66:leaf=0.201592296
					38:[mind0<0.0894167721] yes=67,no=68,missing=68
						67:[neufrac<0.028740488] yes=97,no=98,missing=97
							97:[mind0<-0.00819714554] yes=133,no=134,missing=134
								133:[spreaddr<0.000703395635] yes=165,no=166,missing=165
									165:leaf=0.148884058
									166:leaf=0.0300851353
								134:[maxd0<0.0990729034] yes=167,no=168,missing=167
									167:leaf=-0.0384026095
									168:leaf=0.0479121059
							98:[ecf2<161.677658] yes=135,no=136,missing=136
								135:[spreaddr<0.000415364455] yes=169,no=170,missing=170
									169:leaf=0.0761688799
									170:leaf=-0.0315528698
								136:leaf=-0.131205529
						68:leaf=0.180737555
		4:[mind0<-0.191885442] yes=9,no=10,missing=10
			9:[ecf3<303.649841] yes=19,no=20,missing=19
				19:[maxd0<0.0461147092] yes=39,no=40,missing=39
					39:[maxd0<-0.072003454] yes=69,no=70,missing=70
						69:leaf=0.169691727
						70:[tkiso<0.334337056] yes=99,no=100,missing=100
							99:leaf=0.0773162767
							100:[pt<51.1543465] yes=137,no=138,missing=138
								137:leaf=0.0340650491
								138:leaf=-0.0784385279
					40:leaf=0.197977394
				20:[tkiso<0.243259519] yes=41,no=42,missing=41
					41:leaf=0.0598545521
					42:leaf=-0.102050349
			10:[maxd0<0.0461147092] yes=21,no=22,missing=22
				21:[pt<88.2594833] yes=43,no=44,missing=43
					43:[spreaddr<0.000928406254] yes=71,no=72,missing=71
						71:[ecf3<13.4232664] yes=101,no=102,missing=101
							101:[pt<53.8590164] yes=139,no=140,missing=139
								139:[ecf3<5.04502392] yes=171,no=172,missing=171
									171:leaf=-0.0390035398
									172:leaf=0.0493036024
								140:leaf=-0.107638158
							102:[maxd0<0.00165663986] yes=141,no=142,missing=141
								141:leaf=-0
								142:[ecf1<73.0960922] yes=173,no=174,missing=173
									173:leaf=0.123879679
									174:leaf=0.0230901372
						72:[mind0<-0.0420319885] yes=103,no=104,missing=103
							103:leaf=-0.0092860274
							104:leaf=-0.150331169
					44:[maxd0<0.00227155862] yes=73,no=74,missing=73
						73:leaf=-0.169875219
						74:[tkiso<0.148407578] yes=105,no=106,missing=105
							105:leaf=0.011332334
							106:[ecf1<108.36496] yes=143,no=144,missing=143
								143:leaf=-0.0559253655
								144:leaf=-0.155373931
				22:[mind0<0.0505623743] yes=45,no=46,missing=45
					45:[pt<87.3312836] yes=75,no=76,missing=76
						75:[mind0<-0.0636779368] yes=107,no=108,missing=107
							107:leaf=0.144885093
							108:[tkiso<0.520513296] yes=145,no=146,missing=145
								145:[neufrac<0.0976431072] yes=175,no=176,missing=175
									175:leaf=0.0684395656
									176:leaf=-0.00266287383
								146:leaf=-0.0449469835
						76:[tkiso<0.230455279] yes=109,no=110,missing=109
							109:[ecf2<1603.35376] yes=147,no=148,missing=148
								147:leaf=0.0636486188
								148:leaf=-0.00237103249
							110:[spreaddr<0.000904494198] yes=149,no=150,missing=149
								149:leaf=-0.142693877
								150:leaf=-0
					46:leaf=0.166234344
	2:[tkiso<0.43504709] yes=5,no=6,missing=6
		5:[mind0<-0.10360276] yes=11,no=12,missing=11
			11:[pt<447.206146] yes=23,no=24,missing=23
				23:[ecf1<115.720177] yes=47,no=48,missing=48
					47:[maxd0<0.0440189801] yes=77,no=78,missing=78
						77:leaf=0.0767353475
						78:leaf=0.174353555
					48:[tkiso<0.168717191] yes=79,no=80,missing=80
						79:leaf=0.155943885
						80:[spreaddr<0.00086064334] yes=111,no=112,missing=112
							111:[pt<243.968857] yes=151,no=152,missing=151
								151:leaf=-0.026633298
								152:leaf=-0.0824760571
							112:leaf=0.0587465987
				24:leaf=-0.137022376
			12:[maxd0<0.135267988] yes=25,no=26,missing=26
				25:[spreaddr<2.58065083e-05] yes=49,no=50,missing=50
					49:leaf=-0
					50:[spreaddr<0.00214235787] yes=81,no=82,missing=81
						81:[ecf1<63.1889915] yes=113,no=114,missing=113
							113:leaf=-0.0216122363
							114:leaf=-0.177400514
						82:[maxd0<0.0186224934] yes=115,no=116,missing=115
							115:leaf=-0.0939507335
							116:leaf=0.014670643
				26:[mind0<0.0689774603] yes=51,no=52,missing=52
					51:[epsilon<0.00599094527] yes=83,no=84,missing=83
						83:[pt<181.285294] yes=117,no=118,missing=117
							117:leaf=-0.00602778932
							118:leaf=-0.068450354
						84:leaf=0.049872838
					52:leaf=0.13713111
		6:[neufrac<0.319979966] yes=13,no=14,missing=13
			13:[maxd0<0.0728278458] yes=27,no=28,missing=28
				27:[mind0<-0.492060125] yes=53,no=54,missing=53
					53:[pt<53.8590164] yes=85,no=86,missing=86
						85:leaf=0.0806644186
						86:leaf=-0.1093596
					54:leaf=-0.181233808
				28:[mind0<-0.154754981] yes=55,no=56,missing=55
					55:leaf=0.101688549
					56:[pt<55.2463455] yes=87,no=88,missing=87
						87:leaf=0.0327465422
						88:leaf=-0.114940956
			14:[ecf3<1.04282689] yes=29,no=30,missing=29
				29:[spreaddr<1.99272308e-05] yes=57,no=58,missing=58
					57:[pt<86.4278259] yes=89,no=90,missing=89
						89:[lambda<-5.09388161] yes=119,no=120,missing=119
							119:leaf=0.00469969725
							120:leaf=-0.0652436316
						90:leaf=-0.125414863
					58:leaf=-0.155200765
				30:[mind0<-2.09328079] yes=59,no=60,missing=60
					59:leaf=-0.0893014744
					60:leaf=-0.205209777
booster[11]:
0:[neufrac<0.140207499] yes=1,no=2,missing=1
	1:[pfiso<0.312590927] yes=3,no=4,missing=4
		3:[mind0<-0.0420319885] yes=7,no=8,missing=7
			7:[ecf3<4080.37402] yes=15,no=16,missing=15
				15:[neufrac<0.0865914673] yes=31,no=32,missing=31
					31:[maxd0<0.0461147092] yes=61,no=62,missing=62
						61:[maxd0<-0.00740299048] yes=101,no=102,missing=102
							101:leaf=0.198715791
							102:[spreaddr<0.0041020629] yes=135,no=136,missing=135
								135:[neufrac<0.0180739947] yes=161,no=162,missing=161
									161:leaf=0.185148969
									162:leaf=0.081733577
								136:leaf=-0.0855338871
						62:leaf=0.203901052
					32:[mind0<-0.20016861] yes=63,no=64,missing=63
						63:leaf=0.148324132
						64:leaf=0.0240962524
				16:[pfiso<0.0352965258] yes=33,no=34,missing=34
					33:leaf=0.130673632
					34:leaf=-0.127255499
			8:[maxd0<0.0047871517] yes=17,no=18,missing=17
				17:[spreaddr<2.97683473e-05] yes=35,no=36,missing=36
					35:[neufrac<0.0237804893] yes=65,no=66,missing=65
						65:[mind0<-0.00305094337] yes=103,no=104,missing=104
							103:leaf=0.165669188
							104:[spreadpt<0.803446591] yes=137,no=138,missing=137
								137:[eta<1.16846442] yes=163,no=164,missing=164
									163:leaf=0.126773477
									164:leaf=0.00892029796
								138:[pt<306.772705] yes=165,no=166,missing=165
									165:leaf=-0.0488736592
									166:leaf=0.0354188792
						66:leaf=-0.0908356309
					36:[spreaddr<0.000415364455] yes=67,no=68,missing=67
						67:[spreadpt<0.908846974] yes=105,no=106,missing=105
							105:[mind0<-0.00141345907] yes=139,no=140,missing=139
								139:[neufrac<0.0634066537] yes=167,no=168,missing=167
									167:leaf=0.104040585
									168:leaf=-0.0495877266
								140:[pt<97.7140274] yes=169,no=170,missing=170
									169:leaf=0.0152356829
									170:leaf=-0.0656189173
							106:leaf=-0.1740679
						68:[mind0<-0.00541136879] yes=107,no=108,missing=107
							107:leaf=-0.0153595479
							108:leaf=-0.172633588
				18:[neufrac<0.037039876] yes=37,no=38,missing=37
					37:[spreadpt<0.944091737] yes=69,no=70,missing=69
						69:[ecf3<578.08728] yes=109,no=110,missing=109
							109:[pfiso<0.197849989] yes=141,no=142,missing=141
								141:leaf=0.194890916
								142:[mind0<0.0189775266] yes=171,no=172,missing=172
									171:leaf=0.0929369777
									172:leaf=0.187497213
							110:leaf=0.0722562671
						70:[pt<145.646606] yes=111,no=112,missing=111
							111:leaf=-0.0912665725
							112:leaf=0.163188145
					38:[mind0<0.0368945375] yes=71,no=72,missing=72
						71:[mind0<-0.00167861953] yes=113,no=114,missing=113
							113:[pt<111.058113] yes=143,no=144,missing=143
								143:[spreaddr<0.000487852783] yes=173,no=174,missing=174
									173:leaf=0.135588959
									174:leaf=-0
								144:[pfiso<0.166387692] yes=175,no=176,missing=175
									175:leaf=0.0429876782
									176:leaf=-0.0992450714
							114:[maxd0<0.8552472] yes=145,no=146,missing=145
								145:[pfiso<0.197849989] yes=177,no=178,missing=177
									177:leaf=-0.00484564248
									178:leaf=-0.114273168
								146:leaf=-0
						72:leaf=0.175156757
		4:[maxd0<0.183048695] yes=9,no=10,missing=9
			9:[mind0<-0.0440968424] yes=19,no=20,missing=19
				19:[ecf1<84.687912] yes=39,no=40,missing=40
					39:[pfiso<0.504417419] yes=73,no=74,missing=73
						73:[maxd0<-0.0929026231] yes=115,no=116,missing=115
							115:leaf=0.19263573
							116:[maxd0<0.0530103333] yes=147,no=148,missing=148
								147:[spreadpt<0.697448194] yes=179,no=180,missing=180
									179:leaf=-0.0110226693
									180:leaf=0.0799099132
								148:[spreaddr<0.00126014056] yes=181,no=182,missing=182
									181:leaf=0.162045687
									182:leaf=0.0361527912
						74:[spreadpt<0.693773448] yes=117,no=118,missing=117
							117:leaf=-0.0859571919
							118:[mind0<-0.79076308] yes=149,no=150,missing=149
								149:leaf=0.087838456
								150:leaf=-0.0164717305
					40:[neufrac<0.0309680738] yes=75,no=76,missing=75
						75:[neufrac<0.021843344] yes=119,no=120,missing=120
							119:leaf=0.0613169968
							120:leaf=0.00141508435
						76:leaf=-0.138543978
				20:[ecf2<106.605591] yes=41,no=42,missing=41
					41:[spreaddr<0.000161093136] yes=77,no=78,missing=77
						77:[spreadpt<0.805607557] yes=121,no=122,missing=121
							121:[mind0<-0.00305094337] yes=151,no=152,missing=151
								151:leaf=0.158586919
								152:leaf=-0
							122:leaf=-0.113039427
						78:[ecf3<11.7488871] yes=123,no=124,missing=123
							123:[ecf2<47.6782799] yes=153,no=154,missing=154
								153:[spreadpt<0.752054453] yes=183,no=184,missing=183
									183:leaf=0.014086131
									184:leaf=-0.133241534
								154:leaf=-0.147902057
							124:[mind0<-0.00819714554] yes=155,no=156,missing=155
								155:leaf=0.0577805676
								156:leaf=-0.0504639968
					42:leaf=-0.165846795
			10:[pt<108.187843] yes=21,no=22,missing=22
				21:[pfiso<0.520198464] yes=43,no=44,missing=43
					43:[mind0<-0.0527503006] yes=79,no=80,missing=79
						79:leaf=0.196753576
						80:[mind0<0.0689774603] yes=125,no=126,missing=125
							125:[spreadpt<0.71843648] yes=157,no=158,missing=157
								157:leaf=-0.0272848643
								158:leaf=0.101053938
							126:leaf=0.17826052
					44:[pt<51.823452] yes=81,no=82,missing=81
						81:leaf=0.0816109553
						82:leaf=-0.0225137919
				22:[tkiso<0.301821381] yes=45,no=46,missing=45
					45:leaf=0.117767684
					46:leaf=-0.128645912
	2:[tkiso<0.499999911] yes=5,no=6,missing=5
		5:[pfiso<0.128888339] yes=11,no=12,missing=11
			11:[ecf3<391.017761] yes=23,no=24,missing=23
				23:[pt<165.19458] yes=47,no=48,missing=48
					47:leaf=0.0326349251
					48:leaf=0.159188002
				24:leaf=-0
			12:[spreaddr<0.00198568031] yes=25,no=26,missing=25
				25:[ecf2<268.331146] yes=49,no=50,missing=50
					49:[mind0<-0.0698986724] yes=83,no=84,missing=83
						83:leaf=0.0877066851
						84:leaf=-0.124571912
					50:[mind0<-1.28550446] yes=85,no=86,missing=86
						85:leaf=-0.0172081757
						86:[pfiso<0.160636202] yes=127,no=128,missing=128
							127:leaf=-0.0457145497
							128:leaf=-0.190299273
				26:[spreadpt<0.552649915] yes=51,no=52,missing=51
					51:[spreadpt<0.510597944] yes=87,no=88,missing=88
						87:leaf=-0.138129517
						88:leaf=-0.0407058112
					52:[maxd0<0.147421584] yes=89,no=90,missing=90
						89:[mind0<-0.038297154] yes=129,no=130,missing=129
							129:leaf=0.105513118
							130:leaf=-0.0681416616
						90:leaf=0.166553572
		6:[neufrac<0.319979966] yes=13,no=14,missing=13
			13:[maxd0<0.19119963] yes=27,no=28,missing=28
				27:[mind0<-0.118239529] yes=53,no=54,missing=53
					53:[spreaddr<0.00268908101] yes=91,no=92,missing=91
						91:leaf=-0.124118887
						92:leaf=0.00933255162
					54:leaf=-0.173729226
				28:[pfiso<0.615457833] yes=55,no=56,missing=55
					55:[mind0<-0.0527503006] yes=93,no=94,missing=93
						93:leaf=0.112966627
						94:leaf=-0.0125140166
					56:leaf=-0.10269811
			14:[ecf3<1.37228227] yes=29,no=30,missing=29
				29:[pfiso<0.597402513] yes=57,no=58,missing=57
					57:[maxd0<-1.78748512] yes=95,no=96,missing=95
						95:[spreadpt<0.949361086] yes=131,no=132,missing=132
							131:leaf=-0.0859158561
							132:[pt<86.4278259] yes=159,no=160,missing=159
								159:[pfiso<0.269306928] yes=185,no=186,missing=186
									185:leaf=-0.0143243484
									186:leaf=0.0466566458
								160:leaf=-0.0940724835
						96:leaf=-0.140005872
					58:leaf=-0.186083704
				30:[pfiso<0.234418139] yes=59,no=60,missing=59
					59:[pt<335.52951] yes=97,no=98,missing=97
						97:leaf=-0.0231117494
						98:leaf=-0.150959358
					60:[maxd0<3.16178322] yes=99,no=100,missing=99
						99:[mind0<-1.7440213] yes=133,no=134,missing=134
							133:leaf=-0.0948084667
							134:leaf=-0.202928007
						100:leaf=-0.0736823305
booster[12]:
0:[neufrac<0.151481912] yes=1,no=2,missing=1
	1:[neufrac<0.0492285192] yes=3,no=4,missing=4
		3:[maxd0<0.0219689328] yes=7,no=8,missing=8
			7:[mind0<-0.00490215002] yes=15,no=16,missing=16
				15:[tkiso<0.246722981] yes=31,no=32,missing=31
					31:[spreaddr<0.0101333922] yes=57,no=58,missing=57
						57:[neufrac<0.0277920701] yes=93,no=94,missing=93
							93:[spreadpt<0.965560377] yes=123,no=124,missing=123
								123:leaf=0.18832013
								124:[neufrac<0.00421610475] yes=155,no=156,missing=155
									155:leaf=0.124790967
									156:leaf=0.0134700723
							94:[maxd0<-0.0143122887] yes=125,no=126,missing=125
								125:leaf=0.16399838
								126:[lambda<-5.86651564] yes=157,no=158,missing=157
									157:leaf=-0.0222173128
									158:leaf=0.0657561645
						58:leaf=0.0105242962
					32:[maxd0<-0.0381653793] yes=59,no=60,missing=59
						59:leaf=0.159301355
						60:[maxd0<0.00386387692] yes=95,no=96,missing=95
							95:[pfiso<0.21386008] yes=127,no=128,missing=127
								127:leaf=0.0521344207
								128:[ecf2<82.1351852] yes=159,no=160,missing=159
									159:leaf=-0.0221143719
									160:leaf=-0.121143579
							96:[spreaddr<0.000583578076] yes=129,no=130,missing=129
								129:[spreadpt<0.773877084] yes=161,no=162,missing=161
									161:leaf=0.131887689
									162:leaf=0.022962546
								130:leaf=-0.0427224636
				16:[spreaddr<4.62635398e-05] yes=33,no=34,missing=34
					33:[spreadpt<0.941432238] yes=61,no=62,missing=61
						61:[maxd0<0.00227155862] yes=97,no=98,missing=98
							97:[spreadpt<0.793205738] yes=131,no=132,missing=131
								131:[spreadpt<0.709599972] yes=163,no=164,missing=163
									163:leaf=0.0138299847
									164:leaf=0.103908241
								132:[neufrac<0.00521554146] yes=165,no=166,missing=165
									165:leaf=0.0371586755
									166:leaf=-0.0500629842
							98:leaf=0.14216952
						62:leaf=-0.0612577274
					34:[spreaddr<0.000554319122] yes=63,no=64,missing=63
						63:[spreadpt<0.903865099] yes=99,no=100,missing=100
							99:[maxd0<0.00139129465] yes=133,no=134,missing=134
								133:[neufrac<0.0309680738] yes=167,no=168,missing=168
									167:leaf=-0.0861412436
									168:leaf=-0
								134:[maxd0<0.00432663644] yes=169,no=170,missing=170
									169:leaf=0.0146624818
									170:leaf=0.0957690179
							100:leaf=-0.149871215
						64:leaf=-0.149316877
			8:[pfiso<0.401670247] yes=17,no=18,missing=18
				17:[mind0<-0.0198161434] yes=35,no=36,missing=35
					35:leaf=0.199098855
					36:[mind0<0.0189775266] yes=65,no=66,missing=65
						65:[neufrac<0.018660387] yes=101,no=102,missing=101
							101:[maxd0<5.60015011] yes=135,no=136,missing=135
								135:[pfiso<0.174470231] yes=171,no=172,missing=171
									171:leaf=0.174565017
									172:leaf=0.0556496568
								136:leaf=-0.0285945609
							102:[mind0<-0.00305094337] yes=137,no=138,missing=137
								137:leaf=0.0799704492
								138:[spreadpt<0.773877084] yes=173,no=174,missing=173
									173:leaf=-0.127204269
									174:leaf=-0.0284904186
						66:leaf=0.195925981
				18:[mind0<-0.141875133] yes=37,no=38,missing=37
					37:leaf=0.138383016
					38:[ecf2<57.8367767] yes=67,no=68,missing=67
						67:[mind0<-0.00490215002] yes=103,no=104,missing=104
							103:leaf=0.101854838
							104:leaf=0.0252368189
						68:[mind0<0.00384041714] yes=105,no=106,missing=106
							105:leaf=-0.0804511979
							106:leaf=0.0470320657
		4:[mind0<-0.191885442] yes=9,no=10,missing=10
			9:[ecf2<877.31134] yes=19,no=20,missing=19
				19:[pfiso<0.539019287] yes=39,no=40,missing=39
					39:[maxd0<0.0285397414] yes=69,no=70,missing=70
						69:[maxd0<-0.0197048169] yes=107,no=108,missing=107
							107:leaf=0.174181715
							108:[spreadpt<0.697448194] yes=139,no=140,missing=139
								139:leaf=-0.0955995917
								140:leaf=0.0911186263
						70:leaf=0.192519397
					40:[pt<44.235714] yes=71,no=72,missing=71
						71:leaf=0.0544435978
						72:leaf=-0.0754760131
				20:[tkiso<0.287563741] yes=41,no=42,missing=41
					41:leaf=0.0170920771
					42:leaf=-0.120289229
			10:[mind0<0.0894167721] yes=21,no=22,missing=21
				21:[pt<88.2594833] yes=43,no=44,missing=43
					43:[pfiso<0.514816642] yes=73,no=74,missing=73
						73:[maxd0<0.055736959] yes=109,no=110,missing=109
							109:[spreaddr<0.00047518083] yes=141,no=142,missing=142
								141:[spreadpt<0.765123844] yes=175,no=176,missing=175
									175:leaf=0.137547791
									176:leaf=-0.083784923
								142:[mind0<-0.0420319885] yes=177,no=178,missing=177
									177:leaf=0.00315499119
									178:leaf=-0.0873146728
							110:[mind0<-0.0149572082] yes=143,no=144,missing=143
								143:[pt<69.3587189] yes=179,no=180,missing=180
									179:leaf=0.150294289
									180:leaf=0.0436892733
								144:[spreadpt<0.707621813] yes=181,no=182,missing=181
									181:leaf=-0.0431092419
									182:leaf=0.0702940598
						74:leaf=-0.129671395
					44:[pfiso<0.21386008] yes=75,no=76,missing=75
						75:[pfiso<0.0668883026] yes=111,no=112,missing=111
							111:leaf=0.115937911
							112:[spreaddr<0.000109829525] yes=145,no=146,missing=145
								145:leaf=-0.123804763
								146:[mind0<-0.00490215002] yes=183,no=184,missing=183
									183:leaf=0.0581522584
									184:leaf=-0.0362159275
						76:[maxd0<0.562008142] yes=113,no=114,missing=114
							113:[pfiso<0.249246851] yes=147,no=148,missing=148
								147:leaf=-0.0668946579
								148:leaf=-0.190150782
							114:leaf=-0.0262940899
				22:leaf=0.160479411
	2:[tkiso<0.572745264] yes=5,no=6,missing=5
		5:[pfiso<0.15282847] yes=11,no=12,missing=11
			11:[pfiso<0.0927666649] yes=23,no=24,missing=24
				23:leaf=0.14333348
				24:[pt<299.290802] yes=45,no=46,missing=45
					45:[mind0<-0.168934509] yes=77,no=78,missing=77
						77:leaf=0.105496064
						78:leaf=0.00962437224
					46:leaf=-0.0903477594
			12:[spreaddr<0.00203854102] yes=25,no=26,missing=25
				25:[pfiso<0.260931253] yes=47,no=48,missing=48
					47:[pt<220.2789] yes=79,no=80,missing=79
						79:[mind0<-0.038297154] yes=115,no=116,missing=115
							115:leaf=0.0942098871
							116:leaf=-0.0887288004
						80:leaf=-0.156994417
					48:[pt<55.2463455] yes=81,no=82,missing=81
						81:leaf=-0.0187757052
						82:leaf=-0.177684188
				26:[spreadpt<0.540445268] yes=49,no=50,missing=50
					49:[spreaddr<0.0115430951] yes=83,no=84,missing=83
						83:leaf=-0.150053531
						84:leaf=-0.0252205972
					50:[maxd0<0.103556216] yes=85,no=86,missing=86
						85:[mind0<-0.266606987] yes=117,no=118,missing=117
							117:leaf=0.109413102
							118:[maxd0<0.0186224934] yes=149,no=150,missing=150
								149:leaf=-0.103792205
								150:leaf=-0
						86:leaf=0.132265374
		6:[pfiso<0.380254209] yes=13,no=14,missing=14
			13:[ecf2<359.545746] yes=27,no=28,missing=27
				27:[neufrac<0.999999881] yes=51,no=52,missing=51
					51:leaf=0.0402547382
					52:[spreadpt<0.929080248] yes=87,no=88,missing=87
						87:leaf=-0.142760932
						88:[ecf2<40.0599899] yes=119,no=120,missing=120
							119:[pfiso<0.245673716] yes=151,no=152,missing=151
								151:leaf=-0.0374075361
								152:leaf=0.0646907166
							120:[spreaddr<1.05394938e-05] yes=153,no=154,missing=154
								153:leaf=-0.0019439616
								154:leaf=-0.0932304114
				28:leaf=-0.178139955
			14:[maxd0<0.07612928] yes=29,no=30,missing=29
				29:[ecf2<12.9231472] yes=53,no=54,missing=53
					53:[pfiso<0.597402513] yes=89,no=90,missing=90
						89:[pt<30.7486935] yes=121,no=122,missing=122
							121:leaf=-0
							122:leaf=-0.0783666372
						90:leaf=-0.160727724
					54:leaf=-0.199772596
				30:[pt<67.9444962] yes=55,no=56,missing=55
					55:[neufrac<0.319979966] yes=91,no=92,missing=91
						91:leaf=0.0172228664
						92:leaf=-0.0790789872
					56:leaf=-0.154817864
booster[13]:
0:[neufrac<0.191019773] yes=1,no=2,missing=1
	1:[neufrac<0.0492285192] yes=3,no=4,missing=4
		3:[mind0<-0.0208160132] yes=7,no=8,missing=7
			7:[pfiso<0.360659689] yes=15,no=16,missing=16
				15:[ecf3<4080.37402] yes=29,no=30,missing=29
					29:[neufrac<0.0282738358] yes=53,no=54,missing=53
						53:[eta<-2.1720283] yes=79,no=80,missing=80
							79:leaf=0.0692596063
							80:leaf=0.193265766
						54:[mind0<-0.0730549768] yes=81,no=82,missing=81
							81:leaf=0.174227715
							82:[spreaddr<0.000306546834] yes=115,no=116,missing=116
								115:leaf=0.0703248233
								116:leaf=-0.0338063762
					30:leaf=0.0161324348
				16:[ecf1<85.6592255] yes=31,no=32,missing=32
					31:[mind0<-0.216903895] yes=55,no=56,missing=55
						55:leaf=0.151246578
						56:[spreaddr<0.000615247816] yes=83,no=84,missing=83
							83:leaf=0.0880967751
							84:leaf=-0.0164769609
					32:[tkiso<0.334337056] yes=57,no=58,missing=58
						57:leaf=0.115368217
						58:leaf=-0.0875868723
			8:[mind0<0.0189775266] yes=17,no=18,missing=17
				17:[pfiso<0.109660201] yes=33,no=34,missing=33
					33:[ecf1<152.127289] yes=59,no=60,missing=60
						59:[mind0<-0.00167861953] yes=85,no=86,missing=85
							85:leaf=0.0767706111
							86:leaf=-0.0676174983
						60:[ecf2<1355.31689] yes=87,no=88,missing=87
							87:[neufrac<0.0142904613] yes=117,no=118,missing=117
								117:[mind0<-0.00265219109] yes=139,no=140,missing=139
									139:leaf=0.186772332
									140:leaf=0.13522473
								118:[mind0<-0.00229220768] yes=141,no=142,missing=142
									141:leaf=0.0923361927
									142:leaf=0.00759893982
							88:leaf=-0
					34:[mind0<-0.00167861953] yes=61,no=62,missing=61
						61:[spreaddr<0.000187183759] yes=89,no=90,missing=90
							89:[spreadpt<0.908846974] yes=119,no=120,missing=119
								119:[spreadpt<0.785030782] yes=143,no=144,missing=143
									143:leaf=0.141318336
									144:leaf=0.0384707041
								120:leaf=-0.0669910386
							90:[pfiso<0.230748251] yes=121,no=122,missing=121
								121:[mind0<-0.00819714554] yes=145,no=146,missing=146
									145:leaf=0.0707767159
									146:leaf=-0
								122:[spreadpt<0.805607557] yes=147,no=148,missing=147
									147:leaf=-0.0870141163
									148:leaf=-0
						62:[ecf2<348.283997] yes=91,no=92,missing=91
							91:[eta<1.11668444] yes=123,no=124,missing=123
								123:[eta<-1.25154805] yes=149,no=150,missing=149
									149:leaf=-0.0543757342
									150:leaf=0.0259259399
								124:[spreadpt<0.729679286] yes=151,no=152,missing=152
									151:leaf=-0.0226039235
									152:leaf=-0.114768609
							92:leaf=-0.127702996
				18:[pfiso<0.414728791] yes=35,no=36,missing=35
					35:leaf=0.19149448
					36:leaf=0.0385331884
		4:[mind0<-0.20016861] yes=9,no=10,missing=10
			9:[ecf3<1301.61536] yes=19,no=20,missing=19
				19:[pfiso<0.539019287] yes=37,no=38,missing=38
					37:[ecf1<97.8630676] yes=63,no=64,missing=63
						63:[pfiso<0.447088271] yes=93,no=94,missing=94
							93:leaf=0.177552596
							94:leaf=0.0862162933
						64:[tkiso<0.269910127] yes=95,no=96,missing=95
							95:leaf=0.14378044
							96:leaf=-0.0329379737
					38:[pt<41.3671379] yes=65,no=66,missing=66
						65:leaf=0.0627859607
						66:leaf=-0.0904500857
				20:leaf=-0.115593441
			10:[mind0<0.0894167721] yes=21,no=22,missing=21
				21:[mind0<-0.0402182192] yes=39,no=40,missing=39
					39:[ecf1<92.0844345] yes=67,no=68,missing=68
						67:[pfiso<0.477024406] yes=97,no=98,missing=97
							97:[ecf3<14.9441843] yes=125,no=126,missing=125
								125:[neufrac<0.0824363306] yes=153,no=154,missing=153
									153:leaf=0.0974473283
									154:leaf=-0.00338402251
								126:leaf=0.144332543
							98:leaf=-0.0597681254
						68:[pfiso<0.249246851] yes=99,no=100,missing=99
							99:[pfiso<0.13589628] yes=127,no=128,missing=128
								127:leaf=0.0843163952
								128:[pt<122.021263] yes=155,no=156,missing=155
									155:leaf=0.00151336391
									156:leaf=-0.0395008735
							100:leaf=-0.0998357609
					40:[epsilon<0.0046990132] yes=69,no=70,missing=69
						69:[tkiso<0.083590582] yes=101,no=102,missing=101
							101:leaf=0.0217576064
							102:[pfiso<0.238144651] yes=129,no=130,missing=130
								129:[epsilon<0.00305017666] yes=157,no=158,missing=157
									157:leaf=-0.110243484
									158:leaf=0.0230663754
								130:[spreaddr<0.00157700491] yes=159,no=160,missing=159
									159:leaf=-0.162272781
									160:leaf=-0.0634220317
						70:[pfiso<0.459528655] yes=103,no=104,missing=103
							103:[ecf1<81.3403015] yes=131,no=132,missing=131
								131:[spreaddr<0.00113975245] yes=161,no=162,missing=162
									161:leaf=0.0766674504
									162:leaf=-0.0349711552
								132:[tkiso<0.278384924] yes=163,no=164,missing=163
									163:leaf=0.00786834396
									164:leaf=-0.118049763
							104:[pt<39.9061203] yes=133,no=134,missing=133
								133:leaf=-0.0302916039
								134:leaf=-0.132590458
				22:leaf=0.158160448
	2:[pfiso<0.273677766] yes=5,no=6,missing=6
		5:[tkiso<0.142836705] yes=11,no=12,missing=11
			11:leaf=0.116985694
			12:[ecf1<327.555328] yes=23,no=24,missing=23
				23:[spreadpt<0.56518203] yes=41,no=42,missing=42
					41:leaf=-0.116930246
					42:[neufrac<0.953667521] yes=71,no=72,missing=71
						71:[mind0<-0.161804304] yes=105,no=106,missing=105
							105:leaf=0.130586863
							106:[ecf3<66.9493256] yes=135,no=136,missing=135
								135:leaf=0.034962032
								136:leaf=-0.0195121299
						72:[spreaddr<1.30362205e-05] yes=107,no=108,missing=107
							107:leaf=0.00456455862
							108:leaf=-0.129798979
				24:[pt<440.223419] yes=43,no=44,missing=43
					43:leaf=-0.0660416558
					44:leaf=-0.173374802
		6:[mind0<-0.154754981] yes=13,no=14,missing=14
			13:[spreaddr<0.0062695099] yes=25,no=26,missing=25
				25:[pt<63.7353935] yes=45,no=46,missing=45
					45:leaf=-0.00494999858
					46:[pfiso<0.447088271] yes=73,no=74,missing=73
						73:leaf=-0.0629649088
						74:leaf=-0.160695091
				26:[tkiso<0.700886965] yes=47,no=48,missing=47
					47:leaf=0.102112144
					48:leaf=-0.094439365
			14:[ecf2<19.6090088] yes=27,no=28,missing=27
				27:[pfiso<0.597402513] yes=49,no=50,missing=50
					49:[eta<1.03258681] yes=75,no=76,missing=75
						75:[eta<-1.75670564] yes=109,no=110,missing=110
							109:leaf=-0.0746366382
							110:[spreadpt<0.957345784] yes=137,no=138,missing=137
								137:leaf=-6.1934843e-05
								138:leaf=0.072777383
						76:leaf=-0.0723884776
					50:leaf=-0.169494092
				28:[neufrac<0.560727537] yes=51,no=52,missing=51
					51:[spreaddr<0.0080160927] yes=77,no=78,missing=78
						77:[ecf1<69.4925385] yes=111,no=112,missing=112
							111:leaf=-0.103992566
							112:leaf=-0.185227886
						78:[spreadpt<0.544671059] yes=113,no=114,missing=113
							113:leaf=-0.116070993
							114:leaf=0.02371585
					52:leaf=-0.197957292
booster[14]:
0:[neufrac<0.191019773] yes=1,no=2,missing=1
	1:[pfiso<0.297626823] yes=3,no=4,missing=4
		3:[maxd0<0.0271112584] yes=7,no=8,missing=8
			7:[maxd0<-0.00740299048] yes=15,no=16,missing=15
				15:[neufrac<0.0634066537] yes=29,no=30,missing=29
					29:leaf=0.184626654
					30:leaf=0.0724026188
				16:[neufrac<0.0180739947] yes=31,no=32,missing=31
					31:[maxd0<0.00227155862] yes=55,no=56,missing=56
						55:[pt<185.72258] yes=79,no=80,missing=79
							79:[spreadpt<0.949361086] yes=107,no=108,missing=108
								107:[ecf2<54.3805008] yes=131,no=132,missing=132
									131:leaf=0.0645129159
									132:leaf=-0.0694881827
								108:leaf=-0.141226649
							80:[ecf2<941.559387] yes=109,no=110,missing=109
								109:leaf=0.112850979
								110:leaf=-0.0374942571
						56:[pt<151.932327] yes=81,no=82,missing=81
							81:[spreadpt<0.908846974] yes=111,no=112,missing=111
								111:leaf=0.128233999
								112:leaf=-0.0576865673
							82:leaf=0.179601744
					32:[ecf2<121.294518] yes=57,no=58,missing=58
						57:[spreadpt<0.862750292] yes=83,no=84,missing=83
							83:[maxd0<0.00139129465] yes=113,no=114,missing=114
								113:[pfiso<0.206970349] yes=133,no=134,missing=133
									133:leaf=0.0582578816
									134:leaf=-0.015118489
								114:[ecf2<79.2522125] yes=135,no=136,missing=135
									135:leaf=0.131806657
									136:leaf=0.0418711938
							84:leaf=-0.126600444
						58:[pt<470.609619] yes=85,no=86,missing=86
							85:[maxd0<0.00386387692] yes=115,no=116,missing=116
