booster[0]:
0:[pfiso<0.332138807] yes=1,no=2,missing=2
	1:[tkiso<0.984241366] yes=3,no=4,missing=3
		3:[ecf3<88.9692307] yes=7,no=8,missing=7
			7:[mind0<-0.00395865785] yes=15,no=16,missing=16
				15:[spreaddr<0.00255256565] yes=31,no=32,missing=31
					31:[pfiso<0.19544965] yes=63,no=64,missing=63
						63:[mind0<-0.463877797] yes=109,no=110,missing=109
							109:[pt<161.176514] yes=171,no=172,missing=171
								171:[epsilon<0.00315781729] yes=261,no=262,missing=261
									261:[ecf3<10.4283886] yes=373,no=374,missing=374
										373:leaf=-0
										374:leaf=-0.0454195216
									262:leaf=-0.0949900523
								172:leaf=-0.108634867
							110:[spreaddr<8.56945117e-05] yes=173,no=174,missing=173
								173:[ecf2<119.252647] yes=263,no=264,missing=263
									263:[pt<179.492065] yes=375,no=376,missing=375
										375:[lambda<-5.19348717] yes=523,no=524,missing=523
											523:leaf=-0.00398097374
											524:leaf=-0.0691730455
										376:leaf=-0
									264:[ecf3<21.4836082] yes=377,no=378,missing=378
										377:[ecf2<237.929062] yes=525,no=526,missing=525
											525:leaf=-0.0833541229
											526:leaf=-0
										378:leaf=-0.107311651
								174:[ecf3<72.6239853] yes=265,no=266,missing=265
									265:[ecf2<80.6938553] yes=379,no=380,missing=379
										379:leaf=0.061204318
										380:[ecf3<8.71201038] yes=527,no=528,missing=527
											527:[pfiso<0.135723531] yes=677,no=678,missing=677
												677:leaf=-0.0548343882
												678:leaf=-0
											528:[tkiso<0.165791094] yes=679,no=680,missing=679
												679:[pfiso<0.10183879] yes=821,no=822,missing=821
													821:leaf=-0.0096750455
													822:leaf=0.0396080203
												680:[mind0<-0.0230758637] yes=823,no=824,missing=823
													823:leaf=-0
													824:leaf=-0.0691730455
									266:leaf=0.0753581077
						64:[pt<41.5228729] yes=111,no=112,missing=111
							111:leaf=-0
							112:[tkiso<0.123939469] yes=175,no=176,missing=175
								175:[spreaddr<0.000601933978] yes=267,no=268,missing=267
									267:leaf=-0.0802610964
									268:leaf=-0
								176:leaf=-0.113013074
					32:[mind0<-1.86464381] yes=65,no=66,missing=65
						65:leaf=-0.0855815336
						66:[mind0<-0.0438273735] yes=113,no=114,missing=113
							113:[pfiso<0.259560287] yes=177,no=178,missing=177
								177:leaf=0.0998200402
								178:leaf=-0
							114:[spreaddr<0.00381965796] yes=179,no=180,missing=179
								179:leaf=-0.0611273833
								180:leaf=-0
				16:[tkiso<0.832031667] yes=33,no=34,missing=33
					33:[mind0<0.0482642762] yes=67,no=68,missing=68
						67:[pfiso<0.127609193] yes=115,no=116,missing=115
							115:[tkiso<0.114483006] yes=181,no=182,missing=181
								181:[pt<252.956223] yes=269,no=270,missing=269
									269:leaf=-0.103775941
									270:[pt<319.141815] yes=381,no=382,missing=381
										381:leaf=-0
										382:leaf=-0.0747135356
								182:[lambda<-6.08061838] yes=271,no=272,missing=271
									271:leaf=0.0502329245
									272:leaf=-0.0242273379
							116:[pfiso<0.22479482] yes=183,no=184,missing=183
								183:[pt<96.1759109] yes=273,no=274,missing=273
									273:leaf=-0.107311651
									274:[pt<99.8163834] yes=383,no=384,missing=383
										383:leaf=-0
										384:[pfiso<0.184914842] yes=529,no=530,missing=529
											529:leaf=-0.0980899408
											530:leaf=-0.00398097374
								184:leaf=-0.111507513
						68:leaf=-0.118200295
					34:leaf=0.0242273379
			8:[pfiso<0.112960421] yes=17,no=18,missing=17
				17:[tkiso<0.393154621] yes=35,no=36,missing=35
					35:[ecf3<117.74115] yes=69,no=70,missing=69
						69:[ecf3<110.309814] yes=117,no=118,missing=117
							117:leaf=-0.061204318
							118:leaf=-0
						70:leaf=-0.0999041349
					36:leaf=-0
				18:[ecf2<388.471497] yes=37,no=38,missing=37
					37:[ecf3<130.966782] yes=71,no=72,missing=71
						71:leaf=-0.107311651
						72:leaf=-0
					38:leaf=-0.121030897
		4:[ecf3<390.878906] yes=9,no=10,missing=9
			9:[pt<672.598022] yes=19,no=20,missing=19
				19:[pt<33.1662292] yes=39,no=40,missing=39
					39:[epsilon<0.00968867727] yes=73,no=74,missing=73
						73:leaf=0.0893561542
						74:[lambda<-3.91596818] yes=119,no=120,missing=119
							119:[ecf3<1.98507547] yes=185,no=186,missing=186
								185:leaf=-0
								186:leaf=-0.0370975025
							120:leaf=0.0381654389
					40:[pfiso<0.220149636] yes=75,no=76,missing=75
						75:[ecf1<43.7636757] yes=121,no=122,missing=121
							121:leaf=0.0934831351
							122:[pfiso<0.138828501] yes=187,no=188,missing=187
								187:leaf=0.122090533
								188:[ecf3<261.938263] yes=275,no=276,missing=275
									275:leaf=0.119610511
									276:[lambda<-6.63684654] yes=385,no=386,missing=385
										385:leaf=-0
										386:leaf=0.0753581077
						76:[ecf3<136.829193] yes=123,no=124,missing=123
							123:[pt<421.70163] yes=189,no=190,missing=189
								189:[ecf3<13.8245325] yes=277,no=278,missing=277
									277:[pt<40.7310524] yes=387,no=388,missing=387
										387:[pfiso<0.292613178] yes=531,no=532,missing=531
											531:leaf=0.108327523
											532:[spreaddr<4.76528367e-05] yes=681,no=682,missing=681
												681:leaf=0.0391466804
												682:leaf=0.0855815336
										388:[lambda<-4.28538036] yes=533,no=534,missing=533
											533:[pt<315.310974] yes=683,no=684,missing=683
												683:leaf=0.120104097
												684:[pfiso<0.312671691] yes=825,no=826,missing=825
													825:leaf=0.0802610964
													826:leaf=-0
											534:[ecf2<18.1185951] yes=685,no=686,missing=686
												685:leaf=-0
												686:leaf=0.112124771
									278:[pt<45.7419395] yes=389,no=390,missing=389
										389:leaf=-0
										390:[epsilon<0.00195739348] yes=535,no=536,missing=535
											535:[pfiso<0.292613178] yes=687,no=688,missing=687
												687:[pfiso<0.244610578] yes=827,no=828,missing=827
													827:leaf=0.0692923591
													828:leaf=0.106950589
												688:[pt<177.078415] yes=829,no=830,missing=829
													829:leaf=-0
													830:leaf=0.0515265726
											536:[pt<61.184761] yes=689,no=690,missing=689
												689:[epsilon<0.00741849514] yes=831,no=832,missing=831
													831:leaf=0.0338095613
													832:leaf=0.0947347209
												690:[mind0<0.00193921768] yes=833,no=834,missing=834
													833:leaf=0.02940768
													834:leaf=0.114185199
								190:leaf=-0.00502195908
							124:[epsilon<0.00139278686] yes=191,no=192,missing=191
								191:leaf=-0.0893561542
								192:[pt<172.634018] yes=279,no=280,missing=279
									279:[spreaddr<0.000626655528] yes=391,no=392,missing=391
										391:leaf=-0.00680012628
										392:leaf=-0
									280:[pt<315.310974] yes=393,no=394,missing=393
										393:leaf=0.0965195373
										394:leaf=-0
				20:[pfiso<0.072405681] yes=41,no=42,missing=41
					41:leaf=0.0994823873
					42:leaf=-0.0875415877
			10:[pfiso<0.191962227] yes=21,no=22,missing=21
				21:[ecf2<2803.02515] yes=43,no=44,missing=43
					43:leaf=0.112841055
					44:[epsilon<0.000370042224] yes=77,no=78,missing=77
						77:leaf=-0.0502329245
						78:leaf=-0
				22:[spreaddr<0.000729397172] yes=45,no=46,missing=45
					45:[spreaddr<0.000160734751] yes=79,no=80,missing=79
						79:leaf=-0.115918517
						80:[ecf3<1689.10596] yes=125,no=126,missing=125
							125:leaf=-0
							126:leaf=-0.0691730455
					46:leaf=0.0381654389
	2:[ecf3<5.86951971] yes=5,no=6,missing=5
		5:[pt<28.7320385] yes=11,no=12,missing=12
			11:[ecf2<11.5972719] yes=23,no=24,missing=23
				23:[epsilon<0.0116714565] yes=47,no=48,missing=47
					47:[lambda<-4.95202875] yes=81,no=82,missing=81
						81:leaf=0.0709225014
						82:[lambda<-4.75522327] yes=127,no=128,missing=127
							127:[ecf2<5.97479916] yes=193,no=194,missing=193
								193:leaf=-0
								194:leaf=-0.0502329245
							128:[spreaddr<0.000127899839] yes=195,no=196,missing=195
								195:[epsilon<0.00952276308] yes=281,no=282,missing=281
									281:leaf=-0.00398097374
									282:leaf=0.0381654389
								196:leaf=0.0709225014
					48:[epsilon<0.0197313968] yes=83,no=84,missing=83
						83:[epsilon<0.0128804548] yes=129,no=130,missing=129
							129:[spreaddr<8.1792532e-05] yes=197,no=198,missing=197
								197:leaf=-0
								198:leaf=-0.0691730455
							130:[spreaddr<4.49581057e-05] yes=199,no=200,missing=199
								199:[pfiso<0.808095694] yes=283,no=284,missing=283
									283:leaf=0.0502329245
									284:leaf=-0
								200:[spreaddr<0.000127899839] yes=285,no=286,missing=285
									285:[epsilon<0.0139601221] yes=395,no=396,missing=395
										395:leaf=0.00680012628
										396:leaf=-0.0947347209
									286:[ecf1<21.7877445] yes=397,no=398,missing=397
										397:[ecf3<0.14360337] yes=537,no=538,missing=537
											537:leaf=0.0691730455
											538:leaf=-0
										398:[lambda<-4.18844604] yes=539,no=540,missing=539
											539:leaf=-0
											540:leaf=-0.0502329245
						84:[spreaddr<0.000245555886] yes=131,no=132,missing=131
							131:[lambda<-3.60815787] yes=201,no=202,missing=201
								201:[pt<21.9886169] yes=287,no=288,missing=287
									287:leaf=-0
									288:[pt<25.5527115] yes=399,no=400,missing=399
										399:leaf=-0.0691730455
										400:leaf=-0
								202:[spreaddr<7.75523295e-05] yes=289,no=290,missing=289
									289:leaf=-0
									290:leaf=0.00680012628
							132:leaf=-0.0974239111
				24:[pfiso<0.386754662] yes=49,no=50,missing=49
					49:leaf=0.0243584868
					50:[ecf2<16.3641701] yes=85,no=86,missing=85
						85:[pfiso<0.74302274] yes=133,no=134,missing=133
							133:[lambda<-4.18844604] yes=203,no=204,missing=203
								203:[ecf3<0.722564042] yes=291,no=292,missing=291
									291:leaf=-0.0548343882
									292:[epsilon<0.0104301712] yes=401,no=402,missing=401
										401:[spreaddr<0.00035099432] yes=541,no=542,missing=541
											541:leaf=-0.00680012628
											542:leaf=-0
										402:[ecf3<1.12611127] yes=543,no=544,missing=543
											543:leaf=0.0611273833
											544:leaf=-0
								204:[epsilon<0.0260939244] yes=293,no=294,missing=293
									293:leaf=-0.0855815336
									294:[spreaddr<0.000955456577] yes=403,no=404,missing=403
										403:leaf=-0
										404:leaf=-0.061204318
							134:[pfiso<0.860607445] yes=205,no=206,missing=205
								205:leaf=-0.102953225
								206:leaf=-0.0363941863
						86:[epsilon<0.150629133] yes=135,no=136,missing=135
							135:[epsilon<0.00604042923] yes=207,no=208,missing=207
								207:[ecf3<3.75236297] yes=295,no=296,missing=295
									295:[pfiso<0.752383649] yes=405,no=406,missing=405
										405:leaf=-0.0370975025
										406:leaf=0.0469913818
									296:leaf=-0.0802610964
								208:[ecf3<0.593553543] yes=297,no=298,missing=297
									297:[pfiso<0.670136154] yes=407,no=408,missing=407
										407:leaf=-0.00680012628
										408:leaf=-0
									298:[ecf1<27.8243027] yes=409,no=410,missing=409
										409:[spreaddr<0.00075496675] yes=545,no=546,missing=545
											545:[ecf3<2.99029636] yes=691,no=692,missing=691
												691:leaf=-0.100914218
												692:[epsilon<0.0177617855] yes=835,no=836,missing=835
													835:leaf=-0.0651645511
													836:leaf=-0
											546:[spreaddr<0.00416398607] yes=693,no=694,missing=693
												693:[pfiso<0.868375301] yes=837,no=838,missing=837
													837:leaf=-0.114605896
													838:leaf=-0.0912308767
												694:[lambda<-4.28538036] yes=839,no=840,missing=839
													839:leaf=-0.115442179
													840:leaf=-0.0837004781
										410:[epsilon<0.0126192719] yes=547,no=548,missing=547
											547:leaf=-0.0924333483
											548:[pfiso<0.731270373] yes=695,no=696,missing=695
												695:[lambda<-3.91596818] yes=841,no=842,missing=841
													841:leaf=0.0242273379
													842:leaf=-0
												696:leaf=-0.0691730455
							136:leaf=-0
			12:[spreaddr<5.48858698e-05] yes=25,no=26,missing=26
				25:[pfiso<0.509177268] yes=51,no=52,missing=51
					51:[lambda<-4.0522933] yes=87,no=88,missing=87
						87:[ecf2<146.844009] yes=137,no=138,missing=137
							137:[pt<44.2706375] yes=209,no=210,missing=209
								209:[pfiso<0.457808673] yes=299,no=300,missing=299
									299:[epsilon<0.00521891937] yes=411,no=412,missing=411
										411:[pfiso<0.39977634] yes=549,no=550,missing=549
											549:leaf=0.0370975025
											550:leaf=-0
										412:[lambda<-4.95202875] yes=551,no=552,missing=551
											551:[pt<40.7310524] yes=697,no=698,missing=697
												697:leaf=0.0691730455
												698:leaf=-0
											552:leaf=0.111500844
									300:[pfiso<0.488786727] yes=413,no=414,missing=413
										413:[pt<38.6813393] yes=553,no=554,missing=553
											553:leaf=-0.00680012628
											554:leaf=-0
										414:leaf=0.0502329245
								210:[spreaddr<3.85918502e-05] yes=301,no=302,missing=301
									301:[pt<94.3652878] yes=415,no=416,missing=415
										415:leaf=0.117909841
										416:[lambda<-5.07498693] yes=555,no=556,missing=555
											555:[spreaddr<3.81117218e-07] yes=699,no=700,missing=699
												699:[pfiso<0.366494268] yes=843,no=844,missing=843
													843:leaf=-0
													844:leaf=0.061204318
												700:leaf=0.108042374
											556:[pt<116.009163] yes=701,no=702,missing=701
												701:leaf=-0
												702:leaf=0.0502329245
									302:[ecf3<0.848377109] yes=417,no=418,missing=418
										417:leaf=-0
										418:[lambda<-5.07498693] yes=557,no=558,missing=557
											557:leaf=0.0494870543
											558:leaf=0.0965195373
							138:leaf=-0
						88:leaf=-0
					52:[pfiso<0.893828511] yes=89,no=90,missing=89
						89:[pt<225.581802] yes=139,no=140,missing=139
							139:[pfiso<0.74645251] yes=211,no=212,missing=211
								211:[spreaddr<1.04131332e-05] yes=303,no=304,missing=303
									303:[ecf2<69.893364] yes=419,no=420,missing=419
										419:[pfiso<0.606531799] yes=559,no=560,missing=559
											559:[lambda<-5.49973488] yes=703,no=704,missing=703
												703:[ecf3<0.911894262] yes=845,no=846,missing=846
													845:leaf=0.00502195908
													846:leaf=0.114078023
												704:[pfiso<0.54174757] yes=847,no=848,missing=847
													847:leaf=0.0802610964
													848:leaf=0.0127347177
											560:[pfiso<0.638881385] yes=705,no=706,missing=705
												705:[epsilon<0.00454316288] yes=849,no=850,missing=849
													849:leaf=-0
													850:leaf=0.0502329245
												706:[pfiso<0.69546032] yes=851,no=852,missing=851
													851:leaf=0.064316377
													852:leaf=0.091256626
										420:[pt<161.176514] yes=561,no=562,missing=561
											561:leaf=-0
											562:leaf=0.0612392351
									304:[ecf3<0.911894262] yes=421,no=422,missing=422
										421:[ecf3<0.722564042] yes=563,no=564,missing=563
											563:[ecf2<12.5633945] yes=707,no=708,missing=707
												707:leaf=-0.00398097374
												708:leaf=0.0387638994
											564:leaf=-0.0370975025
										422:[pt<40.7310524] yes=565,no=566,missing=565
											565:leaf=0.0965195373
											566:[pt<79.2031937] yes=709,no=710,missing=709
												709:[ecf3<1.27001035] yes=853,no=854,missing=854
													853:leaf=0.0691730455
													854:leaf=-0
												710:[ecf3<3.17050767] yes=855,no=856,missing=855
													855:leaf=0.078557305
													856:leaf=0.0287759956
								212:[ecf2<32.5861053] yes=305,no=306,missing=306
									305:[pfiso<0.846107721] yes=423,no=424,missing=423
										423:[pt<40.7310524] yes=567,no=568,missing=567
											567:leaf=-0
											568:[pfiso<0.791883707] yes=711,no=712,missing=711
												711:[lambda<-5.40725517] yes=857,no=858,missing=857
													857:leaf=0.0903184265
													858:leaf=-0
												712:leaf=0.0949900523
										424:[spreaddr<1.37024545e-05] yes=569,no=570,missing=569
											569:leaf=-0.0242273379
											570:[pt<42.9633789] yes=713,no=714,missing=713
												713:leaf=0.0611273833
												714:leaf=-0
									306:[ecf3<2.70107818] yes=425,no=426,missing=426
										425:leaf=-0.0808420405
										426:[pfiso<0.830012739] yes=571,no=572,missing=571
											571:[pt<53.356678] yes=715,no=716,missing=715
												715:leaf=-0.0502329245
												716:[lambda<-5.57622623] yes=859,no=860,missing=859
													859:leaf=-0.0127347177
													860:leaf=0.0277437493
											572:[pt<56.8431511] yes=717,no=718,missing=717
												717:leaf=0.0611273833
												718:leaf=-0
							140:[ecf2<84.1725922] yes=213,no=214,missing=213
								213:leaf=-0
								214:leaf=-0.0753581077
						90:leaf=-0.0842431933
				26:[pfiso<0.713623285] yes=53,no=54,missing=53
					53:[tkiso<0.916597128] yes=91,no=92,missing=92
						91:[lambda<-2.35975528] yes=141,no=142,missing=141
							141:[mind0<-0.0597046614] yes=215,no=216,missing=216
								215:[pt<39.315815] yes=307,no=308,missing=307
									307:leaf=-0.0691730455
									308:leaf=-0
								216:leaf=-0.116027936
							142:leaf=-0
						92:[pfiso<0.484375268] yes=143,no=144,missing=144
							143:[pt<39.315815] yes=217,no=218,missing=217
								217:[ecf3<3.39701271] yes=309,no=310,missing=309
									309:[lambda<-5.19348717] yes=427,no=428,missing=427
										427:leaf=-0
										428:[epsilon<0.0102202864] yes=573,no=574,missing=573
											573:[lambda<-4.7895422] yes=719,no=720,missing=719
												719:leaf=0.077986978
												720:leaf=-0
											574:leaf=0.0800761133
									310:[pt<33.1662292] yes=429,no=430,missing=429
										429:leaf=-0.02940768
										430:[ecf2<34.7124901] yes=575,no=576,missing=575
											575:leaf=0.0242273379
											576:leaf=-0
								218:[ecf2<43.284729] yes=311,no=312,missing=312
									311:[ecf3<-9.99999975e-06] yes=431,no=432,missing=431
										431:[spreaddr<0.000104352199] yes=577,no=578,missing=577
											577:leaf=0.0502329245
											578:leaf=-0.0242273379
										432:[ecf3<2.15098453] yes=579,no=580,missing=579
											579:leaf=0.0991258621
											580:[pt<41.5228729] yes=721,no=722,missing=721
												721:leaf=-0
												722:leaf=0.0690323487
									312:[spreaddr<6.89937224e-05] yes=433,no=434,missing=433
										433:leaf=0.00502195908
										434:leaf=0.109557256
							144:[ecf3<3.75236297] yes=219,no=220,missing=219
								219:[pt<44.2706375] yes=313,no=314,missing=313
									313:[ecf3<0.911894262] yes=435,no=436,missing=435
										435:[pt<36.4687347] yes=581,no=582,missing=582
											581:[ecf3<0.453516781] yes=723,no=724,missing=723
												723:[ecf2<12.5633945] yes=861,no=862,missing=862
													861:leaf=-0
													862:leaf=0.102850474
												724:[spreaddr<0.000147129176] yes=863,no=864,missing=863
													863:leaf=0.00680012628
													864:leaf=-0.015126559
											582:[pt<37.8810959] yes=725,no=726,missing=726
												725:leaf=-0.0691730455
												726:[ecf3<0.722564042] yes=865,no=866,missing=865
													865:leaf=-0.00028307605
													866:leaf=0.0691730455
										436:[spreaddr<0.00129024545] yes=583,no=584,missing=583
											583:[ecf3<2.15098453] yes=727,no=728,missing=727
												727:[ecf2<29.8663025] yes=867,no=868,missing=867
													867:leaf=-0.0857321545
													868:leaf=-0
												728:[ecf2<36.5650101] yes=869,no=870,missing=869
													869:leaf=-0.000922249921
													870:leaf=-0.0802610964
											584:[pt<34.4788666] yes=729,no=730,missing=729
												729:[lambda<-3.98689747] yes=871,no=872,missing=871
													871:leaf=0.0127347177
													872:leaf=-0.0242273379
												730:leaf=0.0875415877
									314:[ecf3<2.31623006] yes=437,no=438,missing=438
										437:[epsilon<0.00717926817] yes=585,no=586,missing=585
											585:leaf=0.0961128101
											586:[epsilon<0.00847203843] yes=731,no=732,missing=731
												731:leaf=-0
												732:leaf=0.061204318
										438:[pfiso<0.509177268] yes=587,no=588,missing=587
											587:leaf=0.0548343882
											588:[ecf3<2.88177347] yes=733,no=734,missing=733
												733:[ecf2<25.6662788] yes=873,no=874,missing=873
													873:leaf=0.00329745468
													874:leaf=-0.0343938619
												734:[ecf3<3.07781792] yes=875,no=876,missing=875
													875:leaf=0.0469913818
													876:leaf=-0
								220:[ecf2<52.8929405] yes=315,no=316,missing=315
									315:[lambda<-5.59016657] yes=439,no=440,missing=439
										439:leaf=0.00398097374
										440:[lambda<-4.85326433] yes=589,no=590,missing=589
											589:[pfiso<0.599583864] yes=735,no=736,missing=735
												735:leaf=-0.0186246485
												736:leaf=-0.0980899408
											590:[pfiso<0.524248898] yes=737,no=738,missing=737
												737:leaf=-0
												738:[epsilon<0.0110456469] yes=877,no=878,missing=877
													877:leaf=-0
													878:leaf=-0.0628447458
									316:[spreaddr<0.00144547597] yes=441,no=442,missing=441
										441:[ecf3<4.70753813] yes=591,no=592,missing=591
											591:leaf=-0
											592:leaf=-0.0242273379
										442:leaf=0.0664805472
					54:[pfiso<0.893828511] yes=93,no=94,missing=93
						93:[ecf2<22.8458729] yes=145,no=146,missing=146
							145:[ecf2<20.7337894] yes=221,no=222,missing=221
								221:[pt<31.1576233] yes=317,no=318,missing=317
									317:[epsilon<0.00803404301] yes=443,no=444,missing=443
										443:leaf=0.0502329245
										444:leaf=-0
									318:[spreaddr<0.000141030381] yes=445,no=446,missing=445
										445:[spreaddr<8.1792532e-05] yes=593,no=594,missing=593
											593:[spreaddr<6.33290474e-05] yes=739,no=740,missing=739
												739:leaf=-0.00680012628
												740:leaf=0.00680012628
											594:leaf=-0.0664805472
										446:[pt<34.4788666] yes=595,no=596,missing=595
											595:leaf=-0.0186246485
											596:leaf=0.0242273379
								222:leaf=0.0381654389
							146:[spreaddr<0.000121675381] yes=223,no=224,missing=223
								223:[ecf2<35.8654022] yes=319,no=320,missing=319
									319:[pt<42.9633789] yes=447,no=448,missing=447
										447:leaf=-0
										448:leaf=0.0469913818
									320:[pfiso<0.780252516] yes=449,no=450,missing=449
										449:[pfiso<0.74302274] yes=597,no=598,missing=597
											597:leaf=-0.00680012628
											598:leaf=0.0242273379
										450:[ecf2<37.9090691] yes=599,no=600,missing=599
											599:leaf=-0
											600:leaf=-0.0802610964
								224:[pfiso<0.739943802] yes=321,no=322,missing=321
									321:[epsilon<0.0066607194] yes=451,no=452,missing=451
										451:leaf=-0.0747135356
										452:[pt<38.6813393] yes=601,no=602,missing=601
											601:[spreaddr<0.0018981836] yes=741,no=742,missing=741
												741:[spreaddr<0.000729397172] yes=879,no=880,missing=879
													879:leaf=-0.00329745468
													880:leaf=-0.0842431933
												742:leaf=-0
											602:[pt<42.9633789] yes=743,no=744,missing=743
												743:leaf=0.0753581077
												744:[spreaddr<0.000308521179] yes=881,no=882,missing=881
													881:leaf=-0
													882:leaf=-0.0242273379
									322:[ecf3<3.75236297] yes=453,no=454,missing=454
										453:[ecf2<37.2092438] yes=603,no=604,missing=603
											603:[ecf1<34.5932503] yes=745,no=746,missing=745
												745:[pfiso<0.787804484] yes=883,no=884,missing=883
													883:leaf=-0.0321306475
													884:leaf=-0.0965195373
												746:[ecf2<25.6662788] yes=885,no=886,missing=885
													885:leaf=-0
													886:leaf=-0.0509430319
											604:[ecf2<46.6511002] yes=747,no=748,missing=747
												747:[ecf2<42.5805779] yes=887,no=888,missing=887
													887:leaf=-0
													888:leaf=0.0502329245
												748:leaf=-0.0370975025
										454:[ecf2<30.486702] yes=605,no=606,missing=606
											605:leaf=-0
											606:[ecf3<5.68943119] yes=749,no=750,missing=749
												749:leaf=-0.0917210802
												750:leaf=-0
						94:[ecf2<22.8458729] yes=147,no=148,missing=148
							147:[pfiso<0.935452104] yes=225,no=226,missing=225
								225:leaf=-0
								226:leaf=-0.0502329245
							148:leaf=-0.106780738
		6:[ecf3<38.4596672] yes=13,no=14,missing=13
			13:[pfiso<0.493873239] yes=27,no=28,missing=27
				27:[tkiso<0.943608105] yes=55,no=56,missing=55
					55:[spreaddr<0.0055642128] yes=95,no=96,missing=95
						95:leaf=-0.120069198
						96:leaf=-0
					56:[pt<34.4788666] yes=97,no=98,missing=97
						97:[pt<24.6044273] yes=149,no=150,missing=149
							149:leaf=-0.0926883593
							150:[ecf3<20.5136948] yes=227,no=228,missing=227
								227:[ecf2<49.642849] yes=323,no=324,missing=323
									323:[ecf2<45.5083427] yes=455,no=456,missing=455
										455:leaf=-0
										456:leaf=-0.0802610964
									324:[ecf3<14.4810753] yes=457,no=458,missing=457
										457:leaf=0.00680012628
										458:leaf=-0
								228:leaf=-0.0753581077
						98:[pfiso<0.445655406] yes=151,no=152,missing=151
							151:[epsilon<0.0183436349] yes=229,no=230,missing=229
								229:[ecf3<9.94829273] yes=325,no=326,missing=325
									325:[spreaddr<8.98209546e-05] yes=459,no=460,missing=459
										459:[lambda<-5.89371061] yes=607,no=608,missing=607
											607:leaf=0.104600169
											608:[pfiso<0.366494268] yes=751,no=752,missing=751
												751:leaf=0.061204318
												752:leaf=-0
										460:leaf=0.112990029
									326:[pfiso<0.407172948] yes=461,no=462,missing=461
										461:[ecf2<355.619507] yes=609,no=610,missing=609
											609:[ecf3<17.522995] yes=753,no=754,missing=753
												753:[spreaddr<0.000511423859] yes=889,no=890,missing=889
													889:leaf=0.0560439043
													890:leaf=0.0924333483
												754:[spreaddr<0.00299300626] yes=891,no=892,missing=891
													891:leaf=0.102381662
													892:leaf=-0
											610:leaf=-0
										462:[lambda<-5.44667625] yes=611,no=612,missing=611
											611:[pfiso<0.426882088] yes=755,no=756,missing=755
												755:[lambda<-5.86909294] yes=893,no=894,missing=893
													893:leaf=-0
													894:leaf=0.0612392351
												756:leaf=0.0980899408
											612:[spreaddr<0.00139265251] yes=757,no=758,missing=757
												757:[pfiso<0.42070502] yes=895,no=896,missing=895
													895:leaf=0.0242273379
													896:leaf=-0.0538824946
												758:leaf=0.0454195216
								230:[ecf2<101.371483] yes=327,no=328,missing=327
									327:[lambda<-3.87936687] yes=463,no=464,missing=463
										463:leaf=0.061204318
										464:leaf=-0
									328:leaf=-0.0469913818
							152:[ecf3<10.2061205] yes=231,no=232,missing=231
								231:[ecf2<123.03096] yes=329,no=330,missing=329
									329:[spreaddr<0.000400756719] yes=465,no=466,missing=465
										465:leaf=0.0808420405
										466:[pfiso<0.462764174] yes=613,no=614,missing=613
											613:leaf=-0
											614:leaf=0.0370975025
									330:leaf=-0
								232:[pt<50.837944] yes=331,no=332,missing=331
									331:[ecf2<68.046875] yes=467,no=468,missing=467
										467:leaf=-0
										468:leaf=-0.0811009631
									332:[pt<315.310974] yes=469,no=470,missing=469
										469:[epsilon<0.00256494177] yes=615,no=616,missing=615
											615:[pt<246.12233] yes=759,no=760,missing=759
												759:leaf=0.0855815336
												760:leaf=-0
											616:[spreaddr<0.000553432561] yes=761,no=762,missing=761
												761:[pt<70.7518997] yes=897,no=898,missing=897
													897:leaf=-0.0502329245
													898:leaf=-0
												762:leaf=0.02940768
										470:leaf=-0.0691730455
				28:[ecf1<50.272522] yes=57,no=58,missing=57
					57:[ecf1<35.2539253] yes=99,no=100,missing=99
						99:[ecf3<8.09892654] yes=153,no=154,missing=153
							153:[spreaddr<0.000471504492] yes=233,no=234,missing=233
								233:leaf=-0
								234:[ecf2<50.39711] yes=333,no=334,missing=333
									333:[epsilon<0.0384334587] yes=471,no=472,missing=471
										471:[pfiso<0.56628716] yes=617,no=618,missing=617
											617:[pt<24.6044273] yes=763,no=764,missing=763
												763:leaf=-0
												764:leaf=-0.0691730455
											618:[spreaddr<0.0017484721] yes=765,no=766,missing=765
												765:[pt<28.7320385] yes=899,no=900,missing=899
													899:leaf=-0.108383447
													900:leaf=-0.0805330575
												766:leaf=-0.116094798
										472:[spreaddr<0.0018981836] yes=619,no=620,missing=619
											619:leaf=-0
											620:leaf=-0.0937827379
									334:leaf=-0.00398097374
							154:[pfiso<0.72861594] yes=235,no=236,missing=235
								235:[ecf1<32.5601196] yes=335,no=336,missing=335
									335:leaf=-0.117041022
									336:[pfiso<0.722651064] yes=473,no=474,missing=473
										473:leaf=-0.106728725
										474:leaf=-0
								236:leaf=-0.120709315
						100:[pfiso<0.632486641] yes=155,no=156,missing=155
							155:[ecf2<51.2324409] yes=237,no=238,missing=237
								237:[pfiso<0.550591648] yes=337,no=338,missing=337
									337:leaf=-0.00680012628
									338:leaf=0.0242273379
								238:[tkiso<0.955939531] yes=339,no=340,missing=339
									339:leaf=-0.109315373
									340:[spreaddr<0.00607501762] yes=475,no=476,missing=475
										475:[ecf3<23.0117588] yes=621,no=622,missing=621
											621:[pt<43.6240807] yes=767,no=768,missing=767
												767:[pfiso<0.509177268] yes=901,no=902,missing=901
													901:leaf=-0
													902:leaf=-0.0921510682
												768:[spreaddr<0.00149849919] yes=903,no=904,missing=903
													903:leaf=-0.0577798225
													904:leaf=0.0096750455
											622:leaf=-0.102953225
										476:leaf=-0
							156:[ecf1<35.9100494] yes=239,no=240,missing=239
								239:[pfiso<0.705183387] yes=341,no=342,missing=341
									341:leaf=-0
									342:[spreaddr<0.00102787931] yes=477,no=478,missing=477
										477:leaf=-0
										478:leaf=-0.101842061
								240:[ecf3<9.68930149] yes=343,no=344,missing=343
									343:[ecf2<69.893364] yes=479,no=480,missing=479
										479:[pfiso<0.722651064] yes=623,no=624,missing=623
											623:[epsilon<0.0112252161] yes=769,no=770,missing=769
												769:[lambda<-5.07498693] yes=905,no=906,missing=905
													905:leaf=-0.0611273833
													906:leaf=-0
												770:leaf=-0.0971480235
											624:[spreaddr<0.00149849919] yes=771,no=772,missing=771
												771:leaf=-0.113501094
												772:leaf=-0.0454195216
										480:leaf=-0
									344:[ecf3<18.0021057] yes=481,no=482,missing=481
										481:[spreaddr<0.00119291095] yes=625,no=626,missing=625
											625:[spreaddr<0.000955456577] yes=773,no=774,missing=773
												773:[pt<37.1748085] yes=907,no=908,missing=907
													907:leaf=-0
													908:leaf=-0.111505434
												774:[ecf2<68.046875] yes=909,no=910,missing=909
													909:leaf=-0
													910:leaf=-0.0469913818
											626:leaf=-0.110692285
										482:[pfiso<0.935452104] yes=627,no=628,missing=627
											627:leaf=-0.118039571
											628:leaf=-0.0381654389
					58:[ecf3<19.1881542] yes=101,no=102,missing=101
						101:[tkiso<0.955939531] yes=157,no=158,missing=157
							157:leaf=-0.114586614
							158:[pfiso<0.830012739] yes=241,no=242,missing=241
								241:[pfiso<0.563184321] yes=345,no=346,missing=345
									345:[lambda<-5.55223989] yes=483,no=484,missing=483
										483:[ecf2<151.159363] yes=629,no=630,missing=629
											629:[pfiso<0.509177268] yes=775,no=776,missing=775
												775:leaf=-0
												776:leaf=0.0811009631
											630:leaf=-0
										484:[lambda<-4.61015511] yes=631,no=632,missing=631
											631:[spreaddr<0.000365796994] yes=777,no=778,missing=777
												777:leaf=-0.0567387193
												778:leaf=0.00398097374
											632:leaf=0.0691730455
									346:[ecf2<199.687347] yes=485,no=486,missing=485
										485:[pt<85.5273895] yes=633,no=634,missing=633
											633:[ecf3<17.522995] yes=779,no=780,missing=779
												779:[lambda<-3.98689747] yes=911,no=912,missing=911
													911:leaf=-0.0366060957
													912:leaf=0.015126559
												780:leaf=-0.0811009631
											634:[ecf2<112.380264] yes=781,no=782,missing=781
												781:[pfiso<0.808095694] yes=913,no=914,missing=913
													913:leaf=0.0440860763
													914:leaf=-0.00502195908
												782:[spreaddr<2.7457967e-05] yes=915,no=916,missing=915
													915:leaf=-0.0462102555
													916:leaf=0.00416768622
										486:leaf=-0.0965195373
								242:[ecf3<7.19298792] yes=347,no=348,missing=347
									347:leaf=-0
									348:[spreaddr<6.58948702e-05] yes=487,no=488,missing=487
										487:[pfiso<0.853392601] yes=635,no=636,missing=635
											635:leaf=-0
											636:leaf=-0.0753581077
										488:leaf=-0.108327523
						102:[pfiso<0.638881385] yes=159,no=160,missing=159
							159:[tkiso<0.903330922] yes=243,no=244,missing=243
								243:leaf=-0.114586614
								244:[pt<95.2619247] yes=349,no=350,missing=349
									349:[pfiso<0.554972887] yes=489,no=490,missing=489
										489:[lambda<-4.44251633] yes=637,no=638,missing=637
											637:[ecf3<28.2880344] yes=783,no=784,missing=783
												783:leaf=-0.00398097374
												784:leaf=0.0243584868
											638:[pt<59.5677414] yes=785,no=786,missing=785
												785:leaf=-0
												786:leaf=-0.0691730455
										490:[ecf2<105.988678] yes=639,no=640,missing=639
											639:leaf=-0
											640:[lambda<-6.1324687] yes=787,no=788,missing=787
												787:leaf=-0
												788:[pfiso<0.632486641] yes=917,no=918,missing=917
													917:leaf=-0.108634867
													918:leaf=-0.00502195908
									350:[pt<189.125214] yes=491,no=492,missing=491
										491:[pfiso<0.599583864] yes=641,no=642,missing=641
											641:[spreaddr<5.20621434e-05] yes=789,no=790,missing=789
												789:[ecf2<190.815186] yes=919,no=920,missing=919
													919:leaf=-0
													920:leaf=0.0242273379
												790:leaf=0.0926883593
											642:[ecf3<23.526062] yes=791,no=792,missing=791
												791:leaf=-0
												792:[ecf2<193.443573] yes=921,no=922,missing=921
													921:leaf=-0.0691730455
													922:leaf=-0
										492:[pt<290.122223] yes=643,no=644,missing=643
											643:[ecf3<30.9152431] yes=793,no=794,missing=793
												793:leaf=-0
												794:leaf=-0.0709225014
											644:leaf=-0.0903184265
							160:[ecf3<25.7812176] yes=245,no=246,missing=245
								245:[pfiso<0.739943802] yes=351,no=352,missing=351
									351:[pfiso<0.722651064] yes=493,no=494,missing=493
										493:[spreaddr<3.19277569e-05] yes=645,no=646,missing=645
											645:[spreaddr<2.63937018e-05] yes=795,no=796,missing=795
												795:[ecf2<153.738647] yes=923,no=924,missing=923
													923:leaf=-0
													924:leaf=-0.0753581077
												796:leaf=0.0502329245
											646:leaf=-0.092315957
										494:[lambda<-5.23673058] yes=647,no=648,missing=647
											647:leaf=0.00680012628
											648:leaf=-0
									352:[lambda<-5.02530289] yes=495,no=496,missing=495
										495:leaf=-0.113701835
										496:[spreaddr<0.000245555886] yes=649,no=650,missing=649
											649:leaf=-0
											650:[ecf3<23.526062] yes=797,no=798,missing=797
												797:leaf=-0.0875415877
												798:leaf=-0
								246:[lambda<-5.97439861] yes=353,no=354,missing=353
									353:leaf=-0.115038313
									354:[pt<94.3652878] yes=497,no=498,missing=497
										497:[pfiso<0.765538275] yes=651,no=652,missing=651
											651:leaf=-0.117462419
											652:[lambda<-5.67918634] yes=799,no=800,missing=799
												799:leaf=-0
												800:[epsilon<0.00833406765] yes=925,no=926,missing=925
													925:leaf=-0.108383447
													926:leaf=-0.0655663759
										498:[spreaddr<0.00017755873] yes=653,no=654,missing=653
											653:[ecf2<165.55484] yes=801,no=802,missing=801
												801:[ecf2<151.159363] yes=927,no=928,missing=927
													927:leaf=-0.0611273833
													928:leaf=-0
												802:leaf=-0.107866935
											654:[pfiso<0.72861594] yes=803,no=804,missing=803
												803:leaf=0.00680012628
												804:leaf=-0.0242273379
			14:[ecf3<143.042068] yes=29,no=30,missing=29
				29:[pfiso<0.499204963] yes=59,no=60,missing=59
					59:[tkiso<0.968772531] yes=103,no=104,missing=103
						103:leaf=-0.118659087
						104:[pfiso<0.43350634] yes=161,no=162,missing=161
							161:[pt<300.75531] yes=247,no=248,missing=247
								247:[pt<186.534134] yes=355,no=356,missing=355
									355:[ecf3<95.5916672] yes=499,no=500,missing=499
										499:[pt<55.0130005] yes=655,no=656,missing=655
											655:[lambda<-4.5558095] yes=805,no=806,missing=805
												805:leaf=-0.0611273833
												806:leaf=-0
											656:[lambda<-5.25390959] yes=807,no=808,missing=807
												807:[ecf3<54.625988] yes=929,no=930,missing=929
													929:leaf=0.0127347177
													930:leaf=-0.0217928607
												808:[epsilon<0.00803404301] yes=931,no=932,missing=931
													931:leaf=0.0965195373
													932:leaf=-0
										500:[pt<75.6826324] yes=657,no=658,missing=657
											657:leaf=-0
											658:leaf=-0.0833541229
									356:[spreaddr<3.50763876e-05] yes=501,no=502,missing=501
										501:[ecf3<59.3751259] yes=659,no=660,missing=659
											659:leaf=0.0502329245
											660:leaf=-0
										502:leaf=0.0842431933
								248:leaf=-0.0833541229
							162:[pt<128.409683] yes=249,no=250,missing=249
								249:[ecf2<193.443573] yes=357,no=358,missing=357
									357:[pt<69.9417343] yes=503,no=504,missing=503
										503:[pfiso<0.484375268] yes=661,no=662,missing=661
											661:[pt<45.7419395] yes=809,no=810,missing=809
												809:leaf=-0.0802610964
												810:[spreaddr<0.00155833655] yes=933,no=934,missing=933
													933:leaf=-0.0709225014
													934:leaf=-0
											662:leaf=-0
										504:leaf=-0
									358:leaf=-0.100493096
								250:[pt<276.99704] yes=359,no=360,missing=359
									359:[spreaddr<1.31467459e-05] yes=505,no=506,missing=505
										505:leaf=0.0611273833
										506:[lambda<-5.08973837] yes=663,no=664,missing=663
											663:[lambda<-5.86909294] yes=811,no=812,missing=811
												811:[ecf3<117.74115] yes=935,no=936,missing=935
													935:leaf=-0.0391466804
													936:leaf=-0
												812:[ecf2<406.457825] yes=937,no=938,missing=937
													937:leaf=0.0611273833
													938:leaf=-0
											664:leaf=-0.0611273833
									360:leaf=-0.0924333483
					60:[spreaddr<0.000729397172] yes=105,no=106,missing=105
						105:[ecf3<68.126976] yes=163,no=164,missing=163
							163:[pfiso<0.64494586] yes=251,no=252,missing=251
								251:[tkiso<0.88837862] yes=361,no=362,missing=361
									361:leaf=-0.110856451
									362:[pfiso<0.619428098] yes=507,no=508,missing=507
										507:[lambda<-6.31900167] yes=665,no=666,missing=665
											665:leaf=-0.0981055424
											666:[lambda<-6.14479923] yes=813,no=814,missing=813
												813:leaf=0.00502195908
												814:[lambda<-5.29365635] yes=939,no=940,missing=939
													939:leaf=-0.0989938006
													940:leaf=-0.045754943
										508:[pt<110.027885] yes=667,no=668,missing=667
											667:leaf=-0.0242273379
											668:[pt<142.069916] yes=815,no=816,missing=815
												815:leaf=0.0502329245
												816:leaf=-0.00680012628
								252:[epsilon<0.00332858763] yes=363,no=364,missing=363
									363:[spreaddr<9.93734557e-06] yes=509,no=510,missing=509
										509:leaf=-0.0515265726
										510:leaf=-0.118341796
									364:[epsilon<0.00341641996] yes=511,no=512,missing=511
										511:leaf=-0
										512:[pfiso<0.808095694] yes=669,no=670,missing=669
											669:[ecf3<49.8904495] yes=817,no=818,missing=817
												817:[pfiso<0.762551129] yes=941,no=942,missing=941
													941:leaf=-0.0942338035
													942:leaf=-0.00281425682
												818:[ecf3<64.2666931] yes=943,no=944,missing=943
													943:leaf=-0.109742858
													944:leaf=-0.0538824946
											670:leaf=-0.112078533
							164:[pfiso<0.641964614] yes=253,no=254,missing=253
								253:[spreaddr<0.000400756719] yes=365,no=366,missing=365
									365:[ecf3<79.9256134] yes=513,no=514,missing=513
										513:[ecf3<75.0405884] yes=671,no=672,missing=671
											671:leaf=-0.100725487
											672:[ecf2<332.129883] yes=819,no=820,missing=819
												819:leaf=-0
												820:leaf=-0.0802610964
										514:leaf=-0.118044108
									366:[spreaddr<0.000451926666] yes=515,no=516,missing=515
										515:leaf=-0
										516:leaf=-0.101310767
								254:leaf=-0.119515426
						106:[pfiso<0.660449684] yes=165,no=166,missing=165
							165:[pt<57.6983604] yes=255,no=256,missing=255
								255:leaf=-0.118385963
								256:[ecf2<176.488708] yes=367,no=368,missing=367
									367:[ecf3<64.2666931] yes=517,no=518,missing=517
										517:[lambda<-4.18844604] yes=673,no=674,missing=673
											673:leaf=-0.0937681422
											674:leaf=-0
										518:leaf=-0
									368:[pfiso<0.64494586] yes=519,no=520,missing=519
										519:leaf=-0.117360562
										520:[pfiso<0.65424037] yes=675,no=676,missing=675
											675:leaf=-0
											676:leaf=-0.0691730455
							166:leaf=-0.121282414
				30:[pfiso<0.39370513] yes=61,no=62,missing=61
					61:[ecf2<498.583984] yes=107,no=108,missing=107
						107:[pfiso<0.345256329] yes=167,no=168,missing=167
							167:leaf=-0
							168:[pt<122.143417] yes=257,no=258,missing=257
								257:[pt<96.1759109] yes=369,no=370,missing=369
									369:leaf=-0.0548343882
									370:leaf=0.00680012628
								258:leaf=-0.0802610964
						108:[tkiso<0.977393806] yes=169,no=170,missing=169
							169:leaf=-0.121057749
							170:[lambda<-6.44739771] yes=259,no=260,missing=259
								259:leaf=-0.118151046
								260:[spreaddr<0.000702925958] yes=371,no=372,missing=371
									371:[pt<304.001892] yes=521,no=522,missing=521
										521:leaf=-0.0321306475
										522:leaf=-0.0989938006
									372:leaf=-0
					62:leaf=-0.121484518
booster[1]:
0:[pfiso<0.345256329] yes=1,no=2,missing=2
	1:[tkiso<0.984241366] yes=3,no=4,missing=4
		3:[spreadpt<0.797503889] yes=7,no=8,missing=7
			7:[ecf1<59.6775169] yes=15,no=16,missing=15
				15:[maxd0<0.0214125775] yes=31,no=32,missing=31
					31:[pfiso<0.312671691] yes=61,no=62,missing=61
						61:leaf=-0.101507872
						62:[pfiso<0.318761766] yes=111,no=112,missing=112
							111:leaf=-0
							112:leaf=-0.046587497
					32:[maxd0<0.688396096] yes=63,no=64,missing=63
						63:[tkiso<0.247598246] yes=113,no=114,missing=113
							113:leaf=0.0944112316
							114:leaf=-0
						64:leaf=-0.0489426628
				16:[spreadpt<0.7037642] yes=33,no=34,missing=33
					33:[pt<70.7518997] yes=65,no=66,missing=65
						65:[ecf2<190.815186] yes=115,no=116,missing=115
							115:leaf=-0.0957641453
							116:leaf=-0
						66:leaf=-0.114302061
					34:[maxd0<0.00253467704] yes=67,no=68,missing=67
						67:leaf=-0.110170908
						68:[maxd0<0.386552453] yes=117,no=118,missing=117
							117:[pt<130.82901] yes=177,no=178,missing=177
								177:[ecf2<176.488708] yes=253,no=254,missing=253
									253:[maxd0<0.0175094157] yes=355,no=356,missing=355
										355:[pfiso<0.112960421] yes=485,no=486,missing=485
											485:leaf=0.0487569273
											486:[lambda<-5.7293787] yes=621,no=622,missing=621
												621:leaf=-0.0460257567
												622:leaf=-0
										356:[tkiso<0.0874026045] yes=487,no=488,missing=488
											487:leaf=-0
											488:leaf=-0.0889592692
									254:[maxd0<0.0202034395] yes=357,no=358,missing=357
										357:[pt<98.8304138] yes=489,no=490,missing=489
											489:leaf=-0
											490:leaf=-0.0580262244
										358:[lambda<-5.6908946] yes=491,no=492,missing=491
											491:[ecf2<237.929062] yes=623,no=624,missing=623
												623:leaf=-0
												624:leaf=0.0691957101
											492:leaf=0.0853519663
								178:[ecf2<512.858337] yes=255,no=256,missing=255
									255:leaf=-0.107419536
									256:[pfiso<0.133133233] yes=359,no=360,missing=359
										359:[maxd0<0.071548976] yes=493,no=494,missing=493
											493:[pt<340.885986] yes=625,no=626,missing=626
												625:leaf=0.0554305874
												626:leaf=-0
											494:leaf=-0.0754041523
										360:leaf=-0.0912851766
							118:[pt<90.6830978] yes=179,no=180,missing=179
								179:[maxd0<1.63562119] yes=257,no=258,missing=258
									257:leaf=-0
									258:leaf=-0.0965908766
								180:leaf=-0.110258833
			8:[ecf2<447.870697] yes=17,no=18,missing=18
				17:[tkiso<0.832031667] yes=35,no=36,missing=35
					35:[maxd0<0.0202034395] yes=69,no=70,missing=69
						69:[pfiso<0.19544965] yes=119,no=120,missing=120
							119:[mind0<-0.69133389] yes=181,no=182,missing=181
								181:leaf=-0.0922351778
								182:[mind0<-0.0238785259] yes=259,no=260,missing=259
									259:[lambda<-6.46182489] yes=361,no=362,missing=361
										361:[spreadpt<0.900345981] yes=495,no=496,missing=495
											495:leaf=-0.00256196782
											496:leaf=0.024675129
										362:leaf=0.0750464052
									260:[ecf2<70.8585815] yes=363,no=364,missing=364
										363:leaf=0.00621478679
										364:[lambda<-6.79845619] yes=497,no=498,missing=497
											497:leaf=-0
											498:leaf=-0.0758037567
							120:leaf=-0.0956032127
						70:[pt<184.053909] yes=121,no=122,missing=121
							121:[tkiso<0.219305053] yes=183,no=184,missing=183
								183:[maxd0<0.789804518] yes=261,no=262,missing=261
									261:[pt<144.429611] yes=365,no=366,missing=365
										365:leaf=0.0945986658
										366:leaf=-0
									262:leaf=-0
								184:leaf=-0.0120937834
							122:[spreadpt<0.924896896] yes=185,no=186,missing=185
								185:leaf=-0.0897742957
								186:[ecf2<202.584122] yes=263,no=264,missing=263
									263:leaf=-0.00262517529
									264:leaf=0.0482108593
					36:leaf=0.0871158764
				18:[maxd0<0.137772992] yes=37,no=38,missing=38
					37:[maxd0<0.0156037118] yes=71,no=72,missing=71
						71:[pfiso<0.0354588591] yes=123,no=124,missing=124
							123:leaf=-0
							124:[lambda<-6.56760025] yes=187,no=188,missing=187
								187:leaf=-0.098605305
								188:[pt<161.176514] yes=265,no=266,missing=266
									265:leaf=-0.074642539
									266:leaf=-0
						72:[epsilon<0.000901516061] yes=125,no=126,missing=126
							125:leaf=-0.0552155785
							126:[mind0<-0.267563969] yes=189,no=190,missing=189
								189:leaf=-0.00345996302
								190:leaf=0.0766298547
					38:leaf=-0.106558487
		4:[ecf2<1863.38342] yes=9,no=10,missing=9
			9:[pfiso<0.292613178] yes=19,no=20,missing=19
				19:[ecf1<614.355103] yes=39,no=40,missing=39
					39:[pt<33.1662292] yes=73,no=74,missing=74
						73:[epsilon<0.0123575749] yes=127,no=128,missing=128
							127:leaf=0.0544896908
							128:[lambda<-3.91596818] yes=191,no=192,missing=191
								191:leaf=-0.0359141827
								192:leaf=0.0272337496
						74:[spreadpt<0.52984643] yes=129,no=130,missing=130
							129:leaf=-0
							130:[ecf2<846.929138] yes=193,no=194,missing=193
								193:[pfiso<0.138828501] yes=267,no=268,missing=268
									267:leaf=0.114984781
									268:[ecf2<578.260864] yes=367,no=368,missing=367
										367:[spreadpt<0.578406096] yes=499,no=500,missing=500
											499:leaf=0.01260476
											500:[ecf2<133.940659] yes=627,no=628,missing=627
												627:leaf=0.11278449
												628:[pfiso<0.215079725] yes=727,no=728,missing=727
													727:leaf=0.110547595
													728:leaf=0.0979729667
										368:[pt<344.519012] yes=501,no=502,missing=501
											501:leaf=0.095214434
											502:[pt<406.545654] yes=629,no=630,missing=629
												629:leaf=-0.00647628261
												630:leaf=0.0451581925
								194:[pfiso<0.19960168] yes=269,no=270,missing=269
									269:[pfiso<0.170495227] yes=369,no=370,missing=370
										369:leaf=0.112854786
										370:[lambda<-6.63684654] yes=503,no=504,missing=504
											503:leaf=-0
											504:leaf=0.0450239666
									270:[lambda<-6.04038715] yes=371,no=372,missing=372
										371:leaf=-0.0874746889
										372:leaf=0.0479716584
					40:[pfiso<0.072405681] yes=75,no=76,missing=75
						75:leaf=0.106457099
						76:leaf=-0.0799886882
				20:[ecf2<527.243164] yes=41,no=42,missing=41
					41:[spreadpt<0.594791532] yes=77,no=78,missing=77
						77:[lambda<-5.47381783] yes=131,no=132,missing=131
							131:leaf=-0.0531411655
							132:leaf=-0
						78:[ecf2<181.797272] yes=133,no=134,missing=133
							133:[pt<35.758316] yes=195,no=196,missing=196
								195:[lambda<-4.44251633] yes=271,no=272,missing=272
									271:[pfiso<0.312671691] yes=373,no=374,missing=373
										373:leaf=-0
										374:leaf=0.0962455645
									272:[pfiso<0.332138807] yes=375,no=376,missing=375
										375:leaf=0.00363555946
										376:leaf=-0.00487064011
								196:[pt<50.1621704] yes=273,no=274,missing=273
									273:[maxd0<-0.145611838] yes=377,no=378,missing=378
										377:leaf=-0
										378:[spreadpt<0.904110909] yes=505,no=506,missing=505
											505:[pt<47.9616356] yes=631,no=632,missing=631
												631:[pt<39.9886398] yes=729,no=730,missing=729
													729:leaf=0.0884481147
													730:leaf=0.0531735234
												632:leaf=-0
											506:leaf=0.105315544
									274:[pt<225.581802] yes=379,no=380,missing=379
										379:[ecf2<142.512955] yes=507,no=508,missing=507
											507:leaf=0.111211203
											508:leaf=0.0783950984
										380:[lambda<-6.67610216] yes=509,no=510,missing=510
											509:leaf=0.0890926719
											510:leaf=-0
							134:[lambda<-6.20991087] yes=197,no=198,missing=197
								197:[spreadpt<0.895533085] yes=275,no=276,missing=275
									275:leaf=0.0487949438
									276:[pt<293.75946] yes=381,no=382,missing=382
										381:[ecf2<300.111298] yes=511,no=512,missing=511
											511:leaf=-0
											512:leaf=0.0038232666
										382:leaf=-0.0060603749
								198:[pfiso<0.338377804] yes=277,no=278,missing=277
									277:leaf=0.0922358856
									278:[epsilon<0.00492922589] yes=383,no=384,missing=384
										383:leaf=0.00228664023
										384:leaf=-0
					42:[epsilon<0.00187475595] yes=79,no=80,missing=80
						79:leaf=-0.0919277743
						80:[ecf2<994.239563] yes=135,no=136,missing=135
							135:leaf=0.0279330574
							136:leaf=-0.0460254401
			10:[pt<520.266296] yes=21,no=22,missing=22
				21:[pfiso<0.312671691] yes=43,no=44,missing=43
					43:[lambda<-7.25813723] yes=81,no=82,missing=81
						81:leaf=-0
						82:leaf=0.0885725096
					44:leaf=-0.0742838308
				22:leaf=-0.107530534
	2:[spreadpt<0.943204641] yes=5,no=6,missing=6
		5:[spreadpt<0.671128631] yes=11,no=12,missing=12
			11:[spreadpt<0.582775712] yes=23,no=24,missing=24
				23:[ecf1<20.4165707] yes=45,no=46,missing=45
					45:[spreadpt<0.563990295] yes=83,no=84,missing=83
						83:[spreadpt<0.499558479] yes=137,no=138,missing=137
							137:leaf=-0.105196714
							138:[pfiso<0.83500886] yes=199,no=200,missing=199
								199:leaf=-0.0820080563
								200:leaf=-0
						84:leaf=-0
					46:[ecf2<123.03096] yes=85,no=86,missing=85
						85:[pfiso<0.45113802] yes=139,no=140,missing=140
							139:[ecf2<93.2570419] yes=201,no=202,missing=201
								201:[epsilon<0.0114460038] yes=279,no=280,missing=279
									279:leaf=-0
									280:leaf=-0.098301135
								202:[lambda<-4.73767328] yes=281,no=282,missing=281
									281:leaf=-0.00311388006
									282:leaf=0.0238997247
							140:[spreadpt<0.53846395] yes=203,no=204,missing=204
								203:leaf=-0.113725759
								204:[pfiso<0.509177268] yes=283,no=284,missing=284
									283:leaf=-0.0421854705
									284:[pfiso<0.812078118] yes=385,no=386,missing=385
										385:leaf=-0.111001104
										386:[lambda<-5.16272306] yes=513,no=514,missing=513
											513:leaf=-0
											514:[spreadpt<0.542930961] yes=633,no=634,missing=633
												633:[pt<25.0318184] yes=731,no=732,missing=731
													731:leaf=-0.0740817264
													732:leaf=-0
												634:leaf=-0.102162614
						86:leaf=-0.115169019
				24:[pt<64.5065842] yes=47,no=48,missing=47
					47:[pfiso<0.635706961] yes=87,no=88,missing=88
						87:[tkiso<0.955939531] yes=141,no=142,missing=141
							141:[pfiso<0.373094171] yes=205,no=206,missing=205
								205:[spreadpt<0.628502786] yes=285,no=286,missing=286
									285:leaf=-0.0439183339
									286:leaf=-0
								206:leaf=-0.112039968
							142:[ecf1<30.0510807] yes=207,no=208,missing=207
								207:[lambda<-4.40077019] yes=287,no=288,missing=288
									287:[epsilon<0.00872592255] yes=387,no=388,missing=387
										387:leaf=-0.064389579
										388:leaf=-0
									288:leaf=-0.0996419564
								208:[spreadpt<0.645565689] yes=289,no=290,missing=290
									289:[pfiso<0.493873239] yes=389,no=390,missing=390
										389:[epsilon<0.0108414209] yes=515,no=516,missing=516
											515:[lambda<-4.8700304] yes=635,no=636,missing=636
												635:[epsilon<0.006202708] yes=733,no=734,missing=733
													733:leaf=0.0014556091
													734:leaf=-0.0602614358
												636:leaf=0.0465341099
											516:leaf=-0.052630268
										390:[ecf2<43.284729] yes=517,no=518,missing=518
											517:leaf=-0
											518:[pfiso<0.616330266] yes=637,no=638,missing=637
												637:[epsilon<0.0162329227] yes=735,no=736,missing=735
													735:leaf=-0.0947495028
													736:leaf=-0.0348336287
												638:[lambda<-4.93709373] yes=737,no=738,missing=737
													737:leaf=-0.032238543
													738:leaf=0.0102497181
									290:[epsilon<0.0131150894] yes=391,no=392,missing=392
										391:[pfiso<0.479766369] yes=519,no=520,missing=519
											519:[spreadpt<0.658136904] yes=639,no=640,missing=639
												639:leaf=0.0573328361
												640:leaf=-0
											520:[pfiso<0.599583864] yes=641,no=642,missing=641
												641:[pfiso<0.550591648] yes=739,no=740,missing=739
													739:leaf=-0.022212645
													740:leaf=-0
												642:leaf=-0.0457324944
										392:[pfiso<0.599583864] yes=521,no=522,missing=522
											521:leaf=-0
											522:leaf=0.0775079504
						88:[pt<36.4687347] yes=143,no=144,missing=144
							143:[pfiso<0.72861594] yes=209,no=210,missing=209
								209:[spreadpt<0.662535489] yes=291,no=292,missing=291
									291:[ecf1<35.2539253] yes=393,no=394,missing=393
										393:[pt<29.8927879] yes=523,no=524,missing=524
											523:[ecf2<47.3822861] yes=643,no=644,missing=643
												643:[epsilon<0.0126192719] yes=741,no=742,missing=741
													741:leaf=-0.0991626754
													742:leaf=-0.0680669025
												644:leaf=-0
											524:leaf=-0.0953822285
										394:[ecf1<35.9100494] yes=525,no=526,missing=525
											525:leaf=0.0492996834
											526:leaf=-0.0425694063
									292:leaf=-0
								210:[pfiso<0.883211136] yes=293,no=294,missing=294
									293:[epsilon<0.00596506381] yes=395,no=396,missing=396
										395:[pt<26.5886364] yes=527,no=528,missing=527
											527:leaf=-0
											528:leaf=-0.0644885004
										396:leaf=-0.110539667
									294:[pfiso<0.952407002] yes=397,no=398,missing=397
										397:[pt<22.3691635] yes=529,no=530,missing=530
											529:[lambda<-4.13866043] yes=645,no=646,missing=645
												645:leaf=-0
												646:leaf=-0.00253065955
											530:[pfiso<0.905526161] yes=647,no=648,missing=647
												647:leaf=-0.0433884971
												648:leaf=-0.0919232443
										398:leaf=-0.0952746049
							144:[pt<61.184761] yes=211,no=212,missing=211
								211:leaf=-0.110917285
								212:leaf=-0.0801853836
					48:leaf=-0.114231251
			12:[ecf2<142.512955] yes=25,no=26,missing=25
				25:[pfiso<0.514541984] yes=49,no=50,missing=50
					49:[tkiso<0.935640216] yes=89,no=90,missing=90
						89:[pfiso<0.353194773] yes=145,no=146,missing=145
							145:leaf=-0
							146:[mind0<-0.0319279172] yes=213,no=214,missing=214
								213:[maxd0<0.00253467704] yes=295,no=296,missing=296
									295:leaf=-0.0763869882
									296:[lambda<-5.18058157] yes=399,no=400,missing=400
										399:leaf=-0.00350932521
										400:leaf=-0
								214:leaf=-0.110454269
						90:[pt<33.1662292] yes=147,no=148,missing=147
							147:[pfiso<0.407172948] yes=215,no=216,missing=216
								215:[spreadpt<0.857185483] yes=297,no=298,missing=297
									297:leaf=-0
									298:leaf=0.0588853769
								216:[ecf2<22.2213879] yes=299,no=300,missing=299
									299:[pt<28.7320385] yes=401,no=402,missing=401
										401:[spreadpt<0.836956799] yes=531,no=532,missing=531
											531:leaf=0.00577326352
											532:[pfiso<0.462764174] yes=649,no=650,missing=649
												649:leaf=-0
												650:leaf=-0.0719672814
										402:leaf=0.0308220107
									300:[ecf2<34.7124901] yes=403,no=404,missing=403
										403:leaf=-0.0809520632
										404:[pt<32.4347115] yes=533,no=534,missing=533
											533:leaf=-0
											534:leaf=-0.00552928215
							148:[pfiso<0.43350634] yes=217,no=218,missing=217
								217:[ecf2<102.822922] yes=301,no=302,missing=301
									301:[ecf2<68.046875] yes=405,no=406,missing=406
										405:[epsilon<0.00332858763] yes=535,no=536,missing=535
											535:leaf=-0
											536:[pt<34.4788666] yes=651,no=652,missing=651
												651:leaf=-0
												652:[pfiso<0.373094171] yes=743,no=744,missing=744
													743:leaf=0.0607079603
													744:leaf=0.0882729962
										406:leaf=0.104222216
									302:[spreadpt<0.852139533] yes=407,no=408,missing=408
										407:[lambda<-4.53738308] yes=537,no=538,missing=537
											537:leaf=0.0766148269
											538:leaf=-0
										408:[ecf2<112.380264] yes=539,no=540,missing=539
											539:leaf=-0.0273137745
											540:leaf=-0
								218:[lambda<-5.6908946] yes=303,no=304,missing=304
									303:leaf=0.0953104049
									304:[ecf2<67.0450974] yes=409,no=410,missing=409
										409:[ecf2<28.3329144] yes=541,no=542,missing=542
											541:[ecf2<23.616848] yes=653,no=654,missing=653
												653:[epsilon<0.0075271884] yes=745,no=746,missing=745
													745:leaf=0.0479716286
													746:leaf=-0
												654:leaf=-0.0467989184
											542:[pt<48.6689873] yes=655,no=656,missing=656
												655:[pfiso<0.462764174] yes=747,no=748,missing=747
													747:leaf=0.0186996926
													748:leaf=0.0974900052
												656:[pt<53.356678] yes=749,no=750,missing=749
													749:leaf=-0
													750:leaf=0.0537332892
										410:[lambda<-3.3763063] yes=543,no=544,missing=543
											543:[ecf2<69.893364] yes=657,no=658,missing=657
												657:[spreadpt<0.773748636] yes=751,no=752,missing=752
													751:leaf=-0.0491783917
													752:leaf=-0
												658:[spreadpt<0.769544244] yes=753,no=754,missing=753
													753:leaf=0.0582146645
													754:leaf=-0
											544:leaf=-0.0484285951
					50:[pfiso<0.73680681] yes=91,no=92,missing=92
						91:[spreadpt<0.911279142] yes=149,no=150,missing=149
							149:[maxd0<-0.306229711] yes=219,no=220,missing=219
								219:[pt<28.1813889] yes=305,no=306,missing=305
									305:[pfiso<0.72861594] yes=411,no=412,missing=411
										411:[ecf2<43.284729] yes=545,no=546,missing=545
											545:[spreadpt<0.900345981] yes=659,no=660,missing=659
												659:[epsilon<0.0066607194] yes=755,no=756,missing=756
													755:leaf=-0
													756:leaf=-0.0847517326
												660:leaf=-0
											546:leaf=-0
										412:[spreadpt<0.755707622] yes=547,no=548,missing=547
											547:leaf=0.00987809524
											548:leaf=-0
									306:[ecf2<16.3641701] yes=413,no=414,missing=413
										413:leaf=0.0599795878
										414:[ecf2<107.688171] yes=549,no=550,missing=549
											549:[spreadpt<0.788470447] yes=661,no=662,missing=662
												661:[pt<40.7310524] yes=757,no=758,missing=758
													757:leaf=-0.0312568322
													758:leaf=0.0120323962
												662:[pt<75.6826324] yes=759,no=760,missing=759
													759:leaf=-0.0488755144
													760:leaf=0.0147011075
											550:[ecf1<84.8222427] yes=663,no=664,missing=664
												663:[pt<60.4819565] yes=761,no=762,missing=762
													761:leaf=-0.0648010671
													762:leaf=-0.107302025
												664:[pfiso<0.581558764] yes=763,no=764,missing=764
													763:leaf=-0.0499340855
													764:leaf=0.0279487669
								220:leaf=-0.10851559
							150:[pfiso<0.57816571] yes=221,no=222,missing=222
								221:[pfiso<0.532765985] yes=307,no=308,missing=307
									307:[lambda<-4.95202875] yes=415,no=416,missing=416
										415:leaf=-0.0061507104
										416:leaf=-0
									308:[lambda<-4.92049885] yes=417,no=418,missing=418
										417:leaf=0.0922419801
										418:[epsilon<0.0126192719] yes=551,no=552,missing=552
											551:leaf=-0
											552:leaf=0.0537669212
								222:[epsilon<0.0183436349] yes=309,no=310,missing=310
									309:[epsilon<0.0162329227] yes=419,no=420,missing=419
										419:[ecf2<117.350693] yes=553,no=554,missing=553
											553:[pt<89.4647522] yes=665,no=666,missing=665
												665:[spreadpt<0.924896896] yes=765,no=766,missing=766
													765:leaf=0.0127045689
													766:leaf=-0.0203451701
												666:leaf=0.0595204532
											554:leaf=-0.0596360005
										420:leaf=0.0480397902
									310:[ecf2<14.5840273] yes=421,no=422,missing=421
										421:leaf=-0
										422:leaf=-0.060466975
						92:[spreadpt<0.908021986] yes=151,no=152,missing=151
							151:[ecf2<11.5972719] yes=223,no=224,missing=224
								223:[epsilon<0.00918497518] yes=311,no=312,missing=311
									311:[lambda<-4.70255518] yes=423,no=424,missing=424
										423:leaf=-0
										424:leaf=0.0466552563
									312:[spreadpt<0.862447262] yes=425,no=426,missing=426
										425:[spreadpt<0.788470447] yes=555,no=556,missing=555
											555:leaf=-0.0215241034
											556:leaf=0.00835036766
										426:leaf=-0.0635091811
								224:[pt<91.6518326] yes=313,no=314,missing=313
									313:[lambda<-4.42073154] yes=427,no=428,missing=428
										427:[ecf2<44.684063] yes=557,no=558,missing=557
											557:[pt<44.9791336] yes=667,no=668,missing=668
												667:[epsilon<0.00604042923] yes=767,no=768,missing=767
													767:leaf=-0.0153023498
													768:leaf=-0.0799485445
												668:[ecf2<38.625103] yes=769,no=770,missing=770
													769:leaf=-0
													770:leaf=0.00592788076
											558:[lambda<-4.46276808] yes=669,no=670,missing=670
												669:[ecf1<58.7223473] yes=771,no=772,missing=771
													771:leaf=-0.0991915166
													772:leaf=-0.0664338991
												670:leaf=-0
										428:[pfiso<0.804246008] yes=559,no=560,missing=560
											559:[ecf2<36.5650101] yes=671,no=672,missing=671
												671:[pt<28.7320385] yes=773,no=774,missing=774
													773:leaf=-0.0829128996
													774:leaf=-0.00827933289
												672:[ecf1<65.4131393] yes=775,no=776,missing=775
													775:leaf=-0.106116295
													776:leaf=-0
											560:[spreadpt<0.769544244] yes=673,no=674,missing=673
												673:leaf=-0.111151576
												674:[pfiso<0.920069814] yes=777,no=778,missing=777
													777:leaf=-0.0970761999
													778:leaf=-0.0609234758
									314:leaf=-0
							152:[pfiso<0.846107721] yes=225,no=226,missing=225
								225:[spreadpt<0.927759647] yes=315,no=316,missing=315
									315:[ecf2<67.0450974] yes=429,no=430,missing=429
										429:[lambda<-3.70702291] yes=561,no=562,missing=561
											561:leaf=0.0768834129
											562:leaf=-0
										430:[pt<74.9458466] yes=563,no=564,missing=563
											563:leaf=-0
											564:[lambda<-5.51435375] yes=675,no=676,missing=675
												675:leaf=-0
												676:leaf=-0.0584337711
									316:[lambda<-4.48151636] yes=431,no=432,missing=432
										431:[epsilon<0.0043266709] yes=565,no=566,missing=565
											565:leaf=-0
											566:leaf=-0.0563853197
										432:[pt<39.9886398] yes=567,no=568,missing=568
											567:leaf=-0
											568:leaf=0.0072199814
								226:leaf=-0.0791490376
				26:[ecf2<461.11322] yes=51,no=52,missing=51
					51:[pfiso<0.488786727] yes=93,no=94,missing=93
						93:[tkiso<0.943608105] yes=153,no=154,missing=153
							153:[maxd0<0.0370927863] yes=227,no=228,missing=227
								227:leaf=-0.107991539
								228:[mind0<-0.028644301] yes=317,no=318,missing=317
									317:[ecf2<242.75351] yes=433,no=434,missing=434
										433:leaf=-0.0016545438
										434:leaf=-0
									318:leaf=-0.0636459813
							154:[ecf2<220.817947] yes=229,no=230,missing=229
								229:[spreadpt<0.911279142] yes=319,no=320,missing=319
									319:[pfiso<0.42070502] yes=435,no=436,missing=435
										435:leaf=0.0927825496
										436:[pt<102.135803] yes=569,no=570,missing=569
											569:[spreadpt<0.730262101] yes=677,no=678,missing=678
												677:leaf=0.0474857092
												678:leaf=-0.014228953
											570:leaf=0.0761209726
									320:leaf=-0.0248670485
								230:[pt<144.429611] yes=321,no=322,missing=321
									321:[pfiso<0.379893869] yes=437,no=438,missing=437
										437:leaf=0.048963692
										438:[spreadpt<0.764346838] yes=571,no=572,missing=571
											571:leaf=-0.0795310363
											572:[pt<118.114937] yes=679,no=680,missing=680
												679:leaf=-0
												680:leaf=-0.0413348861
									322:[spreadpt<0.883465946] yes=439,no=440,missing=440
										439:[pfiso<0.39977634] yes=573,no=574,missing=574
											573:leaf=0.0154075269
											574:leaf=0.0920380875
										440:[pt<191.356674] yes=575,no=576,missing=575
											575:leaf=-0.0665417686
											576:leaf=-0
						94:[pfiso<0.651061714] yes=155,no=156,missing=156
							155:[pt<124.287491] yes=231,no=232,missing=231
								231:[ecf2<209.369232] yes=323,no=324,missing=323
									323:[pfiso<0.64494586] yes=441,no=442,missing=441
										441:[epsilon<0.00204144535] yes=577,no=578,missing=578
											577:[spreadpt<0.778584898] yes=681,no=682,missing=682
												681:leaf=0.00756392116
												682:leaf=-0.0459199585
											578:[ecf2<163.188354] yes=683,no=684,missing=683
												683:leaf=-0.104194321
												684:[ecf2<165.55484] yes=779,no=780,missing=779
													779:leaf=-0
													780:leaf=-0.0792528093
										442:leaf=-0
									324:leaf=-0.108464114
								232:[ecf2<252.073685] yes=325,no=326,missing=326
									325:[epsilon<0.00308043649] yes=443,no=444,missing=443
										443:leaf=0.0672104657
										444:leaf=-0
									326:[spreadpt<0.783460319] yes=445,no=446,missing=446
										445:[tkiso<0.820370913] yes=579,no=580,missing=579
											579:leaf=-0.0441524945
											580:[pt<151.576385] yes=685,no=686,missing=685
												685:leaf=0.051931072
												686:leaf=-0
										446:[lambda<-6.67610216] yes=581,no=582,missing=582
											581:[spreadpt<0.895533085] yes=687,no=688,missing=687
												687:leaf=-0
												688:leaf=-0.00285366434
											582:[pfiso<0.499204963] yes=689,no=690,missing=690
												689:leaf=-0
												690:leaf=-0.105364703
							156:[pfiso<0.780252516] yes=233,no=234,missing=233
								233:[ecf2<199.687347] yes=327,no=328,missing=328
									327:[pt<99.8163834] yes=447,no=448,missing=447
										447:[pfiso<0.765538275] yes=583,no=584,missing=583
											583:[lambda<-5.98738623] yes=691,no=692,missing=692
												691:leaf=-0.0321488902
												692:leaf=-0.107708804
											584:[lambda<-4.96639347] yes=693,no=694,missing=693
												693:leaf=-0.0665609837
												694:leaf=-0
										448:[spreadpt<0.832279265] yes=585,no=586,missing=585
											585:leaf=-0
											586:[pt<137.431763] yes=695,no=696,missing=695
												695:leaf=-0.08069022
												696:leaf=-0
									328:[lambda<-3.75077391] yes=449,no=450,missing=449
										449:leaf=-0.109366037
										450:leaf=-0
								234:leaf=-0.113119319
					52:[pfiso<0.439754456] yes=95,no=96,missing=96
						95:[ecf2<686.384094] yes=157,no=158,missing=158
							157:[ecf2<498.583984] yes=235,no=236,missing=236
								235:leaf=-0.0753325298
								236:[tkiso<0.873429894] yes=329,no=330,missing=330
									329:leaf=-0.0403312296
									330:leaf=0.0214466043
							158:[lambda<-5.20786095] yes=237,no=238,missing=237
								237:leaf=-0.110934146
								238:[epsilon<0.00952276308] yes=331,no=332,missing=331
									331:leaf=-0
									332:leaf=-0.0635185987
						96:leaf=-0.114030123
		6:[ecf2<276.983154] yes=13,no=14,missing=13
			13:[pfiso<0.647870421] yes=27,no=28,missing=28
				27:[ecf2<105.988678] yes=53,no=54,missing=53
					53:[tkiso<0.595821202] yes=97,no=98,missing=97
						97:leaf=-0.0591947697
						98:[pfiso<0.43350634] yes=159,no=160,missing=159
							159:[ecf2<12.5633945] yes=239,no=240,missing=239
								239:[epsilon<0.0239643101] yes=333,no=334,missing=333
									333:[pfiso<0.353194773] yes=451,no=452,missing=451
										451:leaf=0.0194686204
										452:[pfiso<0.379893869] yes=587,no=588,missing=587
											587:leaf=0.106854931
											588:[spreadpt<0.987610042] yes=697,no=698,missing=698
												697:leaf=0.0623535551
												698:leaf=0.0948084369
									334:leaf=-0
								240:[pt<286.456604] yes=335,no=336,missing=335
									335:[pt<91.6518326] yes=453,no=454,missing=453
										453:leaf=0.112284429
										454:[epsilon<0.00465606712] yes=589,no=590,missing=589
											589:leaf=0.101444021
											590:leaf=-0
									336:leaf=-0
							160:[spreadpt<0.97138238] yes=241,no=242,missing=242
								241:[ecf2<39.2044029] yes=337,no=338,missing=338
									337:[lambda<-4.24155521] yes=455,no=456,missing=455
										455:[pfiso<0.588561833] yes=591,no=592,missing=591
											591:[pfiso<0.493873239] yes=699,no=700,missing=700
												699:[pt<42.9633789] yes=781,no=782,missing=781
													781:leaf=0.0842684954
													782:leaf=0.0431033708
												700:[lambda<-5.07498693] yes=783,no=784,missing=783
													783:leaf=0.0297740921
													784:leaf=-0
											592:leaf=0.0887079686
										456:[spreadpt<0.957078636] yes=593,no=594,missing=594
											593:leaf=-0.0677347332
											594:leaf=0.00444136327
									338:[ecf2<86.5324936] yes=457,no=458,missing=457
										457:[pt<65.9828568] yes=595,no=596,missing=595
											595:leaf=0.0293272156
											596:[pt<98.8304138] yes=701,no=702,missing=702
												701:[lambda<-4.75522327] yes=785,no=786,missing=785
													785:leaf=-0.0871790424
													786:leaf=-0
												702:leaf=0.0260552205
										458:leaf=0.0720598623
								242:[lambda<-4.24155521] yes=339,no=340,missing=339
									339:[pfiso<0.509177268] yes=459,no=460,missing=459
										459:[spreadpt<0.993718028] yes=597,no=598,missing=597
											597:leaf=0.102276579
											598:[pfiso<0.47464484] yes=703,no=704,missing=704
												703:[pfiso<0.457808673] yes=787,no=788,missing=787
													787:leaf=0.055972144
													788:leaf=-0
												704:leaf=0.0801858157
										460:[pfiso<0.514541984] yes=599,no=600,missing=599
											599:leaf=-0
											600:[epsilon<0.00240388419] yes=705,no=706,missing=705
												705:[lambda<-6.48509979] yes=789,no=790,missing=789
													789:leaf=0.0639615655
													790:leaf=0.0985877439
												706:[spreadpt<0.981135488] yes=791,no=792,missing=792
													791:leaf=0.0459252223
													792:leaf=0.075120911
									340:[epsilon<0.0154078687] yes=461,no=462,missing=461
										461:leaf=-0.0485952906
										462:leaf=0.0433942601
					54:[pfiso<0.45113802] yes=99,no=100,missing=99
						99:[pfiso<0.39370513] yes=161,no=162,missing=162
							161:leaf=0.0969932526
							162:[pfiso<0.426882088] yes=243,no=244,missing=243
								243:[epsilon<0.0015293177] yes=341,no=342,missing=341
									341:[lambda<-6.93626118] yes=463,no=464,missing=464
										463:leaf=0.0203935616
										464:leaf=-0.038855955
									342:[lambda<-5.86909294] yes=465,no=466,missing=466
										465:leaf=0.0464833416
										466:leaf=-0
								244:[pt<156.279831] yes=343,no=344,missing=344
									343:leaf=-0
									344:leaf=0.0918220356
						100:[pt<315.310974] yes=163,no=164,missing=163
							163:[pt<286.456604] yes=245,no=246,missing=246
								245:[ecf2<181.797272] yes=345,no=346,missing=345
									345:[ecf2<130.04332] yes=467,no=468,missing=467
										467:[spreadpt<0.962524235] yes=601,no=602,missing=602
											601:leaf=-0.0609858818
											602:[pt<233.531464] yes=707,no=708,missing=707
												707:leaf=0.0200297944
												708:leaf=-0.0598411821
										468:[spreadpt<0.979247451] yes=603,no=604,missing=604
											603:[pfiso<0.606531799] yes=709,no=710,missing=709
												709:[pt<139.559845] yes=793,no=794,missing=794
													793:leaf=-0
													794:leaf=0.0817062557
												710:leaf=-0
											604:[pfiso<0.581558764] yes=711,no=712,missing=711
												711:[epsilon<0.00141143717] yes=795,no=796,missing=796
													795:leaf=0.0215636306
													796:leaf=-0
												712:leaf=-0.0214708745
									346:[pfiso<0.591765106] yes=469,no=470,missing=469
										469:[ecf2<205.978714] yes=605,no=606,missing=605
											605:leaf=-0.0245988816
											606:[pfiso<0.563184321] yes=713,no=714,missing=713
												713:[pfiso<0.5192343] yes=797,no=798,missing=797
													797:leaf=-0
													798:leaf=-0.0154901305
												714:leaf=0.00712991413
										470:[pt<214.880142] yes=607,no=608,missing=607
											607:leaf=-0.0641063675
											608:leaf=-0
								246:leaf=0.0366189629
							164:leaf=-0.0837184042
				28:[ecf2<181.797272] yes=55,no=56,missing=55
					55:[spreadpt<0.977808416] yes=101,no=102,missing=101
						101:[pfiso<0.893828511] yes=165,no=166,missing=165
							165:[ecf2<97.1075745] yes=247,no=248,missing=247
								247:[ecf2<74.0126419] yes=347,no=348,missing=347
									347:[epsilon<0.0349676795] yes=471,no=472,missing=471
										471:[pfiso<0.804246008] yes=609,no=610,missing=609
											609:[pfiso<0.755397081] yes=715,no=716,missing=715
												715:[lambda<-4.64779234] yes=799,no=800,missing=800
													799:leaf=0.029655952
													800:leaf=-0
												716:[spreadpt<0.973872721] yes=801,no=802,missing=801
													801:leaf=-0.0688925236
													802:leaf=0.00494877435
											610:[ecf2<35.8654022] yes=717,no=718,missing=718
												717:[pt<27.6700039] yes=803,no=804,missing=803
													803:leaf=-0
													804:leaf=0.0611387566
												718:[ecf2<45.5083427] yes=805,no=806,missing=806
													805:leaf=-0.0232187845
													806:leaf=-0
										472:leaf=-0.0732439756
									348:[pt<101.001511] yes=473,no=474,missing=473
										473:leaf=0.0894213468
										474:leaf=-0
								248:[lambda<-5.71600151] yes=349,no=350,missing=349
									349:[lambda<-6.35013056] yes=475,no=476,missing=475
										475:[ecf2<138.017166] yes=611,no=612,missing=611
											611:leaf=-0.00626786426
											612:leaf=0.00616786163
										476:leaf=-0.0752332062
									350:[lambda<-5.42080975] yes=477,no=478,missing=478
										477:leaf=-0
										478:[lambda<-4.95202875] yes=613,no=614,missing=613
											613:leaf=-0.0213186461
											614:leaf=-0
							166:[ecf1<26.6838169] yes=249,no=250,missing=249
								249:leaf=-0
								250:leaf=-0.0979984328
						102:[pt<195.619492] yes=167,no=168,missing=167
							167:[pfiso<0.7589311] yes=251,no=252,missing=251
								251:[pt<31.1576233] yes=351,no=352,missing=351
									351:leaf=-0
									352:[pfiso<0.657587767] yes=479,no=480,missing=479
										479:leaf=-0
										480:[ecf2<22.2213879] yes=615,no=616,missing=616
											615:[pt<86.4420776] yes=719,no=720,missing=720
												719:leaf=0.0583037958
												720:leaf=-0
											616:[pfiso<0.681749821] yes=721,no=722,missing=721
												721:leaf=0.0556898601
												722:leaf=0.104211584
								252:[ecf2<26.3864746] yes=353,no=354,missing=354
									353:[pfiso<0.860607445] yes=481,no=482,missing=482
										481:leaf=0.0800463483
										482:leaf=-0
									354:[pt<101.001511] yes=483,no=484,missing=483
										483:[pt<35.758316] yes=617,no=618,missing=618
											617:[spreadpt<0.983201385] yes=723,no=724,missing=723
												723:leaf=-0
												724:leaf=-0.0477137119
											618:[pt<76.4281769] yes=725,no=726,missing=725
												725:leaf=0.0495903566
												726:leaf=-0
										484:[pt<142.069916] yes=619,no=620,missing=619
											619:leaf=-0.0361410864
											620:leaf=-0
							168:leaf=-0.0825197771
					56:[pfiso<0.719637632] yes=103,no=104,missing=103
						103:[ecf2<247.231003] yes=169,no=170,missing=169
							169:leaf=-0.071639739
							170:leaf=-0
						104:leaf=-0.102715649
			14:[ecf2<340.583099] yes=29,no=30,missing=30
				29:[pfiso<0.563184321] yes=57,no=58,missing=58
					57:[lambda<-5.97439861] yes=105,no=106,missing=105
						105:[spreadpt<0.966177583] yes=171,no=172,missing=171
							171:leaf=-0.0462550074
							172:leaf=0.00313719525
						106:[pfiso<0.457808673] yes=173,no=174,missing=173
							173:leaf=-0
							174:leaf=0.0686567798
					58:leaf=-0.107354403
				30:[pt<218.994644] yes=59,no=60,missing=60
					59:[pfiso<0.603305817] yes=107,no=108,missing=107
						107:leaf=-0
						108:leaf=-0.0985918045
					60:[pfiso<0.39370513] yes=109,no=110,missing=110
						109:[ecf2<498.583984] yes=175,no=176,missing=175
							175:leaf=-0
							176:leaf=-0.0993380249
						110:leaf=-0.112486005
booster[2]:
0:[pfiso<0.338377804] yes=1,no=2,missing=2
	1:[neufrac<0.956799746] yes=3,no=4,missing=4
		3:[neufrac<0.0604464263] yes=7,no=8,missing=7
			7:[spreadpt<0.807105303] yes=15,no=16,missing=16
				15:[spreaddr<0.00149849919] yes=31,no=32,missing=31
					31:[ecf2<882.717834] yes=61,no=62,missing=61
						61:[pt<41.5228729] yes=107,no=108,missing=108
							107:leaf=-0
							108:[spreaddr<8.56945117e-05] yes=177,no=178,missing=177
								177:leaf=-0.108693272
								178:[ecf3<48.6956787] yes=265,no=266,missing=265
									265:[ecf2<153.738647] yes=369,no=370,missing=370
										369:[pfiso<0.112960421] yes=477,no=478,missing=477
											477:leaf=-0
											478:[spreadpt<0.769544244] yes=587,no=588,missing=587
												587:leaf=-0.0997389257
												588:leaf=-0
										370:leaf=-0.106885955
									266:[ecf3<57.7351837] yes=371,no=372,missing=371
										371:leaf=-0
										372:[spreaddr<0.000676711439] yes=479,no=480,missing=479
											479:leaf=-0.0951733664
											480:leaf=-0
						62:[ecf3<168.246399] yes=109,no=110,missing=110
							109:[pt<340.885986] yes=179,no=180,missing=179
								179:leaf=0.0487384684
								180:leaf=-0
							110:leaf=-0.0766449422
					32:[ecf2<397.305054] yes=63,no=64,missing=63
						63:[spreadpt<0.746403635] yes=111,no=112,missing=111
							111:[pt<92.496254] yes=181,no=182,missing=181
								181:[spreaddr<0.00337677659] yes=267,no=268,missing=268
									267:[epsilon<0.00341641996] yes=373,no=374,missing=373
										373:leaf=-0
										374:leaf=-0.0910208002
									268:[ecf2<205.978714] yes=375,no=376,missing=375
										375:[ecf3<25.7812176] yes=481,no=482,missing=482
											481:[ecf2<110.696068] yes=589,no=590,missing=589
												589:leaf=0.00135423196
												590:[spreaddr<0.00450898567] yes=701,no=702,missing=701
													701:leaf=-0
													702:leaf=-0.0497628041
											482:leaf=0.0416895747
										376:leaf=-0.0719961375
								182:[ecf2<256.450317] yes=269,no=270,missing=269
									269:leaf=-0
									270:[neufrac<0.0172020718] yes=377,no=378,missing=378
										377:leaf=0.0469113439
										378:leaf=-0
							112:[epsilon<0.00472077169] yes=183,no=184,missing=183
								183:[neufrac<0.0227592643] yes=271,no=272,missing=271
									271:leaf=-0.0160128102
									272:leaf=0.0216359459
								184:leaf=0.082841292
						64:leaf=-0.0988963917
				16:[ecf2<447.870697] yes=33,no=34,missing=34
					33:[spreaddr<0.000471504492] yes=65,no=66,missing=65
						65:[eta<1.2874167] yes=113,no=114,missing=113
							113:[ecf3<57.7351837] yes=185,no=186,missing=186
								185:[spreaddr<7.81234485e-06] yes=273,no=274,missing=273
									273:leaf=-0.0919291079
									274:[spreadpt<0.857185483] yes=379,no=380,missing=379
										379:leaf=-0.0731305629
										380:[epsilon<0.00437761704] yes=483,no=484,missing=483
											483:[ecf2<306.060394] yes=591,no=592,missing=592
												591:leaf=0.0835076123
												592:leaf=-0
											484:leaf=-0.0626308024
								186:[pt<181.833496] yes=275,no=276,missing=276
									275:leaf=0.0803463459
									276:[pt<204.20813] yes=381,no=382,missing=381
										381:leaf=-0
										382:leaf=0.00661422033
							114:leaf=-0.0831886008
						66:[ecf3<-9.99999975e-06] yes=115,no=116,missing=115
							115:leaf=-0
							116:[pt<111.792625] yes=187,no=188,missing=187
								187:leaf=0.0823418796
								188:leaf=-0
					34:[epsilon<0.00187475595] yes=67,no=68,missing=68
						67:[spreaddr<0.000224580916] yes=117,no=118,missing=117
							117:leaf=-0.0902724341
							118:[pt<300.75531] yes=189,no=190,missing=189
								189:leaf=-0.0280827489
								190:leaf=-0
						68:[pfiso<0.0922311321] yes=119,no=120,missing=119
							119:[eta<0.0522339605] yes=191,no=192,missing=192
								191:[eta<-0.728641152] yes=277,no=278,missing=277
									277:leaf=-0
									278:leaf=-0.0414256826
								192:leaf=0.00753172161
							120:leaf=-0.0739819929
			8:[pt<47.9616356] yes=17,no=18,missing=17
				17:[pfiso<0.306161165] yes=35,no=36,missing=35
					35:leaf=-0.0492362306
					36:leaf=0.00781409722
				18:leaf=-0.108709127
		4:[ecf3<390.878906] yes=9,no=10,missing=9
			9:[spreadpt<0.53846395] yes=19,no=20,missing=19
				19:[spreaddr<0.0018981836] yes=37,no=38,missing=38
					37:leaf=-0.0567458346
					38:leaf=-0
				20:[pt<672.598022] yes=39,no=40,missing=39
					39:[pt<33.1662292] yes=69,no=70,missing=69
						69:[epsilon<0.00968867727] yes=121,no=122,missing=122
							121:leaf=0.0789819956
							122:[eta<-0.688696086] yes=193,no=194,missing=194
								193:[eta<-1.14310014] yes=279,no=280,missing=279
									279:leaf=-0
									280:leaf=-0.0370725356
								194:[pt<29.3109932] yes=281,no=282,missing=282
									281:[pt<25.5527115] yes=383,no=384,missing=383
										383:leaf=-0
										384:leaf=0.0665995702
									282:leaf=-0
						70:[ecf3<136.829193] yes=123,no=124,missing=123
							123:[pfiso<0.269919157] yes=195,no=196,missing=196
								195:[pfiso<0.144661605] yes=283,no=284,missing=284
									283:leaf=0.109152563
									284:[ecf2<542.857056] yes=385,no=386,missing=385
										385:[ecf1<43.7636757] yes=485,no=486,missing=485
											485:leaf=0.0909549892
											486:leaf=0.107252955
										386:[spreadpt<0.965030491] yes=487,no=488,missing=487
											487:leaf=0.0739054009
											488:leaf=-0
								196:[ecf2<415.49942] yes=285,no=286,missing=285
									285:[ecf3<13.8245325] yes=387,no=388,missing=387
										387:[spreadpt<0.998029292] yes=489,no=490,missing=490
											489:[spreaddr<3.19277569e-05] yes=593,no=594,missing=593
												593:leaf=0.108518608
												594:[spreadpt<0.966177583] yes=703,no=704,missing=704
													703:leaf=0.1029322
													704:leaf=0.0845342278
											490:leaf=0.0200504549
										388:[ecf2<74.0126419] yes=491,no=492,missing=491
											491:leaf=-0
											492:[pfiso<0.275341719] yes=595,no=596,missing=595
												595:[ecf2<229.574783] yes=705,no=706,missing=706
													705:leaf=0.0446118191
													706:leaf=-0
												596:[pt<65.2731934] yes=707,no=708,missing=707
													707:leaf=0.0615805723
													708:leaf=0.0966647416
									286:[spreaddr<9.93734557e-06] yes=389,no=390,missing=389
										389:leaf=-0.0487740673
										390:leaf=0.0414233655
							124:[pfiso<0.220149636] yes=197,no=198,missing=197
								197:[pfiso<0.170495227] yes=287,no=288,missing=288
									287:leaf=0.107352898
									288:[ecf2<846.929138] yes=391,no=392,missing=392
										391:leaf=0.0886825174
										392:leaf=-0
								198:[pt<315.310974] yes=289,no=290,missing=289
									289:[pt<172.634018] yes=393,no=394,missing=393
										393:leaf=-0.00842537545
										394:[epsilon<0.00139278686] yes=493,no=494,missing=494
											493:leaf=-0
											494:leaf=0.0877858549
									290:leaf=-0.0818959996
					40:[pfiso<0.072405681] yes=71,no=72,missing=71
						71:leaf=0.0894862488
						72:leaf=-0.0837363303
			10:[pfiso<0.191962227] yes=21,no=22,missing=21
				21:[pt<613.908142] yes=41,no=42,missing=42
					41:leaf=0.101167232
					42:[epsilon<0.000370042224] yes=73,no=74,missing=74
						73:leaf=-0.0419154316
						74:leaf=-0
				22:[pt<444.44519] yes=43,no=44,missing=43
					43:[spreaddr<0.000147129176] yes=75,no=76,missing=76
						75:leaf=-0.0707710758
						76:[pfiso<0.29904741] yes=125,no=126,missing=126
							125:leaf=0.079375051
							126:leaf=-0
					44:leaf=-0.10553816
	2:[ecf3<5.39386559] yes=5,no=6,missing=5
		5:[ecf1<30.0510807] yes=11,no=12,missing=12
			11:[spreadpt<0.900345981] yes=23,no=24,missing=23
				23:[ecf3<0.971523285] yes=45,no=46,missing=45
					45:[eta<0.132522032] yes=77,no=78,missing=78
						77:[pt<28.1813889] yes=127,no=128,missing=128
							127:[pt<26.0165577] yes=199,no=200,missing=199
								199:[eta<-1.64103389] yes=291,no=292,missing=291
									291:[spreaddr<0.00366495457] yes=395,no=396,missing=396
										395:leaf=-0.0776032656
										396:leaf=-0
									292:[eta<-1.19394445] yes=397,no=398,missing=397
										397:[eta<-1.54103708] yes=495,no=496,missing=496
											495:leaf=-0
											496:leaf=0.0735455006
										398:[pfiso<0.804246008] yes=497,no=498,missing=498
											497:[pfiso<0.663570881] yes=597,no=598,missing=597
												597:leaf=-0
												598:leaf=0.0428186171
											498:leaf=-0.060055688
								200:leaf=-0.0777809396
							128:leaf=0.0475220717
						78:[epsilon<0.00872592255] yes=129,no=130,missing=130
							129:[pfiso<0.791883707] yes=201,no=202,missing=202
								201:leaf=-0.0145395305
								202:leaf=0.047205694
							130:[pt<20.3043842] yes=203,no=204,missing=204
								203:leaf=-0
								204:leaf=-0.103095286
					46:[pfiso<0.43350634] yes=79,no=80,missing=79
						79:[spreaddr<0.00264662248] yes=131,no=132,missing=132
							131:leaf=-0.0112912469
							132:leaf=0.0517827049
						80:[ecf2<35.8654022] yes=133,no=134,missing=133
							133:[spreadpt<0.615836859] yes=205,no=206,missing=205
								205:[pfiso<0.846107721] yes=293,no=294,missing=293
									293:leaf=-0.104430854
									294:[pfiso<0.853392601] yes=399,no=400,missing=399
										399:leaf=-0
										400:leaf=-0.0863002762
								206:[epsilon<0.00604042923] yes=295,no=296,missing=295
									295:[ecf2<22.8458729] yes=401,no=402,missing=401
										401:leaf=0.0038164889
										402:leaf=-0.045563668
									296:[eta<1.57232356] yes=403,no=404,missing=404
										403:[eta<1.43958318] yes=499,no=500,missing=499
											499:[pfiso<0.775827587] yes=599,no=600,missing=600
												599:[ecf1<27.8243027] yes=709,no=710,missing=709
													709:leaf=-0.0816365033
													710:leaf=-0.00673162006
												600:[spreadpt<0.842006505] yes=711,no=712,missing=711
													711:leaf=-0.100049064
													712:leaf=-0.0488062799
											500:[pfiso<0.860607445] yes=601,no=602,missing=602
												601:leaf=-0
												602:leaf=0.0146106267
										404:leaf=-0.104611248
							134:[spreadpt<0.567323506] yes=207,no=208,missing=207
								207:leaf=-0.0862115249
								208:leaf=0.0500340462
				24:[eta<-1.64103389] yes=47,no=48,missing=47
					47:[spreadpt<0.973872721] yes=81,no=82,missing=81
						81:leaf=-0.0925162435
						82:leaf=-0
					48:[eta<1.83420753] yes=83,no=84,missing=83
						83:[ecf3<0.782656312] yes=135,no=136,missing=136
							135:[epsilon<0.0106367767] yes=209,no=210,missing=209
								209:[spreaddr<6.58948702e-05] yes=297,no=298,missing=298
									297:leaf=-0
									298:leaf=0.0702590495
								210:[spreadpt<0.943204641] yes=299,no=300,missing=300
									299:leaf=-0.0440671034
									300:leaf=0.00243010838
							136:[pt<21.3322582] yes=211,no=212,missing=212
								211:leaf=-0
								212:[eta<0.168107092] yes=301,no=302,missing=301
									301:[ecf2<9.29711533] yes=405,no=406,missing=405
										405:[pt<26.0165577] yes=501,no=502,missing=501
											501:leaf=-0.0043945699
											502:leaf=-0
										406:leaf=0.090984419
									302:leaf=0.0913756564
						84:[epsilon<0.0197313968] yes=137,no=138,missing=138
							137:[pfiso<0.716885269] yes=213,no=214,missing=213
								213:leaf=0.026934674
								214:leaf=-0.0233215448
							138:leaf=-0.088305451
			12:[spreaddr<5.20621434e-05] yes=25,no=26,missing=26
				25:[pfiso<0.64494586] yes=49,no=50,missing=49
					49:[eta<-2.12819242] yes=85,no=86,missing=86
						85:[ecf3<4.9734683] yes=139,no=140,missing=140
							139:leaf=-0.0583373941
							140:[pfiso<0.524248898] yes=215,no=216,missing=215
								215:leaf=0.0574906059
								216:leaf=-0
						86:[pt<355.780182] yes=141,no=142,missing=141
							141:[eta<2.06890631] yes=217,no=218,missing=217
								217:[spreadpt<0.988292336] yes=303,no=304,missing=303
									303:[ecf2<40.5411797] yes=407,no=408,missing=408
										407:[pt<44.9791336] yes=503,no=504,missing=503
											503:[neufrac<1.00000012] yes=603,no=604,missing=603
												603:[pfiso<0.47464484] yes=713,no=714,missing=713
													713:leaf=0.0852207541
													714:leaf=0.00896868575
												604:[eta<-0.294896483] yes=715,no=716,missing=715
													715:leaf=0.017396193
													716:leaf=-0.0108950511
											504:[spreaddr<3.85918502e-05] yes=605,no=606,missing=605
												605:[spreaddr<5.35386152e-06] yes=717,no=718,missing=717
													717:leaf=0.0509871542
													718:leaf=0.108495861
												606:[pt<51.6984138] yes=719,no=720,missing=719
													719:leaf=-0
													720:leaf=0.0725535676
										408:[eta<-1.81403923] yes=505,no=506,missing=506
											505:leaf=-0
											506:[pfiso<0.603305817] yes=607,no=608,missing=607
												607:[eta<1.88296437] yes=721,no=722,missing=721
													721:leaf=0.0772301555
													722:leaf=-0
												608:[spreaddr<1.31467459e-05] yes=723,no=724,missing=723
													723:leaf=0.00520441541
													724:leaf=-0
									304:leaf=0.107063957
								218:[ecf2<28.3329144] yes=305,no=306,missing=305
									305:[spreaddr<6.41783481e-06] yes=409,no=410,missing=410
										409:[spreaddr<1.22928361e-06] yes=507,no=508,missing=507
											507:leaf=-0
											508:leaf=0.0295228474
										410:leaf=-0.033862818
									306:leaf=0.0747647136
							142:leaf=-0.0274277646
					50:[eta<-2.0163734] yes=87,no=88,missing=87
						87:[pfiso<0.734164119] yes=143,no=144,missing=144
							143:leaf=-0
							144:leaf=-0.0870665908
						88:[pt<195.619492] yes=145,no=146,missing=145
							145:[pfiso<0.893828511] yes=219,no=220,missing=219
								219:[eta<1.71787858] yes=307,no=308,missing=307
									307:[spreadpt<0.974766374] yes=411,no=412,missing=412
										411:[ecf2<20.7337894] yes=509,no=510,missing=509
											509:[spreaddr<2.36908836e-05] yes=609,no=610,missing=610
												609:leaf=0.00352373091
												610:leaf=0.0911478102
											510:[ecf3<3.07781792] yes=611,no=612,missing=611
												611:[spreaddr<2.50058529e-05] yes=725,no=726,missing=725
													725:leaf=-0.0395901427
													726:leaf=0.00890599377
												612:[pfiso<0.734164119] yes=727,no=728,missing=727
													727:leaf=0.0656446964
													728:leaf=-0
										412:[pt<94.3652878] yes=511,no=512,missing=511
											511:[pt<49.3800087] yes=613,no=614,missing=614
												613:[spreadpt<0.985399485] yes=729,no=730,missing=729
													729:leaf=-0
													730:leaf=0.0623143651
												614:leaf=0.103304662
											512:[pfiso<0.772134542] yes=615,no=616,missing=615
												615:[pfiso<0.692770541] yes=731,no=732,missing=732
													731:leaf=0.0225602444
													732:leaf=0.0919308513
												616:leaf=-0.023023976
									308:[epsilon<0.0043266709] yes=413,no=414,missing=413
										413:leaf=-0.0402095318
										414:[epsilon<0.00646943832] yes=513,no=514,missing=513
											513:leaf=0.0486554764
											514:[epsilon<0.00741849514] yes=617,no=618,missing=618
												617:leaf=-0.0545787625
												618:leaf=0.00289350422
								220:leaf=-0.060157463
							146:leaf=-0.0639763102
				26:[neufrac<0.999999881] yes=51,no=52,missing=52
					51:[neufrac<0.0122848433] yes=89,no=90,missing=90
						89:[spreadpt<0.792935431] yes=147,no=148,missing=147
							147:leaf=-0.0433758348
							148:leaf=-0
						90:leaf=-0.103848264
					52:[pfiso<0.514541984] yes=91,no=92,missing=92
						91:[spreadpt<0.690551817] yes=149,no=150,missing=149
							149:[pfiso<0.43350634] yes=221,no=222,missing=221
								221:leaf=-0.0730807409
								222:leaf=0.0339412987
							150:[eta<1.75186443] yes=223,no=224,missing=224
								223:[eta<-1.95803738] yes=309,no=310,missing=309
									309:[spreadpt<0.852139533] yes=415,no=416,missing=416
										415:leaf=0.0534102209
										416:leaf=-0.0108768931
									310:[pfiso<0.484375268] yes=417,no=418,missing=417
										417:[spreadpt<0.932614446] yes=515,no=516,missing=516
											515:[ecf2<35.8654022] yes=619,no=620,missing=620
												619:[ecf3<2.06153178] yes=733,no=734,missing=733
													733:leaf=0.0701177493
													734:leaf=-0
												620:leaf=0.0993264019
											516:leaf=0.105061039
										418:[epsilon<0.00918497518] yes=517,no=518,missing=517
											517:[ecf3<1.74517906] yes=621,no=622,missing=621
												621:leaf=0.0431722216
												622:[ecf2<37.9090691] yes=735,no=736,missing=735
													735:leaf=-0.0677444935
													736:leaf=-0
											518:leaf=0.0875771344
								224:[pfiso<0.43350634] yes=311,no=312,missing=311
									311:[spreadpt<0.95510906] yes=419,no=420,missing=419
										419:leaf=-0
										420:leaf=0.0605999269
									312:leaf=-0.0603110045
						92:[eta<1.75186443] yes=151,no=152,missing=151
							151:[eta<-1.81403923] yes=225,no=226,missing=226
								225:[pfiso<0.537520289] yes=313,no=314,missing=313
									313:leaf=-0
									314:leaf=-0.0989366844
								226:[pfiso<0.868375301] yes=315,no=316,missing=315
									315:[pfiso<0.638881385] yes=421,no=422,missing=422
										421:[pt<43.6240807] yes=519,no=520,missing=519
											519:[ecf3<0.911894262] yes=623,no=624,missing=623
												623:leaf=0.0851019397
												624:[pt<41.5228729] yes=737,no=738,missing=738
													737:leaf=0.0098632006
													738:leaf=-0.0445737243
											520:[spreadpt<0.875527799] yes=625,no=626,missing=625
												625:leaf=0.0939640999
												626:[ecf3<0.782656312] yes=739,no=740,missing=739
													739:leaf=-0
													740:leaf=0.0571350232
										422:[spreadpt<0.662535489] yes=521,no=522,missing=522
											521:[pfiso<0.820595741] yes=627,no=628,missing=627
												627:leaf=-0.0851815492
												628:leaf=-0
											522:[spreaddr<0.00129024545] yes=629,no=630,missing=629
												629:[ecf2<16.3641701] yes=741,no=742,missing=742
													741:leaf=0.0479925908
													742:leaf=-0.000970929221
												630:[spreaddr<0.00197074632] yes=743,no=744,missing=744
													743:leaf=0.0267552193
													744:leaf=0.0952069759
									316:[pt<33.8830147] yes=423,no=424,missing=423
										423:[eta<-0.1720566] yes=523,no=524,missing=523
											523:leaf=-0
											524:leaf=-0.0489362665
										424:[pfiso<0.905526161] yes=525,no=526,missing=525
											525:[spreaddr<6.89937224e-05] yes=631,no=632,missing=632
												631:leaf=-0
												632:leaf=-0.0774704367
											526:leaf=-0.100532457
							152:[ecf2<9.29711533] yes=227,no=228,missing=227
								227:[spreadpt<0.937895715] yes=317,no=318,missing=318
									317:leaf=-0.0043168324
									318:leaf=-0
								228:[ecf3<0.722564042] yes=319,no=320,missing=320
									319:leaf=-0
									320:[spreadpt<0.738238037] yes=425,no=426,missing=425
										425:[epsilon<0.0114460038] yes=527,no=528,missing=528
											527:leaf=-0
											528:leaf=-0.0712294653
										426:[pfiso<0.57816571] yes=529,no=530,missing=530
											529:[epsilon<0.00918497518] yes=633,no=634,missing=633
												633:leaf=-0.0649023876
												634:leaf=-0
											530:leaf=-0.110373318
		6:[ecf3<38.4596672] yes=13,no=14,missing=13
			13:[spreadpt<0.671128631] yes=27,no=28,missing=28
				27:[spreadpt<0.602671146] yes=53,no=54,missing=53
					53:[pfiso<0.45113802] yes=93,no=94,missing=93
						93:[eta<0.855524719] yes=153,no=154,missing=153
							153:[eta<-1.27946973] yes=229,no=230,missing=230
								229:[neufrac<0.999999881] yes=321,no=322,missing=322
									321:leaf=-0.0503789894
									322:leaf=0.00465915725
								230:leaf=-0.102762759
							154:[neufrac<0.99999994] yes=231,no=232,missing=231
								231:leaf=-0.0205902494
								232:leaf=0.0139546702
						94:[spreadpt<0.53846395] yes=155,no=156,missing=155
							155:leaf=-0.107779317
							156:[spreaddr<0.00469776895] yes=233,no=234,missing=234
								233:leaf=-0.105393246
								234:[pfiso<0.509177268] yes=323,no=324,missing=323
									323:leaf=-0
									324:[ecf2<34.7124901] yes=427,no=428,missing=427
										427:leaf=-0
										428:[spreadpt<0.542930961] yes=531,no=532,missing=531
											531:leaf=-0.0134054655
											532:leaf=-0.0998642966
					54:[pfiso<0.713623285] yes=95,no=96,missing=95
						95:[neufrac<0.999999881] yes=157,no=158,missing=158
							157:leaf=-0.105092667
							158:[spreaddr<0.00288738823] yes=235,no=236,missing=236
								235:[pfiso<0.629329443] yes=325,no=326,missing=326
									325:[neufrac<1.00000012] yes=429,no=430,missing=429
										429:[eta<-0.867696643] yes=533,no=534,missing=534
											533:leaf=0.0204640534
											534:[epsilon<0.0162329227] yes=635,no=636,missing=635
												635:[eta<-0.549245298] yes=745,no=746,missing=745
													745:leaf=-0
													746:leaf=-0.0927094296
												636:[pt<37.8810959] yes=747,no=748,missing=748
													747:leaf=-0.0732085779
													748:leaf=0.0234492645
										430:[pt<44.9791336] yes=535,no=536,missing=535
											535:[pfiso<0.554972887] yes=637,no=638,missing=637
												637:leaf=-0
												638:leaf=-0.0522561148
											536:leaf=0.0749820918
									326:leaf=-0.0947692692
								236:[epsilon<0.0106367767] yes=327,no=328,missing=327
									327:[spreadpt<0.636989355] yes=431,no=432,missing=431
										431:[spreaddr<0.00337677659] yes=537,no=538,missing=537
											537:leaf=0.0138352932
											538:leaf=-0
										432:leaf=0.0858221203
									328:[spreaddr<0.00691270735] yes=433,no=434,missing=433
										433:[pt<31.7453289] yes=539,no=540,missing=539
											539:leaf=-0.0805445015
											540:leaf=-0
										434:[eta<0.132522032] yes=541,no=542,missing=541
											541:leaf=0.0110416217
											542:leaf=-0
						96:[ecf3<9.94829273] yes=159,no=160,missing=160
							159:[ecf3<9.2982769] yes=237,no=238,missing=237
								237:[ecf3<7.54430437] yes=329,no=330,missing=329
									329:leaf=-0.0736981854
									330:leaf=-0.098878853
								238:leaf=-0
							160:leaf=-0.106374733
				28:[pfiso<0.528412402] yes=55,no=56,missing=55
					55:[neufrac<0.956799746] yes=97,no=98,missing=98
